{"learner":{"attributes":{"scikit_learn":"{\"n_estimators\": 35, \"objective\": \"reg:pseudohubererror\", \"max_depth\": 8, \"learning_rate\": 0.27, \"verbosity\": null, \"booster\": \"gbtree\", \"tree_method\": null, \"gamma\": 0.4, \"min_child_weight\": 1, \"max_delta_step\": null, \"subsample\": 0.63, \"colsample_bytree\": 0.7300000000000001, \"colsample_bylevel\": null, \"colsample_bynode\": null, \"reg_alpha\": 0.01, \"reg_lambda\": null, \"scale_pos_weight\": 1, \"base_score\": null, \"missing\": NaN, \"num_parallel_tree\": null, \"kwargs\": {\"nthread\": 4, \"seed\": 27}, \"random_state\": null, \"n_jobs\": null, \"monotone_constraints\": null, \"interaction_constraints\": null, \"importance_type\": \"gain\", \"gpu_id\": null, \"validate_parameters\": null, \"n_features_in_\": 18, \"type\": \"XGBRegressor\"}"},"gradient_booster":{"model":{"gbtree_model_param":{"num_trees":"35","size_leaf_vector":"0"},"tree_info":[0,0,0,0,0,0,0,0,0,0,0,0,0,0,0,0,0,0,0,0,0,0,0,0,0,0,0,0,0,0,0,0,0,0,0],"trees":[{"base_weights":[3.8224403E1],"default_left":[false],"id":0,"leaf_child_counts":[0],"left_children":[-1],"loss_changes":[0E0],"parents":[2147483647],"right_children":[-1],"split_conditions":[1.0320589E1],"split_indices":[0],"sum_hessian":[2.2279427E0],"tree_param":{"num_deleted":"0","num_feature":"18","num_nodes":"1","size_leaf_vector":"0"}},{"base_weights":[-1.41176405E1,-2.1478815E1,-3.1433043E0,-9.630428E0,-2.8195503E1,-4.496823E0,-5.828494E-2],"default_left":[true,true,true,false,false,false,false],"id":1,"leaf_child_counts":[0,0,0,0,0,0,0],"left_children":[1,3,5,-1,-1,-1,-1],"loss_changes":[5.243002E2,6.3493042E1,1.6872288E1,0E0,0E0,0E0,0E0],"parents":[2147483647,0,0,1,1,2,2],"right_children":[2,4,6,-1,-1,-1,-1],"split_conditions":[2.7903225E0,6.1290324E-1,3.5E0,-2.6002157E0,-7.6127863E0,-1.2141422E0,-1.5736934E-2],"split_indices":[0,14,7,0,0,0,0],"sum_hessian":[6.328935E0,3.2146025E0,3.1143327E0,2.0440853E0,1.1705172E0,1.8442949E0,1.2700377E0],"tree_param":{"num_deleted":"0","num_feature":"18","num_nodes":"7","size_leaf_vector":"0"}},{"base_weights":[1.080204E0,-2.725286E0,2.3399293E0,-3.55274E0,1.3113241E0,2.8656359E0,-2.655399E-1,-4.3456173E0,-7.650869E-1,1.6001288E0,4.8946157E0,-3.4212015E0,1.6609421E0,-5.4249682E0,-1.7966715E0,1.9074526E-1,2.0760942E0,6.505542E0,9.444854E-1,3.1685004E0,-2.6456434E-1,4.837941E0,1.1467247E0,8.628737E0,2.648487E0,-1.302914E-1,2.5937202E0,-4.8335436E-1,3.5365185E-1,5.710928E-1,3.7580526E0],"default_left":[true,true,true,true,false,true,true,true,false,true,true,false,true,false,false,false,true,true,false,false,false,false,true,false,false,true,true,false,false,false,false],"id":2,"leaf_child_counts":[0,0,0,0,0,0,0,0,0,0,0,0,0,0,0,0,0,0,0,0,0,0,0,0,0,0,0,0,0,0,0],"left_children":[1,3,5,7,-1,9,11,13,-1,15,17,-1,19,-1,-1,-1,21,23,-1,-1,-1,-1,25,-1,-1,27,29,-1,-1,-1,-1],"loss_changes":[1.5764236E2,3.242978E1,3.3998383E1,1.246302E1,0E0,4.4134888E1,3.599292E1,4.9348755E0,0E0,8.951843E0,4.020369E1,0E0,1.1797201E1,0E0,0E0,0E0,2.0922138E1,1.8065292E1,0E0,0E0,0E0,0E0,1.7079704E1,0E0,0E0,1.155412E0,7.9198E0,0E0,0E0,0E0,0E0],"parents":[2147483647,0,0,1,1,2,2,3,3,5,5,6,6,7,7,9,9,10,10,12,12,16,16,17,17,22,22,25,25,26,26],"right_children":[2,4,6,8,-1,10,12,14,-1,16,18,-1,20,-1,-1,-1,22,24,-1,-1,-1,-1,26,-1,-1,28,30,-1,-1,-1,-1],"split_conditions":[5.645161E-1,1.032258E0,2.8198924E0,4.906516E3,3.5405752E-1,2.0166667E0,1.9666667E0,2.580645E-1,-2.0657347E-1,1.9354838E-1,4.658432E8,-9.237244E-1,3.026861E8,-1.4647415E0,-4.851013E-1,5.1501222E-2,2.3709679E0,3.3779569E0,2.5501108E-1,8.5549515E-1,-7.1432374E-2,1.3062441E0,1.016129E0,2.3297591E0,7.150915E-1,1.0333333E0,2.4919355E0,-1.3050568E-1,9.5486E-2,1.5419506E-1,1.0146742E0],"split_indices":[14,13,0,15,0,3,6,7,0,13,10,0,10,0,0,0,7,7,0,0,0,0,2,0,0,1,7,0,0,0,0],"sum_hessian":[3.0554707E1,7.307681E0,2.3247025E1,6.166064E0,1.1416178E0,1.9264088E1,3.9829378E0,4.362729E0,1.8033347E0,1.2968802E1,6.2952843E0,1.217663E0,2.7652748E0,2.2694774E0,2.0932515E0,3.6329668E0,9.335836E0,4.0103498E0,2.2849345E0,1.1918098E0,1.573465E0,1.28897E0,8.046866E0,1.786958E0,2.2233915E0,4.754195E0,3.292671E0,2.7614484E0,1.9927467E0,1.7506304E0,1.5420406E0],"tree_param":{"num_deleted":"0","num_feature":"18","num_nodes":"31","size_leaf_vector":"0"}},{"base_weights":[5.391E-3,-1.6540316E0,6.1943936E-1,-3.3044307E0,-7.76748E-1,9.206445E-1,-3.0882082E0,-1.1925146E-1,-1.6034186E0,1.6882489E0,2.0314157E-1,-4.9909863E-1,2.2392856E-1,-2.5084262E0,6.821925E-2,1.22016564E-1,2.3703587E0,9.591712E-1,-6.7347395E-1,4.9776435E-1,-6.263058E-2,3.7608868E-1,-4.0676838E-1,3.3424652E0,7.1843565E-1,2.955042E-1,1.948593E0,2.0273186E-1,-1.37103E0,1.6026697E-1,4.8029047E-1,9.1848624E-1,5.245627E0,-2.804233E-1,1.1261902E0,8.063801E-1,-1.4111664E-3,5.722852E-1,-2.8869137E-1,-2.5803976E0,4.3060657E-1,1.9087756E0,-3.6003178E-1,-2.8237358E-1,1.634143E-1],"default_left":[true,true,true,false,true,true,false,true,true,true,true,false,true,false,false,true,true,true,true,true,true,true,false,true,true,true,false,true,true,true,true,true,false,false,false,false,true,false,false,false,false,false,false,true,true],"id":3,"leaf_child_counts":[0,0,0,0,0,0,0,0,0,0,0,0,0,0,0,0,0,0,0,0,0,0,0,0,0,0,0,0,0,0,0,0,0,0,0,0,0,0,0,0,0,0,0,0,0],"left_children":[1,3,5,-1,7,9,-1,11,13,15,17,-1,-1,-1,-1,21,23,25,27,-1,-1,-1,-1,31,33,35,-1,37,39,-1,-1,41,-1,-1,-1,-1,-1,-1,-1,-1,-1,-1,-1,-1,-1],"loss_changes":[4.0522114E1,1.29429455E1,3.524363E1,0E0,4.3158684E0,1.4852165E1,0E0,8.605973E-1,5.6424494E0,1.379055E1,1.0869304E1,0E0,3.245558E-1,0E0,0E0,8.330352E-1,1.2232746E1,5.1137915E0,5.0096765E0,0E0,0E0,5.5176616E-3,0E0,2.037909E1,2.2234607E0,9.786648E-1,0E0,9.467405E-1,1.0795297E1,0E0,0E0,5.2894373E0,0E0,0E0,0E0,0E0,2.8017718E-1,0E0,0E0,0E0,0E0,0E0,0E0,0E0,0E0],"parents":[2147483647,0,0,1,1,2,2,4,4,5,5,7,7,8,8,9,9,10,10,12,12,15,15,16,16,17,17,18,18,21,21,23,23,24,24,25,25,27,27,28,28,31,31,36,36],"right_children":[2,4,6,-1,8,10,-1,12,14,16,18,-1,-1,-1,-1,22,24,26,28,-1,-1,-1,-1,32,34,36,-1,38,40,-1,-1,42,-1,-1,-1,-1,-1,-1,-1,-1,-1,-1,-1,-1,-1],"split_conditions":[5.645161E-1,1.1290322E-1,7.670952E1,-8.9219636E-1,4.2651725E0,1.6166667E0,-8.3381623E-1,3.2258064E-2,9.899889E-2,9.516129E-1,1.7741935E0,-1.3475664E-1,6.0460713E-2,-6.772751E-1,1.8419199E-2,1.9612806E6,9.5E-1,1.7580645E0,2.7333333E0,1.3439637E-1,-1.6910257E-2,1.0154395E-1,-1.0982747E-1,9.83871E-1,4.6019833E1,4.677419E-1,5.261201E-1,9.333333E5,1.5274193E0,4.327208E-2,1.2967843E-1,1.04365256E6,1.4163194E0,-7.57143E-2,3.0407137E-1,2.1772264E-1,-3.8101495E-4,1.5451701E-1,-7.794667E-2,-6.9670737E-1,1.1626378E-1,5.153694E-1,-9.720858E-2,-7.624087E-2,4.412186E-2],"split_indices":[14,12,17,0,17,2,0,13,14,13,14,0,13,0,0,15,6,13,7,2147483647,2147483647,7,0,1,17,4,0,10,6,2147483647,2147483647,15,0,0,0,0,1,0,0,0,0,0,0,2147483647,2147483647],"sum_hessian":[3.7772533E1,9.740252E0,2.8032282E1,2.4163697E0,7.323882E0,2.6623783E1,1.4084988E0,4.72343E0,2.6004517E0,1.2202415E1,1.4421368E1,2.0401285E0,2.683302E0,1.3662049E0,1.234247E0,4.0641117E0,8.138304E0,7.6988187E0,6.722549E0,1.0130703E0,1.6702316E0,2.9529493E0,1.1111622E0,4.475296E0,3.663008E0,5.3913045E0,2.3075142E0,3.2877774E0,3.4347715E0,1.8191518E0,1.1337975E0,2.622716E0,1.8525802E0,1.1452609E0,2.517747E0,1.363343E0,4.0279617E0,1.7942746E0,1.493503E0,1.7998807E0,1.6348908E0,1.2045677E0,1.4181483E0,1.2480432E0,2.7799184E0],"tree_param":{"num_deleted":"6","num_feature":"18","num_nodes":"45","size_leaf_vector":"0"}},{"base_weights":[-2.3400673E-1,1.0581723E-1,-2.5673802E0,-4.1813192E-1,8.903302E-1,-7.951312E0,1.6309348E-1,-2.3172352E-1,-1.8795592E0,1.149991E0,1.193101E-1,-2.22495E0,2.3842354E0,-1.1008806E0,9.224723E-2,2.2687223E0,6.6859025E-1,-7.1513045E-1,7.012739E-1,-1.520701E0,3.4292534E-1,6.285181E-1,-6.202776E-1,2.7741365E-2,3.6687388E0,3.2113025E-1,1.4387876E0,1.3949247E-1,1.2937583E0,-8.7368864E-1,4.225783E-1,-5.288392E-1,6.903255E-1,8.0745876E-1,-4.8480797E-1,1.7955636E0,-0E0,-3.1470725E-1,-1.7379887E0,2.754225E-1,1.3623693E0,-5.5698663E-2,-9.744334E-1,5.483106E-1,2.188931E0,-1.1415724E0,2.3978767E-1,3.4819517E-1,9.629446E-2],"default_left":[true,true,true,true,true,false,true,true,false,true,true,false,false,true,true,true,true,false,false,false,false,true,true,false,false,true,false,true,true,true,false,false,true,false,true,true,false,true,false,true,false,false,false,false,false,false,false,true,true],"id":4,"leaf_child_counts":[0,0,0,0,0,0,0,0,0,0,0,0,0,0,0,0,0,0,0,0,0,0,0,0,0,0,0,0,0,0,0,0,0,0,0,0,0,0,0,0,0,0,0,0,0,0,0,0,0],"left_children":[1,3,5,7,9,-1,11,13,-1,15,17,-1,-1,19,21,23,25,-1,-1,-1,-1,27,29,-1,-1,31,-1,33,35,37,-1,-1,39,-1,41,43,-1,45,-1,-1,-1,-1,-1,-1,-1,-1,-1,-1,-1],"loss_changes":[3.8819294E1,1.8201319E1,9.280251E1,6.8094406E0,3.391961E0,0E0,3.238524E1,7.095313E0,0E0,5.513647E0,3.2122796E0,0E0,0E0,4.6671906E0,7.642895E0,1.0904055E1,2.3541446E0,0E0,0E0,0E0,0E0,3.4926891E0,2.6587431E0,0E0,0E0,3.0633402E0,0E0,3.5899262E0,3.0447378E0,2.954471E0,0E0,0E0,1.4021485E0,0E0,8.972049E-1,4.2598534E-1,0E0,2.8755274E0,0E0,3.033343E-2,0E0,0E0,0E0,0E0,0E0,0E0,0E0,0E0,0E0],"parents":[2147483647,0,0,1,1,2,2,3,3,4,4,6,6,7,7,9,9,10,10,13,13,14,14,15,15,16,16,21,21,22,22,25,25,27,27,28,28,29,29,32,32,34,34,35,35,37,37,39,39],"right_children":[2,4,6,8,10,-1,12,14,-1,16,18,-1,-1,20,22,24,26,-1,-1,-1,-1,28,30,-1,-1,32,-1,34,36,38,-1,-1,40,-1,42,44,-1,46,-1,-1,-1,-1,-1,-1,-1,-1,-1,-1,-1],"split_conditions":[2.6614943E0,3.6129034E-1,1.8833333E0,4.827586E-1,2.0992473E5,-2.1468544E0,1.9666667E0,1.6129032E-2,-5.07481E-1,1.5258064E0,1.9584396E7,-6.0073656E-1,6.437436E-1,4.906516E3,3.548387E-1,3.6759327E1,3.2258065E0,-1.9308522E-1,1.8934396E-1,-4.105893E-1,9.258985E-2,7.741935E-1,2.9032257E-1,7.490169E-3,9.905595E-1,1.7741935E-1,3.8847268E-1,1.1735261E-1,1.75E1,1.016129E0,1.1409615E-1,-1.4278658E-1,1.048387E0,2.1801387E-1,2.196129E0,3.067069E0,-0E0,2.05E0,-4.6925697E-1,7.436408E-2,3.6783972E-1,-1.5038639E-2,-2.6309705E-1,1.4804386E-1,5.910114E-1,-3.0822456E-1,6.474267E-2,9.40127E-2,2.5999505E-2],"split_indices":[0,6,13,16,15,0,6,13,0,1,15,0,0,15,8,17,7,0,0,0,0,13,4,0,0,4,0,13,15,0,0,0,6,0,17,17,0,7,0,17,0,0,0,0,0,0,0,2147483647,2147483647],"sum_hessian":[4.7582726E1,4.2363438E1,5.2192903E0,2.5672157E1,1.6691278E1,1.1141046E0,4.1051855E0,2.3801609E1,1.8705477E0,1.210883E1,4.582448E0,1.9752713E0,2.1299143E0,5.8200936E0,1.7981516E1,2.5197163E0,9.589114E0,1.7817315E0,2.8007166E0,4.4731016E0,1.3469918E0,1.0334984E1,7.6465325E0,1.363748E0,1.1559683E0,7.5934167E0,1.9956973E0,6.6622252E0,3.6727583E0,6.289907E0,1.3566257E0,2.1603394E0,5.4330773E0,3.084558E0,3.5776672E0,2.3703122E0,1.3024464E0,4.6549993E0,1.6349077E0,4.2400713E0,1.1930056E0,2.5111067E0,1.0665605E0,1.148396E0,1.2219162E0,1.4508138E0,3.2041855E0,2.3042758E0,1.9357958E0],"tree_param":{"num_deleted":"2","num_feature":"18","num_nodes":"49","size_leaf_vector":"0"}},{"base_weights":[-1.493437E-1,1.0053071E-1,-1.4752314E0,-2.8742072E-1,7.136239E-1,-2.4668272E0,-1.9927993E-1,-9.330008E-1,2.2957819E-2,-9.159159E-3,1.094487E0,-3.4946954E0,-1.0365037E0,-1.5622783E0,7.549815E-1,-1.5324255E0,-4.1367435E-1,4.016869E-1,-3.9810133E-1,3.0586305E-1,-8.3622694E-1,5.0762635E-1,1.7301508E0,-3.212191E-1,-1.4263744E0,9.1860825E-1,-1.0388587E0,8.082691E-2,1.2914659E0,9.7840774E-1,-7.1491015E-1,6.4251393E-1,-9.6198395E-2,-3.380364E-1,6.7729396E-1,2.2099364E0,4.5115417E-1,-1.807375E0,-1.8296558E-1,4.1962582E-1,-2.2185032E-1,1.5874351E0,3.4766483E-1,-1.4318681E0,-1.8032932E-1,-5.249399E-1,2.7883843E-1,1.4324989E0,2.9388833E-1,2.8637235E0,4.5863417E-1,1.6272447E-1,-4.6136585E-1,-3.903184E-3,1.0379107E0,-5.2939016E-1,-3.6929157E-2,-4.4393113E-1,-1.7148973E0,-4.6919826E-1,4.9532805E-2,5.2841395E-2,3.9798373E-1,7.025652E-2,-1.3892761E-1,2.8324082E-1,-2.09502E-1],"default_left":[true,true,true,true,true,true,true,true,true,true,true,false,true,false,false,false,true,true,true,true,false,true,true,false,false,false,true,true,true,false,true,false,true,false,true,true,false,false,true,true,true,true,true,true,true,false,false,false,true,false,false,false,false,false,false,true,true,true,true,false,true,true,true,true,true,true,true],"id":5,"leaf_child_counts":[0,0,0,0,0,0,0,0,0,0,0,0,0,0,0,0,0,0,0,0,0,0,0,0,0,0,0,0,0,0,0,0,0,0,0,0,0,0,0,0,0,0,0,0,0,0,0,0,0,0,0,0,0,0,0,0,0,0,0,0,0,0,0,0,0,0,0],"left_children":[1,3,5,7,9,11,13,15,17,19,21,-1,23,-1,-1,-1,25,27,29,31,-1,33,35,-1,-1,-1,37,39,-1,-1,43,-1,45,-1,47,49,-1,-1,51,53,-1,-1,-1,-1,59,-1,-1,-1,-1,-1,-1,-1,-1,-1,-1,-1,-1,-1,-1,-1,-1,-1,-1,-1,-1,-1,-1],"loss_changes":[1.9328264E1,1.2008382E1,1.117717E1,6.2591076E0,5.3949423E0,3.843832E0,7.865869E0,2.4991245E0,3.6614945E0,2.2723804E0,3.8752613E0,0E0,5.176933E-1,0E0,0E0,0E0,6.6233225E0,3.3278732E0,5.444791E0,9.218658E-1,0E0,1.3916986E0,2.487814E0,0E0,0E0,0E0,3.0078416E0,1.115025E0,3.0139637E-1,0E0,3.3415604E0,0E0,7.491718E-1,0E0,1.6096444E0,3.1177368E0,0E0,0E0,4.182107E-1,1.3379734E0,3.0985266E-1,0E0,0E0,3.013687E-1,4.6279588E-1,0E0,0E0,0E0,1.2395924E-1,0E0,0E0,0E0,0E0,0E0,0E0,0E0,6.264743E-2,0E0,0E0,0E0,3.347067E-1,0E0,0E0,0E0,0E0,0E0,0E0],"parents":[2147483647,0,0,1,1,2,2,3,3,4,4,5,5,6,6,7,7,8,8,9,9,10,10,12,12,16,16,17,17,18,18,19,19,21,21,22,22,26,26,27,27,28,28,30,30,32,32,34,34,35,35,38,38,39,39,40,40,43,43,44,44,48,48,56,56,60,60],"right_children":[2,4,6,8,10,12,14,16,18,20,22,-1,24,-1,-1,-1,26,28,30,32,-1,34,36,-1,-1,-1,38,40,-1,-1,44,-1,46,-1,48,50,-1,-1,52,54,-1,-1,-1,-1,60,-1,-1,-1,-1,-1,-1,-1,-1,-1,-1,-1,-1,-1,-1,-1,-1,-1,-1,-1,-1,-1,-1],"split_conditions":[2.951613E0,5.2473116E-1,3.5E0,3.7096775E-1,2.1344087E-1,1.5E0,1.5666666E0,1.6129032E-2,1.7997775E0,6.710016E7,1.7096775E0,-9.435678E-1,3.7741935E0,-4.2181516E-1,2.0384502E-1,-4.137549E-1,2.141268E-1,8.548387E-1,3.2258064E-2,2.7333333E0,-2.2578128E-1,5.4838705E-1,3.8333335E0,-8.6729154E-2,-3.851211E-1,2.4802424E-1,1.8620689E0,1.724138E-1,3.486958E-1,2.641701E-1,1.8870968E0,1.7347877E-1,3.516129E0,-9.126983E-2,2.032258E0,2.6774192E0,1.2181163E-1,-4.8799124E-1,2.7258065E0,2.0967741E-1,-5.9899587E-2,4.286075E-1,9.386951E-2,-3.866044E-1,2.2096775E0,-1.4173378E-1,7.528638E-2,3.8677472E-1,7.934985E-2,7.732054E-1,1.2383123E-1,4.3935608E-2,-1.2456878E-1,-1.0538597E-3,2.802359E-1,-1.4293535E-1,-9.970873E-3,-1.1986141E-1,-4.630223E-1,-1.2668353E-1,1.3373857E-2,1.4267177E-2,1.0745561E-1,1.896926E-2,-3.7510455E-2,7.6475024E-2,-5.656554E-2],"split_indices":[0,6,7,14,4,14,13,13,14,10,2,0,3,0,0,0,13,8,8,3,0,4,7,0,0,0,12,2,6,0,2,0,3,0,3,13,0,0,3,13,4,2147483647,2147483647,2,7,0,0,0,10,0,0,0,0,0,0,2147483647,2147483647,2147483647,2147483647,0,0,2147483647,2147483647,2147483647,2147483647,2147483647,2147483647],"sum_hessian":[5.6850582E1,4.8606857E1,8.243725E0,3.0084778E1,1.852208E1,4.109161E0,4.1345634E0,9.127013E0,2.0957766E1,6.7196183E0,1.1802461E1,1.5470957E0,2.5620654E0,1.4445673E0,2.6899962E0,3.3222764E0,5.8047366E0,1.1070219E1,9.887547E0,5.313753E0,1.405865E0,7.080176E0,4.7222853E0,1.5563099E0,1.0057554E0,1.6989337E0,4.105803E0,8.94623E0,2.1239896E0,1.4532788E0,8.434267E0,2.5801694E0,2.733584E0,1.007463E0,6.072713E0,2.8990781E0,1.823207E0,1.5714306E0,2.5343726E0,4.05451E0,4.89172E0,1.0897096E0,1.0342798E0,2.877666E0,5.5566015E0,1.1014125E0,1.6321714E0,1.1147085E0,4.9580045E0,1.6443219E0,1.2547563E0,1.2998853E0,1.2344873E0,2.986353E0,1.0681571E0,1.1170702E0,3.7746494E0,1.220665E0,1.6570009E0,2.020153E0,3.5364485E0,1.9790158E0,2.9789884E0,1.9444607E0,1.8301888E0,1.8302798E0,1.7061687E0],"tree_param":{"num_deleted":"12","num_feature":"18","num_nodes":"67","size_leaf_vector":"0"}},{"base_weights":[-1.3909896E-1,-7.8958315E-1,5.884817E-2,-4.9139655E-1,-1.6962615E0,2.916049E-1,-8.971724E-1,-2.2007123E-1,-1.644911E0,4.665531E-1,-1.6581E-1,-3.9954996E-1,-1.8424745E0,1.8717404E-2,-1.1150781E0,9.9790454E-1,2.8884912E-1,-9.396595E-1,1.7316812E-1,-7.8077877E-1,9.831429E-1,-3.04284E-1,1.2178028E0,4.4002527E-1,1.8252747E0,1.3207403E0,2.950392E-2,-6.0659293E-2,1.0655726E0,-3.0088037E-1,-1.5663433E0,-1.5486508E-2,-7.6740617E-1,1.2148481E-1,5.234787E-1,1.9983877E0,4.8271012E-1,-3.1017637E-1,2.2703657E-1,-4.1153422E-1,1.7955683E-1,-1.0552316E0,3.0749962E-1,-5.925272E-1,1.9236268E-1,5.6422755E-2,6.88995E-1,1.7794979E-1,-8.912853E-1,-1.7218564E-1,5.6209713E-1,-5.065107E-1,1.6786124E-1,9.2444694E-1,1.8656398E-1],"default_left":[true,true,true,true,false,true,true,true,false,true,true,true,false,true,false,true,true,false,true,true,false,true,false,true,false,true,true,true,false,true,false,false,false,true,true,false,false,true,true,false,false,false,false,true,true,true,true,false,false,false,false,false,false,true,true],"id":6,"leaf_child_counts":[0,0,0,0,0,0,0,0,0,0,0,0,0,0,0,0,0,0,0,0,0,0,0,0,0,0,0,0,0,0,0,0,0,0,0,0,0,0,0,0,0,0,0,0,0,0,0,0,0,0,0,0,0,0,0],"left_children":[1,3,5,7,-1,9,11,13,-1,15,17,19,-1,21,-1,23,25,-1,27,29,-1,31,-1,-1,-1,35,37,39,-1,41,-1,-1,-1,-1,-1,-1,-1,43,45,-1,-1,-1,-1,47,49,51,-1,-1,-1,-1,-1,-1,-1,-1,-1],"loss_changes":[8.488951E0,3.2987347E0,1.1636322E1,3.6814082E0,0E0,3.4328911E0,4.063427E0,2.525647E0,0E0,2.5865169E0,3.40012E0,4.9822702E0,0E0,4.3247375E0,0E0,2.5173254E0,6.4609823E0,0E0,2.0355973E0,2.0862432E0,0E0,1.1596591E0,0E0,8.0174565E-2,0E0,1.7692728E0,1.4438189E0,7.8282034E-1,0E0,2.8504703E0,0E0,0E0,0E0,0E0,0E0,0E0,0E0,1.2438724E0,1.0213279E0,0E0,0E0,0E0,0E0,1.3945242E0,5.854551E-1,7.7153945E-1,2.3621237E-1,0E0,0E0,0E0,0E0,0E0,0E0,0E0,0E0],"parents":[2147483647,0,0,1,1,2,2,3,3,5,5,6,6,7,7,9,9,10,10,11,11,13,13,15,15,16,16,18,18,19,19,21,21,23,23,25,25,26,26,27,27,29,29,37,37,38,38,43,43,44,44,45,45,46,46],"right_children":[2,4,6,8,-1,10,12,14,-1,16,18,20,-1,22,-1,24,26,-1,28,30,-1,32,-1,-1,-1,36,38,40,-1,42,-1,-1,-1,-1,-1,-1,-1,44,46,-1,-1,-1,-1,48,50,52,-1,-1,-1,-1,-1,-1,-1,-1,-1],"split_conditions":[5.645161E-1,1.5517241E-1,2.951613E0,5.4324834E3,-4.5799062E-1,2.4193548E-1,5.372317E7,1.5878794E1,-4.44126E-1,3.302796E1,9.250121E3,8.28725E1,-4.974681E-1,3.175751E-1,-3.010711E-1,1.2419355E0,1.0645161E0,-2.5370806E-1,1.7258065E0,7.670952E1,2.654486E-1,1.1290322E-1,3.2880676E-1,1.18806824E-1,4.928242E-1,1.7333333E0,2.4301074E-1,6.2903225E-1,2.8770462E-1,7.21935E1,-4.2291272E-1,-4.181357E-3,-2.0719968E-1,3.2800898E-2,1.4133926E-1,5.3956467E-1,1.3033174E-1,1.8870968E0,2.1987516E7,-1.1111424E-1,4.8480347E-2,-2.8491253E-1,8.30249E-2,4.0322578E-1,6.2903225E-1,9.166666E-1,1.8602866E-1,4.8046444E-2,-2.4064705E-1,-4.6490125E-2,1.5176623E-1,-1.3675788E-1,4.5322537E-2,2.4960068E-1,5.0372276E-2],"split_indices":[14,14,0,15,0,16,10,17,0,17,10,17,0,12,0,12,14,0,1,17,0,12,0,17,0,1,6,6,0,17,0,0,0,2147483647,2147483647,0,0,1,10,0,0,0,0,1,2,6,1,0,0,0,0,0,0,2147483647,2147483647],"sum_hessian":[6.45101E1,1.436528E1,5.014482E1,1.1978739E1,2.386541E0,4.089403E1,9.250791E0,1.0668733E1,1.3100065E0,2.9581741E1,1.1312291E1,6.9994264E0,2.2513642E0,9.185853E0,1.4828799E0,6.242944E0,2.3338799E1,2.9150407E0,8.39725E0,5.833576E0,1.1658504E0,7.817835E0,1.3680179E0,4.650874E0,1.5920695E0,3.85786E0,1.9480938E1,7.3834605E0,1.0137897E0,4.487761E0,1.3458151E0,5.464974E0,2.352861E0,1.5001959E0,3.1506784E0,1.3608739E0,2.4969862E0,6.934824E0,1.2546114E1,2.7276816E0,4.655779E0,1.6829531E0,2.804808E0,4.3382287E0,2.5965955E0,9.997537E0,2.5485768E0,1.3157904E0,3.0224383E0,1.5628852E0,1.0337102E0,1.0514051E0,8.946132E0,1.1498681E0,1.3987086E0],"tree_param":{"num_deleted":"4","num_feature":"18","num_nodes":"55","size_leaf_vector":"0"}},{"base_weights":[1.0689804E-1,-2.9901013E-1,4.325311E-1,-6.2850296E-1,3.8458595E-1,2.2433994E0,2.4767688E-1,-3.7808886E-1,-2.5811844E0,1.5148506E0,7.785817E-2,1.0832464E-1,8.561033E-1,-9.671889E-1,-1.9198024E-1,-1.5143539E-1,5.796589E-1,-2.2706999E-1,3.5178083E-1,1.5693138E0,7.027978E-2,3.8292304E-1,-5.810382E-1,8.585534E-3,-5.349125E-1,3.950186E-1,-3.9783594E-1,1.1152916E0,-1.1732448E-1,9.650038E-2,7.443961E-1,-1.3586035E0,3.2195763E-3,-9.2907116E-2,1.4801766E-1,-4.913044E-1,3.4226667E-2,3.5278633E-1,2.0807126E0,-5.8851975E-1,6.353053E-1,2.853707E-1,-1.3933527E-1,-1.888288E-1,5.0789976E-1,-5.8278304E-1,-2.1244693E-1,5.0138843E-1,8.685712E-2,8.837734E-2,-1.3435638E0,9.6523935E-1,-1.7733827E-1,-2.0185698E-2,-3.8661322E-1,-2.434107E-1,3.486139E-1,-2.2417798E0,7.068049E-2],"default_left":[true,true,true,true,true,false,true,true,false,false,true,true,true,false,true,true,false,true,true,false,false,true,true,true,false,false,true,true,true,true,false,false,true,true,true,true,false,true,false,true,true,true,true,true,false,true,true,true,true,true,true,false,false,true,true,false,false,false,false],"id":7,"leaf_child_counts":[0,0,0,0,0,0,0,0,0,0,0,0,0,0,0,0,0,0,0,0,0,0,0,0,0,0,0,0,0,0,0,0,0,0,0,0,0,0,0,0,0,0,0,0,0,0,0,0,0,0,0,0,0,0,0,0,0,0,0],"left_children":[1,3,5,7,9,-1,11,13,-1,-1,15,17,19,-1,21,23,-1,25,27,-1,-1,29,31,-1,-1,-1,35,37,39,-1,-1,-1,43,-1,-1,-1,-1,-1,-1,49,51,-1,-1,-1,-1,-1,-1,-1,-1,55,57,-1,-1,-1,-1,-1,-1,-1,-1],"loss_changes":[8.247022E0,6.530836E0,1.0966236E1,8.394064E0,3.2248635E0,0E0,2.6470628E0,1.7996542E0,0E0,0E0,1.0909387E0,2.3301423E0,3.1715617E0,0E0,3.6023164E0,4.2331743E-1,0E0,1.4505231E0,6.0034986E0,0E0,0E0,6.1214554E-1,4.2948346E0,9.524606E-2,0E0,0E0,4.277879E-1,3.9034238E0,4.2870913E0,2.59279E-1,0E0,0E0,7.160715E-1,0E0,0E0,8.14383E-2,0E0,1.3820541E-1,0E0,3.8694186E0,1.4450248E0,0E0,0E0,1.6576335E-1,0E0,0E0,0E0,0E0,0E0,4.9931282E-1,4.6594257E0,0E0,0E0,0E0,0E0,0E0,0E0,0E0,0E0],"parents":[2147483647,0,0,1,1,2,2,3,3,4,4,6,6,7,7,10,10,11,11,12,12,14,14,15,15,17,17,18,18,21,21,22,22,23,23,26,26,27,27,28,28,29,29,32,32,35,35,37,37,39,39,40,40,43,43,49,49,50,50],"right_children":[2,4,6,8,10,-1,12,14,-1,-1,16,18,20,-1,22,24,-1,26,28,-1,-1,30,32,-1,-1,-1,36,38,40,-1,-1,-1,44,-1,-1,-1,-1,-1,-1,50,52,-1,-1,-1,-1,-1,-1,-1,-1,56,58,-1,-1,-1,-1,-1,-1,-1,-1],"split_conditions":[1.1356322E0,1.2580645E0,3.2258064E-2,1.8870968E0,8.7096775E-1,6.0571784E-1,2.9992378E3,1.6129032E-2,-6.969198E-1,4.090097E-1,7.608234E1,1.4516129E-1,8.8516525E5,-2.61141E-1,2.85317E-1,2.8166666E0,1.5650791E-1,1.6129032E-2,5.9815754E1,4.2371473E-1,1.8975541E-2,1.4791934E0,1.9655173E0,2.3180943E-3,-1.4442639E-1,1.0665503E-1,5.6666665E6,1.7575269E0,1.7526882E0,2.6055105E-2,2.0098695E-1,-3.6682296E-1,1.5967741E0,-2.5084922E-2,3.996477E-2,-1.326522E-1,9.2412E-3,9.525231E-2,5.6179243E-1,2.5908604E0,1.8870968E0,7.70501E-2,-3.7620526E-2,-5.0983775E-2,1.3713294E-1,-1.5735143E-1,-5.736067E-2,1.3537489E-1,2.3451423E-2,1.6612903E0,2.6666667E0,2.6061463E-1,-4.7881335E-2,-5.450139E-3,-1.0438558E-1,-6.572089E-2,9.4125755E-2,-6.052806E-1,1.9083733E-2],"split_indices":[13,9,8,0,6,0,15,13,0,0,17,5,16,0,13,0,0,1,17,0,0,17,12,3,0,0,16,9,5,12,0,0,1,2147483647,2147483647,17,0,0,0,0,8,2147483647,2147483647,0,0,2147483647,2147483647,2147483647,2147483647,9,1,0,0,2147483647,2147483647,0,0,0,0],"sum_hessian":[6.040515E1,2.6911041E1,3.349411E1,1.8222858E1,8.688184E0,2.0659094E0,3.1428202E1,1.7214054E1,1.0088037E0,1.0068144E0,7.6813693E0,2.6543282E1,4.88492E0,3.1121993E0,1.4101855E1,5.7378125E0,1.9435567E0,1.1174748E1,1.5368532E1,2.031438E0,2.853482E0,5.687546E0,8.4143095E0,4.719817E0,1.0179954E0,2.1113756E0,9.063373E0,5.3327827E0,1.0035749E1,3.8954852E0,1.7920609E0,3.0486927E0,5.365617E0,2.8831372E0,1.83668E0,7.3577046E0,1.705668E0,3.7481852E0,1.5845975E0,6.3140674E0,3.7216823E0,2.0700421E0,1.825443E0,4.325604E0,1.0400127E0,4.692563E0,2.665142E0,1.8123908E0,1.9357944E0,3.7879112E0,2.5261564E0,2.5221965E0,1.1994858E0,2.9569483E0,1.3686557E0,1.6765836E0,2.1113274E0,1.1914006E0,1.3347557E0],"tree_param":{"num_deleted":"10","num_feature":"18","num_nodes":"59","size_leaf_vector":"0"}},{"base_weights":[3.4034632E-2,9.0684876E-2,-1.5106605E0,-9.302932E-2,5.197258E-1,1.7361529E-1,-5.2179813E-1,-7.502975E-2,1.2780247E0,2.7259168E-1,-2.0987418E-1,-1.216945E0,-2.1504873E-1,-2.9290405E-1,4.0088853E-1,4.0509406E-1,2.9282672E0,5.31663E-2,1.0390419E0,2.0735925E-1,-3.2325777E-1,-3.8478765E-1,-2.3171973E0,9.5411114E-2,-6.988535E-1,-6.2187994E-1,3.913819E-2,5.295494E-1,1.9494408E-1,6.609352E-1,-2.740878E-1,1.595554E-1,-7.841371E-1,1.7217457E0,2.1971883E-1,-5.506974E-1,-7.665732E-2,-7.2433084E-1,4.9149025E-2,-4.2698252E-1,2.2972415E-1,-1.0930172E0,-1.9530983E-1,-1.0573137E0,-1.968527E-1,-8.2262926E-2,2.171281E-1,1.3222789E0,1.4205581E-1,5.7665867E-1,-1.08011425E-1,6.279478E-1,-1.14492096E-1,-1.3875803E-1,4.358026E-1,8.6080277E-1,-1.8420719E-1,-3.2144493E-1,5.932227E-1,1.1580267E-1,1.0419633E0,-4.9367532E-1,9.695281E-2],"default_left":[true,true,false,true,true,true,true,true,true,true,true,true,true,true,true,true,false,true,true,true,true,true,false,true,true,true,true,true,true,true,false,true,false,false,false,true,true,false,false,false,true,false,false,false,false,true,true,false,true,true,true,true,true,false,false,false,false,false,false,false,false,false,false],"id":8,"leaf_child_counts":[0,0,0,0,0,0,0,0,0,0,0,0,0,0,0,0,0,0,0,0,0,0,0,0,0,0,0,0,0,0,0,0,0,0,0,0,0,0,0,0,0,0,0,0,0,0,0,0,0,0,0,0,0,0,0,0,0,0,0,0,0,0,0],"left_children":[1,3,-1,5,7,9,11,13,15,17,-1,21,23,25,-1,29,-1,31,33,-1,-1,37,-1,39,41,43,-1,-1,-1,47,-1,49,-1,-1,-1,-1,-1,-1,-1,-1,51,-1,-1,-1,-1,-1,-1,-1,53,55,57,59,61,-1,-1,-1,-1,-1,-1,-1,-1,-1,-1],"loss_changes":[6.0901675E0,5.3123364E0,0E0,5.530996E0,9.206854E0,1.1986873E0,3.6684666E0,1.3859144E0,1.1646012E1,4.0283995E0,3.8563845E-1,4.0611725E0,2.184444E0,1.0123019E0,2.2078156E-3,1.4023545E0,0E0,1.8997365E0,2.5974674E0,0E0,2.704258E-1,6.7607254E-1,0E0,7.578429E-1,8.9071035E-1,6.289393E-1,1.3590236E-1,0E0,0E0,1.6480443E0,0E0,2.1405008E0,0E0,0E0,0E0,0E0,0E0,0E0,0E0,0E0,1.1966077E0,0E0,0E0,0E0,0E0,0E0,0E0,0E0,4.0581927E-1,1.7723513E0,2.0058744E0,7.0624065E-1,4.698062E-1,0E0,0E0,0E0,0E0,0E0,0E0,0E0,0E0,0E0,0E0],"parents":[2147483647,0,0,1,1,3,3,4,4,5,5,6,6,7,7,8,8,9,9,10,10,11,11,12,12,13,13,14,14,15,15,17,17,18,18,20,20,21,21,23,23,24,24,25,25,26,26,29,29,31,31,40,40,48,48,49,49,50,50,51,51,52,52],"right_children":[2,4,-1,6,8,10,12,14,16,18,-1,22,24,26,-1,30,-1,32,34,-1,-1,38,-1,40,42,44,-1,-1,-1,48,-1,50,-1,-1,-1,-1,-1,-1,-1,-1,52,-1,-1,-1,-1,-1,-1,-1,54,56,58,60,62,-1,-1,-1,-1,-1,-1,-1,-1,-1,-1],"split_conditions":[1.016129E0,8.666667E-1,-4.0787837E-1,1.655914E0,1.4924731E0,8.037634E-1,1.7903225E0,1.3402031E5,1.5806452E0,2.5913978E-1,-5.666603E-2,2.0967741E-1,1.1817205E0,1.2E0,1.0823991E-1,2.483871E0,7.906322E-1,1.75E1,1.1290323E0,5.5987E-2,-8.72796E-2,2.2E0,-6.256433E-1,1.951613E0,1.0666666E0,8.666782E7,1.0567312E-2,1.4297836E-1,5.2634906E-2,1.9032258E0,-7.4003704E-2,6.6740826E-2,-2.1171704E-1,4.6487138E-1,5.9324086E-2,-1.486883E-1,-2.0697476E-2,-1.9556934E-1,1.32702375E-2,-1.15285285E-1,2.5E0,-2.9511467E-1,-5.2733656E-2,-2.8547472E-1,-5.315023E-2,-2.2210991E-2,5.8624588E-2,3.570153E-1,1.2304182E7,2.7419353E-1,1.8064516E0,9.83871E-1,5.6666665E6,-3.746467E-2,1.1766671E-1,2.3241676E-1,-4.973594E-2,-8.679014E-2,1.6017012E-1,3.1266723E-2,2.813301E-1,-1.3329235E-1,2.617726E-2],"split_indices":[4,4,0,0,13,6,2,15,5,0,10,6,5,14,0,0,0,15,2,2147483647,2147483647,13,0,0,9,10,0,2147483647,2147483647,9,0,14,0,0,0,2147483647,2147483647,0,0,0,13,0,0,0,0,2147483647,2147483647,0,10,13,9,5,16,0,0,0,0,0,0,0,0,0,0],"sum_hessian":[6.7192825E1,6.573E1,1.4628197E0,4.6555096E1,1.9174908E1,2.9056854E1,1.7498241E1,1.1243878E1,7.9310293E0,2.3346512E1,5.710342E0,4.438962E0,1.305928E1,7.9911227E0,3.2527559E0,6.005715E0,1.9253144E0,1.8991804E1,4.3547087E0,1.0242479E0,4.686094E0,3.301069E0,1.1378928E0,8.431114E0,4.6281657E0,3.5907528E0,4.4003696E0,1.0050112E0,2.2477448E0,4.3926396E0,1.6130753E0,1.7579508E1,1.4122957E0,1.7679383E0,2.5867705E0,1.7751577E0,2.9109364E0,1.4894515E0,1.8116175E0,1.2634851E0,7.167629E0,1.9282565E0,2.6999094E0,1.0272183E0,2.5635345E0,2.9023862E0,1.4979835E0,1.2420115E0,3.150628E0,6.4331737E0,1.1146335E1,2.9544249E0,4.2132044E0,1.8631204E0,1.2875075E0,4.5978937E0,1.8352795E0,8.971542E0,2.1747923E0,1.903553E0,1.0508717E0,1.0474106E0,3.1657934E0],"tree_param":{"num_deleted":"8","num_feature":"18","num_nodes":"63","size_leaf_vector":"0"}},{"base_weights":[-5.193397E-2,-5.9335697E-1,1.9091156E-1,-7.5152296E-1,1.59745E-1,1.6200947E0,5.4274436E-2,-4.5079228E-1,-1.3748465E0,1.007355E0,-2.9569173E-1,1.996164E0,1.7376775E-1,-1.1735671E-2,1.2581255E0,-1.414908E-1,-1.1832644E0,-2.2002547E0,-1.8371646E-1,4.29292E-1,-6.978972E-1,-7.6130855E-1,5.988073E-2,-3.0714723E-1,3.9282766E-1,-1.712362E0,-2.245676E-1,-3.124567E0,-3.898798E-1,-2.6412383E-2,-1.0343548E0,2.790858E-1,-5.9947927E-2,7.80472E-2,5.416235E-1,6.1811036E-1,-1.04839705E-1,-5.2844113E-1,1.2607336E-2,1.0487002E0,-6.0102355E-2,-5.02354E-1,2.5925758E-1,-9.0757066E-1,-5.6706164E-2,6.350643E-2,-6.0447246E-1,1.6764349E-1,2.4348807E0,-2.7945262E-1,1.5465552E-1,-9.108246E-1,-6.615506E-2,5.8891222E-2,4.981427E-1,-1.2354208E-1,3.9924017E-1],"default_left":[true,true,true,true,true,true,true,true,true,false,true,false,false,true,false,true,true,true,false,false,false,true,true,false,true,false,false,false,false,false,false,true,true,true,true,true,true,true,true,true,true,true,true,false,false,true,false,false,false,true,true,false,false,true,true,false,false],"id":9,"leaf_child_counts":[0,0,0,0,0,0,0,0,0,0,0,0,0,0,0,0,0,0,0,0,0,0,0,0,0,0,0,0,0,0,0,0,0,0,0,0,0,0,0,0,0,0,0,0,0,0,0,0,0,0,0,0,0,0,0,0,0],"left_children":[1,3,5,7,9,11,13,15,17,-1,19,-1,-1,21,-1,23,25,27,-1,-1,-1,29,31,-1,-1,-1,-1,-1,-1,-1,-1,35,37,-1,-1,39,41,43,45,47,-1,51,-1,-1,-1,55,-1,-1,-1,-1,-1,-1,-1,-1,-1,-1,-1],"loss_changes":[1.0400562E1,3.0411549E0,1.0584267E1,3.1882792E0,2.2589064E0,2.2071056E0,4.08011E0,3.2783065E0,5.6129208E0,0E0,1.4855273E0,0E0,0E0,2.70088E0,0E0,1.1713523E0,1.8216519E0,4.65913E0,0E0,0E0,0E0,8.424618E-1,1.2257749E0,0E0,1.03102595E-1,0E0,0E0,0E0,0E0,0E0,0E0,2.2104683E0,1.0485704E0,0E0,0E0,2.6697264E0,1.3706002E0,6.778753E-1,8.9258206E-1,6.28572E0,2.512658E-1,7.215085E-1,2.0971373E-1,0E0,0E0,1.6975713E0,0E0,0E0,0E0,0E0,0E0,0E0,0E0,0E0,0E0,0E0,0E0],"parents":[2147483647,0,0,1,1,2,2,3,3,4,4,5,5,6,6,7,7,8,8,10,10,13,13,15,15,16,16,17,17,21,21,22,22,24,24,31,31,32,32,35,35,36,36,37,37,38,38,39,39,40,40,41,41,42,42,45,45],"right_children":[2,4,6,8,10,12,14,16,18,-1,20,-1,-1,22,-1,24,26,28,-1,-1,-1,30,32,-1,-1,-1,-1,-1,-1,-1,-1,36,38,-1,-1,40,42,44,46,48,-1,52,-1,-1,-1,56,-1,-1,-1,-1,-1,-1,-1,-1,-1,-1,-1],"split_conditions":[5.645161E-1,8.064516E-2,1.724138E-2,1.0517242E0,1.3225806E0,1.1290322E-1,1.254405E8,6.6740826E-2,3.448276E-2,2.7198586E-1,1.8870968E0,5.389643E-1,4.6917293E-2,6.5591395E-2,3.396939E-1,1.8409345E-1,1.0344828E-1,2.027957E0,-4.9603447E-2,1.15908846E-1,-1.8843225E-1,2.3609567E0,1.3107526E0,-8.292976E-2,1.0606347E-1,-4.6233776E-1,-6.0633257E-2,-8.436331E-1,-1.0526755E-1,-7.1313437E-3,-2.792758E-1,2.048387E0,1.516129E0,2.1072745E-2,1.4623834E-1,1.21227496E8,3.6265E4,1.6387097E0,9.1985754E8,1.2258065E0,-1.6227636E-2,2.048387E0,6.999955E-2,-2.4504408E-1,-1.5310665E-2,4.7603035E6,-1.6320758E-1,4.5263745E-2,6.5741783E-1,-7.545221E-2,4.175699E-2,-2.4592265E-1,-1.7861867E-2,1.590063E-2,1.3449854E-1,-3.335636E-2,1.0779485E-1],"split_indices":[14,4,2,12,1,1,15,14,14,0,0,0,0,8,0,12,12,1,0,0,0,0,14,0,12,0,0,0,0,0,0,0,14,2147483647,2147483647,10,10,8,10,0,1,1,1,0,0,10,0,0,0,2147483647,2147483647,0,0,2147483647,2147483647,0,0],"sum_hessian":[7.721031E1,2.3473679E1,5.373663E1,1.941213E1,4.061548E0,3.7353976E0,5.0001232E1,1.4267727E1,5.144403E0,1.0036937E0,3.0578544E0,2.6573634E0,1.0780343E0,4.8332962E1,1.6682699E0,1.0880172E1,3.3875558E0,2.5333157E0,2.6110873E0,1.0582068E0,1.9996475E0,3.3874538E0,4.494551E1,8.644093E0,2.236079E0,1.6695677E0,1.7179883E0,1.1928455E0,1.3404702E0,1.2246637E0,2.1627903E0,1.5445375E1,2.9500134E1,1.2286268E0,1.0074522E0,7.89223E0,7.5531454E0,3.1318896E0,2.6368244E1,4.5022655E0,3.3899646E0,3.442467E0,4.110678E0,1.2123978E0,1.9194919E0,2.5202719E1,1.1655254E0,3.4424176E0,1.0598481E0,1.5510578E0,1.8389066E0,1.2039917E0,2.2384753E0,2.936259E0,1.1744192E0,1.657209E1,8.630629E0],"tree_param":{"num_deleted":"6","num_feature":"18","num_nodes":"57","size_leaf_vector":"0"}},{"base_weights":[1.619072E-2,-2.0092855E-1,2.9280835E-1,-9.145411E-2,-1.5218129E0,9.7469866E-1,2.028574E-1,-2.1479483E-1,9.237661E-1,2.6135156E-1,-4.616002E-1,1.2711412E-1,-3.644849E-1,1.2413023E0,-1.02204196E-1,1.4330779E-1,8.9120185E-1,2.0124722E-1,-2.7397662E-1,-6.453156E-1,1.1022488E-1,3.847094E-1,1.4431103E0,2.9857922E-1,-1.0658483E-1,1.2133574E0,7.6028034E-2,7.4656844E-2,4.828652E-1,-1.8061298E-1,-7.836253E-1,3.9708263E-1,-6.4014214E-1,7.055815E-1,1.2422067E-1,-2.5505194E-1,2.265962E-1,-1.0679728E0,7.6353097E-1,-1.2883927E0,-5.557972E-1,1.1578752E0,1.6370237E-2,-3.1557415E-2,4.4626635E-1,-2.3246402E-2,-8.2510597E-1,4.1906133E-1,-0E0,-1.6429445E-1,-7.2315025E-1,3.0419528E-1,-2.1938977E-1,-2.3092E-1,3.997991E-2,6.0230047E-1,1.0621878E-1,1.3349898E-1,-1.122126E-1],"default_left":[true,true,true,true,false,false,true,true,true,true,false,true,true,true,false,true,true,true,false,true,true,true,true,true,true,false,false,true,true,true,true,true,false,false,true,true,true,false,false,false,true,false,true,true,true,true,false,true,true,false,false,false,false,true,true,true,true,true,true],"id":10,"leaf_child_counts":[0,0,0,0,0,0,0,0,0,0,0,0,0,0,0,0,0,0,0,0,0,0,0,0,0,0,0,0,0,0,0,0,0,0,0,0,0,0,0,0,0,0,0,0,0,0,0,0,0,0,0,0,0,0,0,0,0,0,0],"left_children":[1,3,5,7,-1,-1,9,11,13,15,-1,17,19,-1,-1,23,25,-1,-1,29,31,-1,-1,33,35,-1,-1,-1,-1,37,39,41,-1,-1,43,45,-1,-1,-1,-1,49,-1,51,-1,-1,-1,-1,-1,-1,-1,-1,-1,-1,-1,-1,-1,-1,-1,-1],"loss_changes":[4.660362E0,6.1333346E0,1.8828452E0,5.3542485E0,0E0,0E0,1.3395532E0,1.9723169E0,1.6520028E0,2.0570054E0,0E0,4.1614187E-1,3.5985305E0,5.4365635E-2,0E0,1.0452373E0,1.0647566E0,3.4572664E-1,0E0,9.2594576E-1,2.546488E0,0E0,0E0,1.0654608E0,5.874956E-1,0E0,0E0,0E0,0E0,5.1414337E0,7.143178E-1,2.3847103E0,0E0,0E0,6.5478337E-1,1.0155592E0,1.6360347E-1,0E0,0E0,0E0,5.5718374E-1,0E0,5.141607E-1,1.4612852E-1,1.5304077E-1,1.0755698E-1,0E0,0E0,0E0,0E0,0E0,0E0,0E0,0E0,0E0,0E0,0E0,0E0,0E0],"parents":[2147483647,0,0,1,1,2,2,3,3,6,6,7,7,8,8,9,9,11,11,12,12,13,13,15,15,16,16,17,17,19,19,20,20,23,23,24,24,29,29,30,30,31,31,34,34,35,35,36,36,40,40,42,42,43,43,44,44,45,45],"right_children":[2,4,6,8,-1,-1,10,12,14,16,-1,18,20,-1,-1,24,26,-1,-1,30,32,-1,-1,34,36,-1,-1,-1,-1,38,40,42,-1,-1,44,46,-1,-1,-1,-1,50,-1,52,-1,-1,-1,-1,-1,-1,-1,-1,-1,-1,-1,-1,-1,-1,-1,-1],"split_conditions":[1.016129E0,6E4,6.774193E-1,1.7897849E0,-4.108895E-1,2.6316866E-1,8.1604004E1,6.6740826E-2,2.7555404E7,1.4193549E0,-1.2463206E-1,1.2903225E-1,1.032258E0,3.351516E-1,-2.7595134E-2,1.9032258E0,2.030569E6,5.433675E-2,-7.397369E-2,3.1808064E0,2.048387E0,1.0387154E-1,3.896398E-1,9.677419E-2,1.563303E7,3.2760653E-1,2.052757E-2,2.0157348E-2,1.3037361E-1,3.175751E-1,3.337041E-1,1.5E0,-1.7283839E-1,1.9050701E-1,7.026083E1,9.333333E5,6.118098E-2,-2.8835267E-1,2.0615336E-1,-3.4786603E-1,1.3793103E-1,3.126263E-1,2.2580644E-1,-8.520503E-3,1.2049192E-1,-6.276529E-3,-2.2277862E-1,1.13146566E-1,-0E0,-4.4359505E-2,-1.9525057E-1,8.213273E-2,-5.9235238E-2,-6.2348403E-2,1.0794575E-2,1.6262113E-1,2.8679071E-2,3.6044728E-2,-3.0297402E-2],"split_indices":[8,11,9,9,0,0,17,12,10,5,0,13,13,0,0,9,10,13,0,17,13,2147483647,2147483647,5,10,0,0,2147483647,2147483647,12,13,1,0,0,17,10,10,0,0,0,0,0,4,6,1,2,0,2147483647,2147483647,0,0,0,0,2147483647,2147483647,2147483647,2147483647,2147483647,2147483647],"sum_hessian":[7.560146E1,4.2489002E1,3.3112465E1,4.023144E1,2.2575603E0,2.6997132E0,3.0412752E1,3.6584953E1,3.6464884E0,2.8523466E1,1.8892848E0,1.1165565E1,2.5419388E1,2.6318123E0,1.0146761E0,2.506862E1,3.4548466E0,9.865347E0,1.3002175E0,1.5758556E1,9.660832E0,1.0654172E0,1.5663952E0,1.5366064E1,9.702556E0,2.1173434E0,1.3375032E0,7.703257E0,2.1620896E0,4.159922E0,1.1598634E1,7.3392525E0,2.32158E0,3.677547E0,1.1688518E1,6.894736E0,2.8078203E0,2.0822978E0,2.0776243E0,2.1457002E0,9.452934E0,1.7581891E0,5.5810633E0,8.464889E0,3.223629E0,5.653948E0,1.2407879E0,1.0449535E0,1.7628667E0,3.4420767E0,6.010857E0,2.4014363E0,3.179627E0,1.6839163E0,6.780972E0,1.6608845E0,1.5627444E0,1.825219E0,3.828729E0],"tree_param":{"num_deleted":"12","num_feature":"18","num_nodes":"59","size_leaf_vector":"0"}},{"base_weights":[-5.5916283E-2,-6.715743E-1,4.520185E-2,-1.0618689E0,-8.7676995E-2,-6.7171015E-2,5.0815314E-1,-5.073017E-1,-1.8403112E0,3.5990867E-1,-8.3069634E-1,-4.441455E-5,-7.614454E-1,1.8774948E-1,1.7081006E0,-9.370417E-1,2.3734182E-1,1.5187591E-1,-2.4571224E-1,3.7061998E-1,-1.7856996E0,4.0477318E-1,-7.035711E-1,-1.4703175E-1,7.234844E-1,-4.629E-1,3.5343684E-2,-2.086299E-1,6.686587E-1,1.7649774E-4,-6.879525E-1,2.154517E0,9.205749E-2,-1.2949317E0,-2.1574254E-1,3.4278667E-1,-4.4621554E-1,1.4361922E0,1.9636711E-1,-2.109683E-1,7.6319253E-1,-1.991973E-1,-9.075018E-1,3.7788475E-1,-3.119211E-1,-3.2091472E-2,-3.874859E-1,6.8697995E-1,8.022113E-2,-8.135029E-3,-7.648364E-1,5.814812E-2,3.322221E-1,-3.6393008E-1,3.230325E-2,1.0625455E0,1.24278374E-1,5.988023E-2,7.186412E-1,-5.2289987E-1,-5.7611797E-2,7.1256906E-2,-1.0020998E-1,-3.9776955E-2,1.8779832E-1],"default_left":[true,true,true,true,true,true,true,true,false,false,false,true,true,true,false,false,false,true,true,false,false,true,false,true,true,true,true,false,true,true,true,false,true,false,true,true,true,false,true,true,true,true,true,true,true,true,true,false,true,false,false,true,true,false,false,false,false,false,false,true,true,true,true,true,true],"id":11,"leaf_child_counts":[0,0,0,0,0,0,0,0,0,0,0,0,0,0,0,0,0,0,0,0,0,0,0,0,0,0,0,0,0,0,0,0,0,0,0,0,0,0,0,0,0,0,0,0,0,0,0,0,0,0,0,0,0,0,0,0,0,0,0,0,0,0,0,0,0],"left_children":[1,3,5,7,9,11,13,15,-1,-1,-1,17,19,21,-1,-1,-1,23,25,-1,-1,27,-1,29,31,33,35,-1,37,39,-1,-1,43,-1,-1,47,49,-1,-1,53,55,-1,-1,57,-1,-1,-1,-1,-1,-1,-1,-1,-1,-1,-1,-1,-1,-1,-1,-1,-1,-1,-1,-1,-1],"loss_changes":[4.5785446E0,2.2585096E0,3.346608E0,1.6826854E0,2.0511801E0,2.4173603E0,4.487054E0,1.816278E0,0E0,0E0,0E0,1.8468701E0,5.979892E0,2.417081E0,0E0,0E0,0E0,5.3294554E0,1.1757855E0,0E0,0E0,1.6852436E0,0E0,1.6688738E0,9.4164295E0,1.9194379E0,1.507788E0,0E0,2.2051857E0,2.9683359E0,2.888391E-1,0E0,1.0941994E0,0E0,2.83304E-1,4.946156E-1,5.4302144E-1,0E0,7.896489E-2,5.5071825E-1,6.204045E-1,0E0,0E0,5.359815E-1,1.805374E-1,4.7655184E-2,0E0,0E0,6.894424E-2,0E0,0E0,0E0,0E0,0E0,0E0,0E0,0E0,0E0,0E0,0E0,0E0,0E0,0E0,0E0,0E0],"parents":[2147483647,0,0,1,1,2,2,3,3,4,4,5,5,6,6,7,7,11,11,12,12,13,13,17,17,18,18,21,21,23,23,24,24,25,25,26,26,28,28,29,29,30,30,32,32,34,34,35,35,36,36,38,38,39,39,40,40,43,43,44,44,45,45,48,48],"right_children":[2,4,6,8,10,12,14,16,-1,-1,-1,18,20,22,-1,-1,-1,24,26,-1,-1,28,-1,30,32,34,36,-1,38,40,-1,-1,44,-1,-1,48,50,-1,-1,54,56,-1,-1,58,-1,-1,-1,-1,-1,-1,-1,-1,-1,-1,-1,-1,-1,-1,-1,-1,-1,-1,-1,-1,-1],"split_conditions":[3.2258064E-2,1.0344828E-1,3.2258065E0,4.744138E0,1.016129E0,1.9428678E5,7.771843E1,2.8675807E0,-4.9688405E-1,9.7175345E-2,-2.2428802E-1,1.7258065E0,1.5E0,1.4333334E0,4.6118715E-1,-2.5300127E-1,6.4082295E-2,4.3548387E-1,1.2580645E0,1.000674E-1,-4.821389E-1,4.9462366E-1,-1.899642E-1,3.9238503E1,1.2741935E0,1.8166666E0,2.7903225E0,-5.6330077E-2,3.8333335E0,2.580645E-1,-1.8574719E-1,5.817196E-1,5.8461098E1,-3.4963155E-1,-5.825049E-2,1.5E-1,5.967742E-1,3.877719E-1,5.301912E-2,1.09184475E1,3.8171776E1,-5.3783275E-2,-2.450255E-1,1.0806451E0,-8.4218696E-2,-8.664697E-3,-1.04621194E-1,1.8548459E-1,2.1659706E-2,-2.196458E-3,-2.0650584E-1,1.5699994E-2,8.969997E-2,-9.8261125E-2,8.721878E-3,2.8688732E-1,3.355516E-2,1.6167663E-2,1.9403313E-1,-1.4118297E-1,-1.5555186E-2,1.9239366E-2,-2.7056696E-2,-1.0739778E-2,5.070555E-2],"split_indices":[14,1,7,17,5,11,17,17,0,0,0,1,9,5,0,0,0,5,9,0,0,5,0,17,1,2,7,0,7,9,10,0,17,0,8,4,5,0,1,17,17,2147483647,2147483647,9,1,2147483647,2147483647,0,1,0,0,2147483647,2147483647,0,0,0,0,0,0,2147483647,2147483647,2147483647,2147483647,2147483647,2147483647],"sum_hessian":[7.1957726E1,9.369417E0,6.258831E1,5.114809E0,4.2546077E0,5.1034046E1,1.1554264E1,3.9589572E0,1.1558521E0,2.9685466E0,1.286061E0,4.7459816E1,3.5742311E0,1.0038607E1,1.5156575E0,2.3549492E0,1.604008E0,2.9535944E1,1.792387E1,1.9962511E0,1.57798E0,8.520967E0,1.5176406E0,1.987048E1,9.665464E0,9.765836E0,8.158035E0,2.614664E0,5.906302E0,1.6390966E1,3.4795134E0,2.215774E0,7.4496903E0,1.2564294E0,8.509406E0,5.1677294E0,2.9903061E0,1.4643967E0,4.4419055E0,1.3394726E1,2.9962397E0,1.6838396E0,1.7956738E0,4.415169E0,3.0345216E0,4.7138295E0,3.7955766E0,1.5202963E0,3.6474328E0,1.704146E0,1.28616E0,2.946132E0,1.4957734E0,7.9445543E0,5.4501715E0,1.5781311E0,1.4181085E0,2.9071758E0,1.5079929E0,1.059809E0,1.9747126E0,1.7960356E0,2.9177938E0,1.9781623E0,1.6692706E0],"tree_param":{"num_deleted":"12","num_feature":"18","num_nodes":"65","size_leaf_vector":"0"}},{"base_weights":[4.203811E-2,1.03417315E-1,-4.825154E-1,1.3276151E-1,-1.0196891E0,-8.276064E-1,-8.6431794E-2,9.497804E-2,1.4746505E0,4.5548035E-3,-1.8110816E0,-3.6185724E-1,3.048191E-1,1.445311E-1,-1.879566E-1,-2.0738128E-1,2.0728853E-1,2.2683947E-1,-1.4085868E-1,-5.7267857E-1,4.9713355E-1,1.7818469E-1,1.1737874E0,-5.18124E-1,-1.8733075E-2,-6.446453E-1,-1.9760448E-1,1.0637324E0,4.2594917E-2,1.3908784E-1,1.0069195E0,4.38094E-1,-1.8181026E-1,8.1056535E-2,4.1901037E-1,-4.496434E-1,7.824777E-2],"default_left":[true,true,true,true,false,true,true,true,false,true,false,false,false,true,true,true,true,true,true,true,true,true,false,false,true,true,true,false,false,true,false,false,true,false,false,false,false],"id":12,"leaf_child_counts":[0,0,0,0,0,0,0,0,0,0,0,0,0,0,0,0,0,0,0,0,0,0,0,0,0,0,0,0,0,0,0,0,0,0,0,0,0],"left_children":[1,3,5,7,-1,9,11,13,-1,-1,-1,-1,-1,17,19,-1,-1,21,23,-1,27,29,-1,-1,31,-1,-1,-1,-1,33,-1,-1,35,-1,-1,-1,-1],"loss_changes":[2.793416E0,2.671777E0,1.1628919E0,3.7055397E0,0E0,3.8989334E0,6.891304E-1,1.0803311E0,0E0,1.9573739E-1,0E0,0E0,0E0,1.5489429E0,3.3440466E0,0E0,0E0,2.1043234E0,6.7776823E-1,7.7581406E-2,1.153847E0,1.4434856E0,0E0,0E0,1.0021874E0,0E0,0E0,0E0,0E0,7.4369997E-1,0E0,0E0,7.2663546E-1,0E0,0E0,0E0,0E0],"parents":[2147483647,0,0,1,1,2,2,3,3,5,5,6,6,7,7,9,9,13,13,14,14,17,17,18,18,19,19,20,20,21,21,24,24,29,29,32,32],"right_children":[2,4,6,8,-1,10,12,14,-1,-1,-1,-1,-1,18,20,-1,-1,22,24,-1,28,30,-1,-1,32,-1,-1,-1,-1,34,-1,-1,36,-1,-1,-1,-1],"split_conditions":[2.5919356E0,8.773827E1,1.4709678E0,8.553702E1,-2.7531606E-1,4.1666666E-1,2.5E0,1.4171505E5,3.9815566E-1,1.229797E-3,-4.8899207E-1,-9.770146E-2,8.230116E-2,3.4372662E5,1.032258E0,-5.5992946E-2,5.5967905E-2,4.924016E3,9.83871E-1,-1.5462323E-1,2.1612902E0,4.9435174E8,3.169226E-1,-1.3989349E-1,2.6451612E0,-1.7405424E-1,-5.3353213E-2,2.8720775E-1,1.1500628E-2,3.2096772E0,2.718683E-1,1.1828538E-1,1.25E0,2.1885265E-2,1.13132805E-1,-1.21403724E-1,2.1126898E-2],"split_indices":[13,17,6,17,0,6,1,16,0,1,0,0,0,15,5,2147483647,2147483647,15,1,6,1,10,0,0,7,2147483647,2147483647,0,0,7,0,0,13,0,0,0,0],"sum_hessian":[8.432888E1,7.623085E1,8.098035E0,7.515784E1,1.0730077E0,3.7318816E0,4.366153E0,7.4148285E1,1.0095562E0,2.5551004E0,1.176781E0,2.6214442E0,1.7447085E0,6.354377E1,1.0604515E1,1.2138754E0,1.341225E0,4.9506077E1,1.4037691E1,6.905381E0,3.699134E0,4.822688E1,1.2792E0,2.6199174E0,1.1417773E1,5.1683393E0,1.7370422E0,1.0402182E0,2.658916E0,4.7180943E1,1.0459356E0,2.543879E0,8.873894E0,4.0177048E1,7.0038924E0,4.031403E0,4.842491E0],"tree_param":{"num_deleted":"4","num_feature":"18","num_nodes":"37","size_leaf_vector":"0"}},{"base_weights":[-4.23767E-3,-1.4604945E-1,2.1634902E-1,-7.3105015E-2,-7.8448904E-1,6.6033506E-1,4.4064075E-4,1.8817331E-1,-1.6255566E-1,-1.0578063E0,-4.0590805E-1,1.0723895E0,-2.9233253E-1,6.643578E-2,-7.750364E-1,-3.2969788E-2,5.7074267E-1,-1.0915285E0,-7.4637026E-2,5.4764664E-1,2.3034427E0,1.8334958E-1,-7.149314E-1,-2.8051886E-1,1.9586352E-1,2.4507247E-1,-5.080249E-1,8.367823E-1,2.4979097E-1,5.80977E-1,-1.4045525E-1,8.6289954E-1,9.13372E-2,2.1327679E-1,-4.9322322E-1,-6.0341343E-2,3.0827564E-1,-6.857956E-1,-7.0007324E-2,-3.136424E-1,6.335402E-1,-5.680575E-1,-2.7449312E-2,1.1788402E0,2.470168E-1,-1.4806129E-1,3.6777076E-1,-1.6077511E-1,-6.239608E-1,1.4658129E-1,-2.688612E-1,-5.3797577E-2,3.6570254E-1,-3.0048266E-1,-8.321937E-1,-2.6140332E-1,1.6397491E-1,4.2255652E-1,6.247748E-2,1.9385976E-1,-4.2918956E-1,3.1571972E-1,-3.5973746E-1,5.220964E-1,1.2580992E-1],"default_left":[true,true,true,true,true,true,true,true,true,true,true,true,true,true,false,true,true,false,true,true,false,false,false,true,true,false,true,false,true,false,true,true,true,false,true,true,true,true,true,false,false,true,true,false,false,true,true,true,true,true,true,true,true,true,true,true,true,true,true,false,false,false,false,true,true],"id":13,"leaf_child_counts":[0,0,0,0,0,0,0,0,0,0,0,0,0,0,0,0,0,0,0,0,0,0,0,0,0,0,0,0,0,0,0,0,0,0,0,0,0,0,0,0,0,0,0,0,0,0,0,0,0,0,0,0,0,0,0,0,0,0,0,0,0,0,0,0,0],"left_children":[1,3,5,7,-1,11,13,15,17,-1,-1,19,21,23,-1,25,27,-1,29,31,-1,-1,-1,33,35,-1,-1,-1,39,-1,41,43,-1,-1,-1,-1,-1,-1,-1,-1,-1,-1,55,-1,-1,-1,-1,-1,-1,-1,-1,-1,-1,-1,-1,59,61,-1,-1,-1,-1,-1,-1,-1,-1],"loss_changes":[2.8253834E0,2.4954648E0,3.3800974E0,1.210064E0,1.2745214E-1,4.8531084E0,1.3130022E0,1.1501545E0,3.0242462E0,0E0,0E0,4.0590363E0,9.9358684E-1,1.1218138E0,0E0,1.3637878E0,2.0245457E-1,0E0,1.6285628E0,9.3634844E-1,0E0,0E0,0E0,8.274739E-1,5.3738415E-1,0E0,2.3996133E-1,0E0,9.985248E-1,0E0,1.5967884E0,4.887247E-1,3.2413018E-1,0E0,1.1366308E-1,3.1143013E-1,2.858373E-1,0E0,0E0,0E0,0E0,2.2850585E-1,1.2780733E0,0E0,0E0,0E0,0E0,0E0,0E0,0E0,0E0,0E0,1.596092E-1,0E0,0E0,1.0641484E0,1.3646755E0,1.9727445E-1,0E0,0E0,0E0,0E0,0E0,0E0,0E0],"parents":[2147483647,0,0,1,1,2,2,3,3,4,4,5,5,6,6,7,7,8,8,11,11,12,12,13,13,15,15,16,16,18,18,19,19,23,23,24,24,26,26,28,28,30,30,31,31,32,32,34,34,35,35,36,36,41,41,42,42,52,52,55,55,56,56,57,57],"right_children":[2,4,6,8,-1,12,14,16,18,-1,-1,20,22,24,-1,26,28,-1,30,32,-1,-1,-1,34,36,-1,-1,-1,40,-1,42,44,-1,-1,-1,-1,-1,-1,-1,-1,-1,-1,56,-1,-1,-1,-1,-1,-1,-1,-1,-1,-1,-1,-1,60,62,-1,-1,-1,-1,-1,-1,-1,-1],"split_conditions":[1.7258065E0,6.0376553E3,1.016129E0,1.2922469E0,-2.1181205E-1,4.2562403E5,7.868855E1,2.7505562E-1,2.734355E0,-2.856077E-1,-1.0959518E-1,3.5752687E0,1.5E0,8.118279E-2,-2.0925984E-1,3.2258064E-2,1.1290322E-1,-2.9471272E-1,3.2002947E0,2.048387E0,6.219296E-1,4.9504388E-2,-1.9303149E-1,3.4801407E1,1.9166667E0,6.616957E-2,-1.3716672E-1,2.2593123E-1,8.966129E-1,1.5686381E-1,3.448276E-2,4.358502E5,2.4661044E-2,5.7584736E-2,-1.3317028E-1,-1.6292164E-2,8.323443E-2,-1.8516482E-1,-1.8901978E-2,-8.4683456E-2,1.7105587E-1,-1.5337552E-1,2.4833148E0,3.1828687E-1,6.669454E-2,-3.997655E-2,9.929811E-2,-4.340928E-2,-1.6846941E-1,3.957695E-2,-7.259253E-2,-1.4525346E-2,9.873969E-2,-8.113032E-2,-2.246923E-1,6.3793105E-1,1.016129E0,1.14090264E-1,1.6868921E-2,5.2342135E-2,-1.1588119E-1,8.524433E-2,-9.7129114E-2,1.4096603E-1,3.396868E-2],"split_indices":[8,11,14,17,9,15,17,17,17,2147483647,2147483647,7,5,6,0,14,12,0,17,0,0,0,0,17,14,0,14,0,17,0,14,10,16,0,9,17,0,2147483647,2147483647,0,0,7,7,0,0,2147483647,2147483647,2147483647,2147483647,2147483647,2147483647,2147483647,2147483647,2147483647,2147483647,14,8,2147483647,2147483647,0,0,0,0,2147483647,2147483647],"sum_hessian":[8.833277E1,5.400015E1,3.4332623E1,4.947732E1,4.5228257E0,1.0544527E1,2.3788097E1,1.2308809E1,3.7168514E1,1.5693102E0,2.9535153E0,7.280389E0,3.264138E0,2.2776943E1,1.0111535E0,8.362545E0,3.9462643E0,2.2167509E0,3.4951763E1,6.1232886E0,1.1571003E0,1.790832E0,1.473306E0,5.8500843E0,1.6926859E1,5.5672116E0,2.7953336E0,1.261909E0,2.6843553E0,2.4608045E0,3.249096E1,3.0814414E0,3.0418472E0,1.7463071E0,4.1037774E0,5.276086E0,1.1650773E1,1.5697393E0,1.2255944E0,1.1510199E0,1.5333352E0,5.931504E0,2.6559454E1,1.4217813E0,1.6596601E0,1.8595994E0,1.1822479E0,1.8092755E0,2.2945018E0,2.773205E0,2.5028806E0,1.5797309E0,1.0071042E1,4.02727E0,1.9042338E0,1.1811003E1,1.4748451E1,8.121719E0,1.9493229E0,3.1227865E0,8.688216E0,1.1757872E1,2.9905796E0,5.487805E0,2.6339145E0],"tree_param":{"num_deleted":"18","num_feature":"18","num_nodes":"65","size_leaf_vector":"0"}},{"base_weights":[6.3233554E-2,1.592765E-2,1.6566418E0,8.480731E-2,-4.2011616E-1,2.4147964E-1,-2.755348E-2,-1.25495E0,8.417129E-2,-1.641804E-2,4.2938578E-1,-2.620192E-1,2.5910804E-1,3.1628236E-1,-2.150209E0,3.9560834E-1,-1.6397823E-1,-6.273374E-2,2.0514329E-1,1.0351965E0,2.2681051E-1,-5.4503953E-1,-2.0163985E-2,7.7394533E-1,3.8444507E-3,-1.7776857E-1,9.797426E-1,8.3627775E-2,-3.2906836E-1,-1.1523709E-1,5.9847787E-2,1.2711836E0,3.2549456E-1,6.288857E-2,6.6358113E-1,-1.1613916E0,-2.8760752E-1,8.541363E-2,-3.4232548E-1,1.6746935E0,2.2401573E-1,-3.264957E-1,1.6526273E-1,-5.6414656E-2,-2.2734152E-1,2.631173E-1,-1.3141175E-1,-1.8195459E-1,1.7371392E-1,8.935623E-1,2.2154862E-1,-4.561715E-1,-4.525545E-2,2.9581782E-1,-7.494684E-2,5.1120985E-1,-2.3618728E-1,5.2380957E-2,-5.3174275E-1,2.851891E-1,-3.99232E-2,-8.078483E-2,4.234968E-2,1.0578948E-1,-5.230917E-1,4.2922148E-1,-1.3277213E-1,-6.532159E-1,-7.669538E-2,-1.0386815E-1,2.3488795E-2,3.92892E-1,1.5557295E-1,-3.25758E-1,3.8602065E-2,4.6188733E-1,-0E0,-1.9032949E-1,1.1328289E-1],"default_left":[true,true,false,true,true,true,true,true,true,true,true,true,true,false,false,true,true,true,true,true,true,true,true,true,true,false,false,true,true,true,true,true,true,true,true,false,true,true,false,false,true,true,true,true,true,true,true,true,true,true,true,true,true,true,true,false,false,false,false,true,true,true,true,false,false,false,false,true,true,true,true,true,true,true,true,true,true,true,true],"id":14,"leaf_child_counts":[0,0,0,0,0,0,0,0,0,0,0,0,0,0,0,0,0,0,0,0,0,0,0,0,0,0,0,0,0,0,0,0,0,0,0,0,0,0,0,0,0,0,0,0,0,0,0,0,0,0,0,0,0,0,0,0,0,0,0,0,0,0,0,0,0,0,0,0,0,0,0,0,0,0,0,0,0,0,0],"left_children":[1,3,-1,5,7,9,11,13,15,-1,19,21,23,-1,-1,25,-1,-1,-1,-1,33,35,37,39,41,-1,-1,-1,-1,-1,-1,-1,-1,47,-1,-1,-1,53,-1,-1,55,57,-1,-1,-1,-1,-1,63,65,-1,-1,-1,-1,-1,-1,-1,-1,-1,-1,-1,-1,-1,-1,-1,-1,-1,-1,-1,-1,-1,-1,-1,-1,-1,-1,-1,-1,-1,-1],"loss_changes":[6.33092E0,2.529319E0,0E0,1.2876999E0,4.9544387E0,1.4883229E0,2.9693418E0,6.8836474E0,6.926033E-1,1.5294094E-1,1.9238791E0,1.6441077E0,2.6052475E0,0E0,0E0,1.4882624E0,2.422491E-1,8.601876E-2,0E0,2.637596E-1,9.92874E-1,1.416235E0,5.1275337E-1,2.8653162E0,8.162298E-1,0E0,0E0,0E0,0E0,4.33285E-2,2.0158225E-1,0E0,0E0,3.4906507E-1,1.8224216E-1,0E0,3.4960735E-1,4.099259E-1,0E0,0E0,8.1697845E-1,4.2286897E-1,2.6747838E-1,2.1269629E-2,0E0,0E0,0E0,4.626249E-1,7.3306894E-1,0E0,0E0,3.3765447E-1,2.2997964E-2,3.795594E-3,2.220771E-1,0E0,0E0,0E0,0E0,3.3541554E-1,1.2945135E-1,0E0,0E0,0E0,0E0,0E0,0E0,0E0,0E0,0E0,0E0,0E0,0E0,0E0,0E0,0E0,0E0,0E0,0E0],"parents":[2147483647,0,0,1,1,3,3,4,4,5,5,6,6,7,7,8,8,9,9,10,10,11,11,12,12,15,15,16,16,17,17,19,19,20,20,21,21,22,22,23,23,24,24,29,29,30,30,33,33,34,34,36,36,37,37,40,40,41,41,42,42,43,43,47,47,48,48,51,51,52,52,53,53,54,54,59,59,60,60],"right_children":[2,4,-1,6,8,10,12,14,16,-1,20,22,24,-1,-1,26,-1,-1,-1,-1,34,36,38,40,42,-1,-1,-1,-1,-1,-1,-1,-1,48,-1,-1,-1,54,-1,-1,56,58,-1,-1,-1,-1,-1,64,66,-1,-1,-1,-1,-1,-1,-1,-1,-1,-1,-1,-1,-1,-1,-1,-1,-1,-1,-1,-1,-1,-1,-1,-1,-1,-1,-1,-1,-1,-1],"split_conditions":[8.416435E1,2.951613E0,4.472933E-1,6.860215E-1,2.2333333E0,1.6129032E-2,1.9833333E0,5.3333336E-1,7.27825E1,-4.432871E-3,3.7931037E-1,1.4193548E0,1.2139785E0,8.539624E-2,-5.8055645E-1,2.85E0,-4.4274125E-2,-1.693811E-2,5.538869E-2,2.7950308E-1,4.27957E-1,2.0967741E-1,1.85E0,6.390387E1,1.8870968E0,-4.7997516E-2,2.645305E-1,2.25795E-2,-8.8848464E-2,-3.1114014E-2,1.6158903E-2,3.4321958E-1,8.788353E-2,1.0344828E-1,1.7916691E-1,-3.1357574E-1,-7.7654034E-2,1.2580645E0,-9.242788E-2,4.5216724E-1,1.8870968E0,2.5545049E0,4.462094E-2,-1.5231958E-2,-6.138221E-2,7.104168E-2,-3.5481174E-2,1.0103793E1,2.8103447E0,2.4126184E-1,5.981813E-2,-1.23166315E-1,-1.2218972E-2,7.987081E-2,-2.0235648E-2,1.3802667E-1,-6.377057E-2,1.4142859E-2,-1.4357054E-1,7.700106E-2,-1.0779264E-2,-2.1811904E-2,1.1434414E-2,2.8563162E-2,-1.4123476E-1,1.158898E-1,-3.5848476E-2,-1.763683E-1,-2.0707754E-2,-2.80444E-2,6.341975E-3,1.06080845E-1,4.2004697E-2,-8.795466E-2,1.0422558E-2,1.24709584E-1,-0E0,-5.1388964E-2,3.058638E-2],"split_indices":[17,0,0,2,1,12,0,6,17,15,12,8,14,0,0,1,6,2147483647,2147483647,14,6,6,1,17,1,0,0,2147483647,2147483647,2147483647,2147483647,2147483647,2147483647,7,0,0,6,14,0,0,8,7,7,2147483647,2147483647,2147483647,2147483647,17,7,2147483647,2147483647,2147483647,2147483647,15,3,0,0,0,0,2147483647,2147483647,2147483647,2147483647,0,0,0,0,2147483647,2147483647,2147483647,2147483647,2147483647,2147483647,2147483647,2147483647,2147483647,2147483647,2147483647,2147483647],"sum_hessian":[8.356134E1,8.213903E1,1.4223127E0,7.1649376E1,1.0489653E1,2.948136E1,4.216802E1,3.3971066E0,7.092546E0,1.2788622E1,1.6692736E1,2.3262247E1,1.8905771E1,1.4637258E0,1.9333808E0,2.899557E0,4.1929893E0,1.1207724E1,1.5808984E0,3.1407201E0,1.3552016E1,1.012223E1,1.3140018E1,5.580143E0,1.3325627E1,1.8056812E0,1.0938758E0,1.8504741E0,2.342515E0,7.945885E0,3.2618384E0,1.7526835E0,1.3880367E0,1.0702283E1,2.8497338E0,1.9362068E0,8.186023E0,1.0426813E1,2.713205E0,1.3331163E0,4.2470264E0,4.018075E0,9.307552E0,6.255822E0,1.6900631E0,1.424483E0,1.8373554E0,3.1066988E0,7.5955834E0,1.1876917E0,1.6620421E0,4.2833085E0,3.9027143E0,4.1713557E0,6.255458E0,2.560202E0,1.6868247E0,1.6564369E0,2.3616383E0,5.6588926E0,3.64866E0,5.2449284E0,1.0108941E0,2.0435622E0,1.0631367E0,3.9416907E0,3.653893E0,2.3271914E0,1.9561173E0,1.9093206E0,1.9933937E0,1.3583577E0,2.8129978E0,1.3944757E0,4.860982E0,3.1108205E0,2.548072E0,1.7518176E0,1.8968422E0],"tree_param":{"num_deleted":"32","num_feature":"18","num_nodes":"79","size_leaf_vector":"0"}},{"base_weights":[4.424815E-2,6.991884E-2,-1.050761E0,-1.2189463E-2,4.4188657E-1,1.3992187E-1,-2.117293E-1,1.2516073E0,2.0868054E-1,2.1373354E-1,-2.76776E-1,9.151627E-3,-3.9551607E-1,-4.0300748E-1,5.057715E-1,4.266967E-1,9.04553E-2,-5.351905E-1,2.2403324E-2,3.703795E-1,-2.4139121E-1,-6.310039E-2,-5.321222E-1,2.047652E-2,-9.794812E-1,-7.792314E-2,9.1610193E-1,1.4017361E-1,7.63059E-1,-1.0578164E-1,4.6557564E-1,-3.3303183E-1,6.3356405E-1,-5.209132E-1,-1.0206753E-1,-3.8823166E-1,1.0866227E-1,-6.537393E-1,-1.8045956E-1,2.803888E-2,-1.648045E-1,2.837258E-2,2.256887E0,3.6383292E-1,-6.375278E-1,1.8200537E0,6.311162E-2,-5.76274E-1,2.0625161E-2,1.165698E0,8.8604905E-2,4.0105153E-2,9.4878364E-1,4.88827E-3,-1.743909E-1,1.8271036E-1,-0E0,-9.916953E-1,-4.234704E-1,-0E0,-3.2577753E-1,-2.6307803E-1,3.9335015E-1,-2.4445438E-1,5.52294E-1,-5.4666124E-2,2.8791088E-1,-3.2112864E-1,2.7098742E-1,-3.895901E-2,-2.5802365E-1,-5.464418E-1,-2.1711501E-1],"default_left":[true,true,false,true,true,true,true,false,true,true,true,true,true,true,true,true,true,false,false,true,true,true,true,false,false,true,true,true,true,true,true,false,true,true,true,true,true,true,true,true,true,true,false,false,false,false,true,false,true,false,true,false,false,true,true,true,true,true,true,true,true,false,false,false,false,true,true,false,false,true,true,true,true],"id":15,"leaf_child_counts":[0,0,0,0,0,0,0,0,0,0,0,0,0,0,0,0,0,0,0,0,0,0,0,0,0,0,0,0,0,0,0,0,0,0,0,0,0,0,0,0,0,0,0,0,0,0,0,0,0,0,0,0,0,0,0,0,0,0,0,0,0,0,0,0,0,0,0,0,0,0,0,0,0],"left_children":[1,3,-1,5,7,9,11,-1,13,15,17,19,21,23,25,27,29,-1,-1,31,-1,-1,-1,-1,-1,-1,41,43,45,47,49,-1,51,-1,-1,-1,-1,-1,-1,-1,-1,61,-1,-1,-1,-1,63,-1,-1,-1,67,-1,-1,-1,-1,-1,-1,-1,-1,-1,-1,-1,-1,-1,-1,-1,-1,-1,-1,-1,-1,-1,-1],"loss_changes":[2.4931746E0,2.6178386E0,0E0,2.182501E0,2.6493523E0,1.3136741E0,1.2698921E0,0E0,2.6102984E0,8.8173187E-1,5.239904E-1,1.4551387E0,7.334149E-1,1.2192137E0,2.322478E0,1.1008403E0,1.7920306E0,0E0,0E0,1.4330984E0,3.1022018E-1,3.863918E-1,3.8296652E-1,0E0,0E0,4.996542E-2,6.562975E0,1.631034E0,3.9848168E0,9.873923E-1,2.0793037E0,0E0,9.149201E-1,0E0,6.1348252E-2,0E0,3.7161566E-2,2.231369E-1,1.1793789E-1,0E0,0E0,5.7054806E-1,0E0,0E0,0E0,0E0,7.9868567E-1,0E0,2.958644E-1,0E0,5.720929E-1,0E0,0E0,0E0,3.928396E-2,0E0,0E0,0E0,4.592216E-2,0E0,0E0,0E0,0E0,0E0,0E0,0E0,0E0,0E0,0E0,0E0,0E0,0E0,0E0],"parents":[2147483647,0,0,1,1,3,3,4,4,5,5,6,6,8,8,9,9,10,10,11,11,12,12,13,13,14,14,15,15,16,16,19,19,20,20,21,21,22,22,25,25,26,26,27,27,28,28,29,29,30,30,32,32,34,34,36,36,37,37,38,38,41,41,46,46,48,48,50,50,54,54,58,58],"right_children":[2,4,-1,6,8,10,12,-1,14,16,18,20,22,24,26,28,30,-1,-1,32,-1,-1,-1,-1,-1,-1,42,44,46,48,50,-1,52,-1,-1,-1,-1,-1,-1,-1,-1,62,-1,-1,-1,-1,64,-1,-1,-1,68,-1,-1,-1,-1,-1,-1,-1,-1,-1,-1,-1,-1,-1,-1,-1,-1,-1,-1,-1,-1,-1,-1],"split_conditions":[1.016129E0,1.048387E0,-2.8370547E-1,1.2741935E0,1.8548387E0,4.827586E-1,1.5666666E0,3.37934E-1,8.666667E-1,6.6740826E-2,9.193548E-1,2.184034E2,2.016129E0,3.5E0,7.1111664E1,6.725806E-1,4.424731E-1,-1.4450145E-1,6.0488977E-3,1.2258065E0,-6.517563E-2,-1.7037107E-2,-1.43673E-1,5.5286605E-3,-2.6445994E-1,-2.103925E-2,3.2166667E0,1.6129032E-2,8.548387E-1,2.2413793E-1,1.7419355E0,-8.99186E-2,3.2258064E-1,-1.4064656E-1,-2.7558234E-2,-1.0482255E-1,2.9338814E-2,-1.765096E-1,-4.872408E-2,7.5704977E-3,-4.4497218E-2,2.5E0,6.093595E-1,9.823489E-2,-1.7213252E-1,4.9141452E-1,1.0344828E-1,-1.5559398E-1,5.5687935E-3,3.1473848E-1,1.4193549E0,1.0828392E-2,2.5617158E-1,1.319833E-3,-4.7085546E-2,4.93318E-2,-0E0,-2.6775774E-1,-1.1433701E-1,-0E0,-8.795994E-2,-7.103107E-2,1.0620455E-1,-6.600269E-2,1.4911939E-1,-1.4759854E-2,7.773594E-2,-8.670474E-2,7.316661E-2,-1.0518934E-2,-6.9666386E-2,-1.4753929E-1,-5.8621056E-2],"split_indices":[4,5,0,2,1,16,14,0,4,14,2,15,3,7,17,17,5,0,0,0,5,2,4,0,0,0,3,12,12,14,0,0,5,2147483647,2147483647,2147483647,2147483647,2147483647,2147483647,2147483647,2147483647,3,0,0,0,0,1,0,3,0,1,0,0,2147483647,2147483647,2147483647,2147483647,2147483647,2147483647,2147483647,2147483647,0,0,0,0,2147483647,2147483647,0,0,2147483647,2147483647,2147483647,2147483647],"sum_hessian":[8.542996E1,8.43967E1,1.033262E0,6.9905975E1,1.4490726E1,3.9808327E1,3.0097649E1,2.25416E0,1.2236566E1,3.425216E1,5.5561695E0,1.4076201E1,1.6021446E1,3.8727312E0,8.363834E0,1.1625954E1,2.2626204E1,2.575853E0,2.9803166E0,5.585189E0,8.491013E0,5.1134825E0,1.0907964E1,2.7786424E0,1.0940888E0,3.77691E0,4.5869246E0,7.059194E0,4.56676E0,1.5308964E1,7.3172398E0,1.4381273E0,4.1470613E0,1.8895019E0,6.601511E0,1.3520719E0,3.7614105E0,7.4455905E0,3.4623737E0,1.9548795E0,1.8220305E0,3.3785906E0,1.2083342E0,5.905778E0,1.1534164E0,1.1761261E0,3.3906338E0,2.5050964E0,1.2803867E1,1.819395E0,5.4978447E0,1.8406508E0,2.3064106E0,2.9834957E0,3.6180153E0,1.7972815E0,1.964129E0,1.6596619E0,5.7859282E0,1.981873E0,1.4805007E0,2.018514E0,1.3600768E0,2.3763666E0,1.0142671E0,1.0581301E1,2.2225661E0,1.4422252E0,4.0556197E0,1.9865203E0,1.6314951E0,2.5624132E0,3.2235153E0],"tree_param":{"num_deleted":"22","num_feature":"18","num_nodes":"73","size_leaf_vector":"0"}},{"base_weights":[4.0803626E-2,-1.4021917E-2,2.2477214E0,1.3925509E-2,-8.2631546E-1,-8.627231E-2,2.165216E-1,2.2674575E-1,-1.8190254E-1,1.3544811E0,9.80379E-2,4.6330523E-1,-1.7468831E-1,-7.014601E-1,-4.328348E-2,-9.944709E-2,4.847462E-1,2.485365E-1,9.029711E-1,-8.3158654E-1,2.033858E-1,-8.857222E-1,-2.7356052E-1,1.11917175E-1,-1.5850149E-1,-5.203632E-1,2.1528494E-2,8.001521E-1,1.23165965E-1,4.4643155E-1,-2.9362753E-1,5.072537E-1,-1.6663875E-1,-4.648399E-2,-4.44285E-1,-6.294817E-2,2.4477686E-1,-5.277689E-1,-1.9788915E-2,-1.0681717E-1,-7.6348346E-1,-5.5941045E-1,1.4176215E-1,9.964644E-1,3.5861233E-1,-8.424882E-2,2.6426145E-1,-0E0,-1.6870964E-1,4.904962E-1,6.9523744E-2,-8.539872E-1,-2.3869973E-1,-6.475028E-1,8.9060254E-2,-2.1613188E-1,2.7361554E-1],"default_left":[true,true,false,true,false,true,true,true,true,false,true,true,true,true,true,true,true,true,false,false,true,false,true,true,true,true,true,true,true,false,false,false,false,true,true,true,true,true,true,true,true,false,true,true,true,true,true,true,true,true,true,true,true,false,false,false,false],"id":16,"leaf_child_counts":[0,0,0,0,0,0,0,0,0,0,0,0,0,0,0,0,0,0,0,0,0,0,0,0,0,0,0,0,0,0,0,0,0,0,0,0,0,0,0,0,0,0,0,0,0,0,0,0,0,0,0,0,0,0,0,0,0],"left_children":[1,3,-1,5,-1,7,9,11,13,-1,15,17,19,21,23,25,27,29,-1,-1,31,-1,-1,-1,37,-1,41,-1,-1,-1,-1,-1,-1,-1,-1,-1,-1,-1,53,-1,-1,-1,55,-1,-1,-1,-1,-1,-1,-1,-1,-1,-1,-1,-1,-1,-1],"loss_changes":[1.0525756E1,1.9592322E0,0E0,1.716407E0,0E0,1.7349762E0,3.6241183E0,1.381519E0,3.1261897E0,0E0,2.0697355E0,6.033144E-1,1.6102754E0,4.6924686E-1,6.576673E-1,9.481129E-1,9.321394E-1,9.2293906E-1,0E0,0E0,5.894965E-1,0E0,1.3818932E-1,3.8396728E-1,1.058445E0,3.2638037E-1,1.1338578E0,3.4206867E-2,1.8341404E-1,0E0,0E0,0E0,0E0,0E0,0E0,5.0203696E-2,3.5679227E-1,3.1979668E-1,1.1773643E0,0E0,0E0,0E0,6.906592E-1,0E0,0E0,0E0,0E0,0E0,0E0,0E0,0E0,0E0,0E0,0E0,0E0,0E0,0E0],"parents":[2147483647,0,0,1,1,3,3,5,5,6,6,7,7,8,8,10,10,11,11,12,12,13,13,14,14,15,15,16,16,17,17,20,20,22,22,23,23,24,24,25,25,26,26,27,27,28,28,35,35,36,36,37,37,38,38,42,42],"right_children":[2,4,-1,6,-1,8,10,12,14,-1,16,18,20,22,24,26,28,30,-1,-1,32,-1,-1,-1,38,-1,42,-1,-1,-1,-1,-1,-1,-1,-1,-1,-1,-1,54,-1,-1,-1,56,-1,-1,-1,-1,-1,-1,-1,-1,-1,-1,-1,-1,-1,-1],"split_conditions":[8.416435E1,8.150919E1,6.0688484E-1,1.9833333E0,-2.2310518E-1,2.222347E0,1.9354838E-1,6.451613E-2,9.516129E-1,3.657099E-1,9.677419E-2,8.966129E-1,4.4838708E-2,1.3348165E-1,1.6129032E-2,2.098387E0,1.2580645E0,9.586207E-2,2.438022E-1,-2.2452837E-1,1.1290322E-1,-2.3914501E-1,-7.3861346E-2,3.0217638E-2,1.9026883E0,-1.4049807E-1,7.419355E-1,2.1604109E-1,3.3254813E-2,1.2053652E-1,-7.927944E-2,1.3695851E-1,-4.499246E-2,-1.2550678E-2,-1.19956955E-1,-1.6996006E-2,6.608976E-2,-1.4249761E-1,1.3387096E0,-2.8840637E-2,-2.0614055E-1,-1.5104082E-1,1.0645161E0,2.6904538E-1,9.682533E-2,-2.2747181E-2,7.13506E-2,-0E0,-4.55516E-2,1.3243398E-1,1.8771412E-2,-2.3057656E-1,-6.444893E-2,-1.7482576E-1,2.404627E-2,-5.835561E-2,7.38762E-2],"split_indices":[17,17,0,13,0,17,3,13,13,0,4,17,17,3,4,7,9,17,0,0,12,0,0,9,0,3,9,7,8,0,0,0,0,2147483647,2147483647,2147483647,2147483647,9,3,2147483647,2147483647,0,2,2147483647,2147483647,2147483647,2147483647,2147483647,2147483647,2147483647,2147483647,2147483647,2147483647,0,0,0,0],"sum_hessian":[8.5547874E1,8.443929E1,1.1085751E0,8.256901E1,1.8702884E0,5.5597164E1,2.6971844E1,1.2665303E1,4.293186E1,1.5517827E0,2.5420061E1,7.8878746E0,4.777429E0,8.171565E0,3.4760296E1,1.7301483E1,8.118579E0,6.366154E0,1.5217204E0,1.316663E0,3.460766E0,4.947691E0,3.223874E0,1.478564E1,1.9974655E1,3.1439292E0,1.4157553E1,3.6735547E0,4.445024E0,4.806687E0,1.5594673E0,1.711459E0,1.7493072E0,1.9547529E0,1.2691213E0,6.578363E0,8.207276E0,4.6688447E0,1.5305811E1,1.7121184E0,1.431811E0,1.7870603E0,1.2370493E1,1.6572747E0,2.01628E0,1.9340019E0,2.511022E0,4.759514E0,1.8188488E0,2.6441343E0,5.5631423E0,1.2590878E0,3.4097567E0,1.5441601E0,1.3761651E1,3.13797E0,9.232523E0],"tree_param":{"num_deleted":"16","num_feature":"18","num_nodes":"57","size_leaf_vector":"0"}},{"base_weights":[-2.8908359E-2,-5.4280527E-2,5.89005E-1,-1.8705927E-2,-7.399824E-1,-1.5564555E-1,1.3586379E0,3.5675026E-2,-3.4888294E-1,-7.710241E-2,-1.0153818E0,-8.868675E-2,1.5647063E-1,-1.5455374E-1,-5.644219E-1,-9.25461E-3,-3.3855703E-1,1.2583656E0,4.447358E-2,-3.8907975E-1,-5.2458614E-2,-8.1621206E-1,-2.0568901E-1,3.7167307E-2,-2.4049994E-1,-5.511426E-1,-8.6514816E-2,1.7243496E0,2.724444E-1,2.7909184E-1,-1.8566616E-1,-1.0538136E-1,-8.372753E-3,-2.747105E-2,4.3060765E-1,-4.3626953E-2,-3.408799E-1,-7.073194E-1,-1.6076636E-1,1.1969577E-1,-2.2835979E-1,-5.5893213E-2,6.648758E-1,-3.213723E-1,1.3696863E-1,1.4547586E-2,-3.2153282E-2,-9.2437156E-2,2.4069163E-1,1.18412755E-1,-4.3455943E-1,1.2917318E0,-4.0552083E-2,-1.1253447E-1,-5.8686996E-1,-4.8025638E-2,2.3190802E-1],"default_left":[true,true,true,true,true,false,false,true,true,false,false,true,true,true,true,true,true,true,true,true,true,true,true,true,true,true,true,false,false,true,true,true,true,true,false,true,true,true,true,true,true,true,true,true,true,true,true,false,false,false,false,false,false,false,false,true,true],"id":17,"leaf_child_counts":[0,0,0,0,0,0,0,0,0,0,0,0,0,0,0,0,0,0,0,0,0,0,0,0,0,0,0,0,0,0,0,0,0,0,0,0,0,0,0,0,0,0,0,0,0,0,0,0,0,0,0,0,0,0,0,0,0],"left_children":[1,3,5,7,9,-1,-1,11,13,-1,-1,15,17,-1,-1,23,25,27,29,-1,-1,-1,-1,33,-1,-1,-1,-1,-1,41,43,-1,-1,47,-1,-1,-1,-1,-1,-1,-1,49,51,53,-1,-1,-1,-1,-1,-1,-1,-1,-1,-1,-1,-1,-1],"loss_changes":[1.529968E0,2.2481265E0,2.4304657E0,1.6224024E0,7.412462E-1,0E0,0E0,1.1820371E0,4.406097E-1,0E0,0E0,7.652743E-1,4.8458886E0,1.6957112E-1,3.326733E-1,3.3911467E-1,4.45441E-1,1.1777563E0,2.06117E0,0E0,1.3943475E-2,0E0,0E0,6.8438894E-1,8.563495E-2,1.7325735E-1,1.8850797E-1,0E0,0E0,2.4779778E0,8.9335334E-1,0E0,3.3265941E-3,4.3010858E-1,0E0,0E0,0E0,0E0,0E0,0E0,0E0,7.80164E-1,3.9772744E0,7.002114E-1,1.2556401E-1,0E0,0E0,0E0,0E0,0E0,0E0,0E0,0E0,0E0,0E0,0E0,0E0],"parents":[2147483647,0,0,1,1,2,2,3,3,4,4,7,7,8,8,11,11,12,12,13,13,14,14,15,15,16,16,17,17,18,18,20,20,23,23,24,24,25,25,26,26,29,29,30,30,32,32,33,33,41,41,42,42,43,43,44,44],"right_children":[2,4,6,8,10,-1,-1,12,14,-1,-1,16,18,-1,-1,24,26,28,30,-1,-1,-1,-1,34,-1,-1,-1,-1,-1,42,44,-1,-1,48,-1,-1,-1,-1,-1,-1,-1,50,52,54,-1,-1,-1,-1,-1,-1,-1,-1,-1,-1,-1,-1,-1],"split_conditions":[1.2630178E8,8.365766E8,5.3225803E-1,2.1202219E4,2.7741935E0,-4.20243E-2,3.6683226E-1,3.464961E-1,1.7419355E0,-2.081765E-2,-2.741531E-1,2.8192434E0,5.967742E-1,-4.1729514E-2,-1.5239392E-1,1.0000001E-1,4.8069E4,9.416667E6,3.6265E4,-1.0505154E-1,-1.4163827E-2,-2.2037727E-1,-5.5536035E-2,5.061179E-2,-6.4934984E-2,-1.488085E-1,-2.3359E-2,4.655744E-1,7.355999E-2,1.1666667E0,1.6935484E0,-2.8452968E-2,-2.2606433E-3,7.232931E0,1.1626407E-1,-1.1779278E-2,-9.203757E-2,-1.9097625E-1,-4.340692E-2,3.231786E-2,-6.1657146E-2,5.4880244E5,2.2E0,1.6451613E0,3.698153E-2,3.9278483E-3,-8.681387E-3,-2.4958033E-2,6.498674E-2,3.1971443E-2,-1.1733105E-1,3.487676E-1,-1.0949063E-2,-3.0384308E-2,-1.584549E-1,-1.29669225E-2,6.261517E-2],"split_indices":[15,10,9,16,7,0,0,5,13,0,0,7,5,16,9,0,10,15,10,2147483647,2147483647,2147483647,2147483647,2,3,7,0,0,0,13,5,2147483647,2147483647,17,0,2147483647,2147483647,2147483647,2147483647,2147483647,2147483647,15,13,9,8,2147483647,2147483647,0,0,0,0,0,0,0,0,2147483647,2147483647],"sum_hessian":[9.488996E1,9.203908E1,2.8508823E0,8.849003E1,3.549049E0,1.847818E0,1.0030643E0,7.671633E1,1.17737E1,1.4280477E0,2.1210012E0,3.7890373E1,3.882596E1,7.118835E0,4.6548653E0,2.9567966E1,8.322406E0,2.6295784E0,3.619638E1,1.2768471E0,5.8419876E0,1.9694165E0,2.685449E0,2.5287579E1,4.280388E0,3.849312E0,4.473094E0,1.2701441E0,1.3594344E0,1.7839981E1,1.8356401E1,1.9199693E0,3.9220183E0,2.2496403E1,2.7911758E0,1.9635534E0,2.3168347E0,2.1511855E0,1.6981267E0,1.8578501E0,2.6152437E0,9.992478E0,7.8475018E0,1.2945988E1,5.4104137E0,1.9807045E0,1.9413139E0,1.8666718E1,3.8296843E0,7.295245E0,2.6972337E0,3.7225869E0,4.1249146E0,8.064253E0,4.8817344E0,1.9668059E0,3.4436078E0],"tree_param":{"num_deleted":"16","num_feature":"18","num_nodes":"57","size_leaf_vector":"0"}},{"base_weights":[-8.0310985E-2,-4.83605E-2,-1.5447506E0,-6.9413714E-2,8.984795E-1,-4.2456985E-2,-7.0823276E-1,-1.1288815E-1,1.6964218E-1,-3.6826044E-2,-3.863565E-1,4.6157998E-1,-1.3875766E-1,-7.772068E-2,6.301767E-1,-7.8876853E-1,-1.4541224E-1,1.1012311E0,2.27301E-1,-2.8986362E-1,5.122131E-1,-2.0476618E-1,6.70923E-2,-2.8972402E-1,-1.0440239E0,-2.32276E-1,1.7600837E-1,3.794452E-1,1.0591786E-1,-7.042073E-1,-1.0351659E-1,-1.1404512E-1,-5.418916E-1,4.0785384E-1,-4.3782353E-2,-9.924728E-3,-4.132102E-1,-9.4142616E-2,2.511972E-1,-3.3712518E-1,-2.0060346E-3],"default_left":[true,true,false,true,false,true,false,true,true,true,true,true,true,true,false,true,true,false,true,true,false,true,true,true,true,true,true,true,true,false,true,false,false,false,false,true,true,true,true,true,true],"id":18,"leaf_child_counts":[0,0,0,0,0,0,0,0,0,0,0,0,0,0,0,0,0,0,0,0,0,0,0,0,0,0,0,0,0,0,0,0,0,0,0,0,0,0,0,0,0],"left_children":[1,3,-1,5,-1,7,-1,9,11,13,15,17,19,21,-1,-1,-1,-1,-1,29,-1,31,33,-1,-1,-1,-1,-1,-1,-1,-1,-1,-1,-1,-1,-1,-1,-1,-1,-1,-1],"loss_changes":[4.384943E0,1.9408319E0,0E0,1.5730517E0,0E0,1.3753129E0,0E0,1.4129703E0,2.1384838E0,1.5430088E0,1.3149688E0,1.5445194E0,1.3206562E0,9.847525E-1,0E0,3.614471E-1,3.3529282E-1,0E0,1.4152968E-1,7.174739E-1,0E0,7.9894495E-1,9.7912E-1,0E0,0E0,3.4333152E-1,0E0,0E0,2.2992691E-1,0E0,1.9327804E-1,0E0,0E0,0E0,0E0,0E0,0E0,0E0,0E0,0E0,0E0],"parents":[2147483647,0,0,1,1,3,3,5,5,7,7,8,8,9,9,10,10,11,11,12,12,13,13,15,15,16,16,18,18,19,19,21,21,22,22,25,25,28,28,30,30],"right_children":[2,4,-1,6,-1,8,-1,10,12,14,16,18,20,22,-1,-1,-1,-1,-1,30,-1,32,34,-1,-1,-1,-1,-1,-1,-1,-1,-1,-1,-1,-1,-1,-1,-1,-1,-1,-1],"split_conditions":[1.016129E0,8.370186E1,-4.1708267E-1,8.09019E1,2.4258947E-1,5.4838705E-1,-1.9122285E-1,1.885547E4,1.016129E0,4.8674963E8,1.644277E7,1.1333333E0,7.76471E5,2.3274193E0,1.7014772E-1,-2.1296751E-1,-3.9261304E-2,2.973324E-1,6.1371274E-2,1.9354839E0,1.3829754E-1,1.1451613E0,1.016129E0,-7.8225486E-2,-2.8188646E-1,-6.271452E-2,4.752226E-2,1.0245021E-1,2.8597824E-2,-1.9013599E-1,-2.7949482E-2,-3.0792184E-2,-1.4631073E-1,1.1012054E-1,-1.18212355E-2,-2.6796767E-3,-1.1156676E-1,-2.5418507E-2,6.7823246E-2,-9.10238E-2,-5.416294E-4],"split_indices":[4,17,0,17,0,4,0,15,6,10,15,14,15,7,0,17,6,0,7,3,0,2,1,2147483647,2147483647,2147483647,2147483647,2147483647,2147483647,0,5,0,0,0,0,2147483647,2147483647,2147483647,2147483647,2147483647,2147483647],"sum_hessian":[9.465338E1,9.365002E1,1.003362E0,9.252985E1,1.1201725E0,8.982169E1,2.7081578E0,6.781685E1,2.200484E1,5.397543E1,1.384142E1,1.1065622E1,1.09392185E1,5.170388E1,2.2715487E0,4.3167157E0,9.524704E0,1.9629608E0,9.102661E0,9.341025E0,1.5981935E0,2.7357763E1,2.4346119E1,2.1965322E0,2.1201835E0,7.7411265E0,1.7835778E0,3.0594656E0,6.0431957E0,2.0190287E0,7.321996E0,2.2634678E1,4.723084E0,5.3414416E0,1.9004677E1,3.9711165E0,3.7700098E0,2.661402E0,3.3817935E0,1.4849802E0,5.837016E0],"tree_param":{"num_deleted":"12","num_feature":"18","num_nodes":"41","size_leaf_vector":"0"}},{"base_weights":[-1.4790767E-2,1.3591193E-2,-1.0628335E0,-1.9237593E-2,1.2390289E0,1.3167751E-2,-4.0021312E-1,-8.1545316E-2,1.24341175E-1,5.1254474E-2,-7.096701E-1,-1.8457204E-2,-3.616843E-1,7.348925E-1,4.5436855E-2,2.4188431E-2,-1.0748663E0,-1.782682E-1,9.011927E-2,-3.8508456E-2,-5.153015E-1,-2.5185013E-1,1.35589E0,3.6019158E-1,-1.0089354E-2,7.157746E-2,-9.675419E-1,2.8762653E-1,-1.6833037E-1,-7.9235154E-1,-1.5600961E-1,4.3291152E-1,1.2526834E-1,-5.1062044E-2,4.493277E-1,3.259489E-1,-3.175033E-1,-1.2949628E0,-3.9731902E-1,5.3822327E-2,5.0148714E-1,3.0165642E-2,-6.464905E-1,1.5443216E-1,-1.3016272E-1],"default_left":[true,true,false,true,false,true,true,true,true,false,true,true,true,true,true,false,false,true,true,false,true,false,false,true,true,true,true,true,true,false,false,true,true,true,false,false,false,true,true,false,false,false,false,false,false],"id":19,"leaf_child_counts":[0,0,0,0,0,0,0,0,0,0,0,0,0,0,0,0,0,0,0,0,0,0,0,0,0,0,0,0,0,0,0,0,0,0,0,0,0,0,0,0,0,0,0,0,0],"left_children":[1,3,-1,5,-1,7,9,11,13,-1,15,17,19,21,23,-1,-1,25,27,-1,29,-1,-1,-1,33,35,-1,39,41,-1,-1,-1,-1,43,-1,-1,-1,-1,-1,-1,-1,-1,-1,-1,-1],"loss_changes":[2.9041603E0,3.8667438E0,0E0,1.1660938E0,0E0,9.2991686E-1,1.0771374E0,8.3256626E-1,1.9151986E0,0E0,1.2351243E0,7.1129614E-1,4.0578723E-1,3.1511288E0,6.545378E-1,0E0,0E0,3.3441114E0,1.2979081E0,0E0,4.4275498E-1,0E0,0E0,3.6011398E-2,6.294793E-1,1.439787E0,2.2668624E-1,6.801101E-1,1.0888683E0,0E0,0E0,0E0,0E0,5.1881325E-1,0E0,0E0,0E0,0E0,0E0,0E0,0E0,0E0,0E0,0E0,0E0],"parents":[2147483647,0,0,1,1,3,3,5,5,6,6,7,7,8,8,10,10,11,11,12,12,13,13,14,14,17,17,18,18,20,20,23,23,24,24,25,25,26,26,27,27,28,28,33,33],"right_children":[2,4,-1,6,-1,8,10,12,14,-1,16,18,20,22,24,-1,-1,26,28,-1,30,-1,-1,-1,34,36,-1,40,42,-1,-1,-1,-1,44,-1,-1,-1,-1,-1,-1,-1,-1,-1,-1,-1],"split_conditions":[8.7859886E1,8.345269E1,-2.8696507E-1,7.670952E1,3.3453783E-1,4.6178062E1,2.887097E0,1.672043E0,1.4193549E0,1.3838708E-2,1.2333333E0,7.741935E-1,9.83871E-1,1.3870968E0,5.0335484E1,6.5308767E-3,-2.902139E-1,2.222347E0,1.7997775E0,-1.0397283E-2,1.967742E0,-6.7999534E-2,3.6609033E-1,9.725173E-2,2.85E0,6.6740826E-2,-2.612363E-1,1.8620689E0,5.5698925E-1,-2.1393493E-1,-4.21226E-2,1.1688612E-1,3.3822455E-2,2.2903225E0,1.2131849E-1,8.8006206E-2,-8.5725896E-2,-3.4963995E-1,-1.0727614E-1,1.4532029E-2,1.3540153E-1,8.144724E-3,-1.7455244E-1,4.1696686E-2,-3.5143934E-2],"split_indices":[17,17,0,17,0,17,0,0,1,0,5,13,1,2,17,0,0,17,14,0,3,0,0,17,1,14,17,12,5,0,0,2147483647,2147483647,3,0,0,0,2147483647,2147483647,0,0,0,0,0,0],"sum_hessian":[9.5795204E1,9.42211E1,1.5741035E0,9.27135E1,1.5076013E0,8.631116E1,6.4023404E0,4.6701145E1,3.9610012E1,2.9299242E0,3.4724162E0,3.9016174E1,7.6849737E0,3.5671809E0,3.604283E1,1.4549968E0,2.0174193E0,1.5561631E1,2.3454542E1,2.8999374E0,4.785036E0,1.6012276E0,1.9659532E0,4.6090856E0,3.1433746E1,1.250105E1,3.060582E0,1.3252658E1,1.0201884E1,2.0054708E0,2.7795653E0,2.8435311E0,1.7655543E0,2.9695961E1,1.7377858E0,7.672753E0,4.8282967E0,1.125696E0,1.9348859E0,6.951416E0,6.301242E0,7.85647E0,2.3454137E0,7.9539E0,2.1742062E1],"tree_param":{"num_deleted":"4","num_feature":"18","num_nodes":"45","size_leaf_vector":"0"}},{"base_weights":[4.638755E-2,7.355213E-3,1.5198052E0,-3.1953457E-1,5.182376E-2,-4.6564835E-1,-0E0,3.3763555E-1,-2.3214849E-2,2.3121488E-1,-3.248833E-1,9.961962E-2,5.819792E-1,3.7421057E-1,-6.0908336E-2,-1.10220715E-1,3.151415E-1,1.0409284E0,1.4784415E-1,-2.9991323E-1,8.0951303E-1,-2.736262E-1,2.7981428E-2,3.2715055E-1,-3.501346E-1,6.395893E-1,-2.6537383E-1,3.7262037E-1,1.4436108E0,2.3529501E-1,-5.376369E-3,1.1422709E0,1.5524636E-1,-4.4956148E-1,1.601042E-1,8.7761365E-2,-3.2900965E-1,-9.8901436E-2,-4.9874246E-1,-6.2985474E-1,-1.462017E-1,3.7601247E-1,-2.6503018E-1,4.73268E-2,4.8556322E-1,3.7882924E-2,-7.923967E-1,-3.5944247E-1,-1.0900816E0,-3.0408293E-1,-3.2554314E-2,6.776833E-1,-4.376995E-3,1.3268201E-1,-1.07766636E-1,-1.0612501E-1,1.80704E-1],"default_left":[true,true,false,true,true,false,true,true,true,false,false,true,true,true,true,true,true,true,true,false,true,true,true,false,true,false,false,false,false,true,true,false,false,true,true,true,true,true,true,true,true,true,false,true,false,true,false,false,false,true,true,false,false,false,false,true,true],"id":20,"leaf_child_counts":[0,0,0,0,0,0,0,0,0,0,0,0,0,0,0,0,0,0,0,0,0,0,0,0,0,0,0,0,0,0,0,0,0,0,0,0,0,0,0,0,0,0,0,0,0,0,0,0,0,0,0,0,0,0,0,0,0],"left_children":[1,3,-1,5,7,-1,9,11,13,-1,-1,15,17,19,21,23,25,27,-1,-1,31,33,35,-1,-1,-1,-1,-1,-1,-1,-1,-1,-1,39,41,43,45,-1,-1,47,-1,51,-1,53,-1,-1,-1,-1,-1,-1,-1,-1,-1,-1,-1,-1,-1],"loss_changes":[5.531698E0,1.3971927E0,0E0,5.3346956E-1,1.8265603E0,0E0,4.235773E-1,9.643595E-1,1.0377029E0,0E0,0E0,4.976865E-1,1.528728E0,2.0097742E0,1.2004839E0,7.3188543E-1,1.1736336E0,5.0892353E-1,7.789263E-2,0E0,6.6478825E-1,1.5003033E0,9.92663E-1,0E0,1.0507518E-1,0E0,0E0,0E0,0E0,0E0,0E0,0E0,0E0,6.422546E-1,6.617447E-1,6.085586E-1,1.1733516E0,0E0,0E0,6.12617E-1,1.0122506E-1,5.2403957E-1,0E0,5.053034E-1,0E0,1.1598964E-1,0E0,0E0,0E0,0E0,0E0,0E0,0E0,0E0,0E0,0E0,0E0],"parents":[2147483647,0,0,1,1,3,3,4,4,6,6,7,7,8,8,11,11,12,12,13,13,14,14,15,15,16,16,17,17,18,18,20,20,21,21,22,22,24,24,33,33,34,34,35,35,36,36,39,39,40,40,41,41,43,43,45,45],"right_children":[2,4,-1,6,8,-1,10,12,14,-1,-1,16,18,20,22,24,26,28,-1,-1,32,34,36,-1,-1,-1,-1,-1,-1,-1,-1,-1,-1,40,42,44,46,-1,-1,48,-1,52,-1,54,-1,-1,-1,-1,-1,-1,-1,-1,-1,-1,-1,-1,-1],"split_conditions":[8.416435E1,4.159177E-1,4.1034743E-1,3.2258064E-2,4.1212457E-1,-1.2572506E-1,9.586207E-2,3.448276E-2,2.1149597E1,6.242802E-2,-8.7718494E-2,6.451613E-1,1.3709677E0,7.741935E-1,1.3548387E0,1.8409345E-1,4.827586E-1,5.205784E-1,3.9917924E-2,-8.0976576E-2,1.8965517E0,2.4591398E0,7.8465645E1,8.833066E-2,-9.453635E-2,1.7268912E-1,-7.165094E-2,1.0060751E-1,3.8977492E-1,6.3529655E-2,-1.4516198E-3,3.0841315E-1,4.191652E-2,9.772845E2,3.2096775E0,1.3548388E6,1.8387096E0,-2.670339E-2,-1.3466047E-1,8.2258064E-1,-3.947446E-2,1.8851686E5,-7.155815E-2,1.5908601E0,1.3110207E-1,1.022839E-2,-2.1394712E-1,-9.7049475E-2,-2.9432204E-1,-8.2102396E-2,-8.789665E-3,1.829745E-1,-1.1817886E-3,3.5824146E-2,-2.9096993E-2,-2.8653754E-2,4.8790082E-2],"split_indices":[17,17,0,14,14,0,17,2,17,0,0,12,1,13,1,12,16,3,1,0,14,3,17,0,12,0,0,0,0,2147483647,2147483647,0,0,11,3,11,13,2147483647,2147483647,6,17,10,0,6,0,17,0,0,0,2147483647,2147483647,0,0,0,0,2147483647,2147483647],"sum_hessian":[9.5645065E1,9.416239E1,1.4826789E0,1.0507906E1,8.365448E1,6.8792896E0,3.6286166E0,1.6695892E1,6.695859E1,2.2736087E0,1.3550079E0,9.191274E0,7.5046186E0,5.0041165E0,6.1954475E1,4.8810673E0,4.310206E0,2.9574196E0,4.5471992E0,2.076473E0,2.9276438E0,1.7679865E1,4.427461E1,1.5854461E0,3.2956212E0,2.7106812E0,1.5995249E0,1.8452114E0,1.1122081E0,2.5954463E0,1.9517527E0,1.4360893E0,1.4915545E0,1.2568304E1,5.1115603E0,3.8594025E1,5.6805854E0,1.8689041E0,1.426717E0,7.1874313E0,5.3808727E0,3.482174E0,1.6293865E0,3.6071632E1,2.5223916E0,3.670828E0,2.0097573E0,5.6628757E0,1.5245559E0,1.5139716E0,3.8669014E0,1.5208162E0,1.9613576E0,2.3401606E1,1.2670026E1,1.9208924E0,1.7499357E0],"tree_param":{"num_deleted":"8","num_feature":"18","num_nodes":"57","size_leaf_vector":"0"}},{"base_weights":[1.7836586E-2,4.1608468E-2,-1.0930067E0,1.362284E-2,1.1734189E0,4.9070828E-2,-6.008062E-1,7.660295E-2,-2.309985E-1,-1.0731784E0,-2.1858756E-1,-8.911978E-3,1.8922952E-1,-6.283004E-1,-3.421066E-2,-3.8209233E-1,2.0466426E-3,2.2490148E-1,-1.1651519E-1,1.1008661E0,7.233275E-2,3.4952977E-1,-3.3463886E-1,1.6256715E-1,3.5674688E-1,-1.3593377E0,-2.8847365E-2,1.5377647E-1,1.8919796E0,-3.4673315E-1,1.1626461E-1,-4.3570575E-1,-1.3502401E-1,2.2675706E-1,-1.02963835E-1,3.4201782E-2,-2.483591E-1,1.9309664E-1,-1.4250967E-1],"default_left":[true,true,false,true,false,true,true,true,true,false,true,true,true,false,true,true,true,true,true,true,true,false,true,true,true,false,true,false,false,false,true,true,true,true,true,false,false,false,false],"id":21,"leaf_child_counts":[0,0,0,0,0,0,0,0,0,0,0,0,0,0,0,0,0,0,0,0,0,0,0,0,0,0,0,0,0,0,0,0,0,0,0,0,0,0,0],"left_children":[1,3,-1,5,-1,7,9,11,13,-1,-1,17,19,-1,21,-1,-1,-1,25,27,29,-1,-1,-1,-1,-1,35,-1,-1,-1,37,-1,-1,-1,-1,-1,-1,-1,-1],"loss_changes":[2.5214694E0,2.922957E0,0E0,2.0262935E0,0E0,6.936194E-1,6.6872895E-1,7.814839E-1,6.036375E-1,0E0,1.514966E-1,1.2030693E0,3.6340296E0,0E0,8.6366886E-1,0E0,0E0,6.064862E-2,3.5154092E0,2.605505E0,6.2833595E-1,0E0,1.936835E-2,2.3115939E-1,0E0,0E0,4.4829988E-1,0E0,0E0,0E0,6.2037253E-1,0E0,0E0,0E0,0E0,0E0,0E0,0E0,0E0],"parents":[2147483647,0,0,1,1,3,3,5,5,6,6,7,7,8,8,10,10,11,11,12,12,14,14,17,17,18,18,19,19,20,20,22,22,23,23,26,26,30,30],"right_children":[2,4,-1,6,-1,8,10,12,14,-1,-1,18,20,-1,22,-1,-1,-1,26,28,30,-1,-1,-1,-1,-1,36,-1,-1,-1,38,-1,-1,-1,-1,-1,-1,-1,-1],"split_conditions":[8.80215E1,8.370186E1,-2.9511184E-1,5.469341E8,3.1682312E-1,8.253155E3,2.032258E0,5.4838705E-1,8.9516125E5,-2.8975818E-1,-5.9018645E-2,1.568871E0,1.4935484E0,-1.6964112E-1,1.9354838E-1,-1.0316493E-1,5.525935E-4,6.07234E-2,4.245684E0,5.029758E1,4.978634E1,9.437304E-2,-9.03525E-2,4.3893132E-2,9.6321665E-2,-3.670212E-1,5.1596935E1,4.151965E-2,5.108345E-1,-9.361795E-2,7.910693E1,-1.17640555E-1,-3.6456484E-2,6.122441E-2,-2.7800236E-2,9.2344815E-3,-6.705696E-2,5.2136093E-2,-3.847761E-2],"split_indices":[17,17,0,10,0,11,3,5,11,0,1,17,1,0,5,2147483647,2147483647,17,17,17,17,0,0,2147483647,2147483647,0,17,0,0,0,17,2147483647,2147483647,2147483647,2147483647,0,0,0,0],"sum_hessian":[9.3161415E1,9.216073E1,1.0006806E0,9.093315E1,1.2275802E0,8.6858475E1,4.074677E0,7.977811E1,7.080369E0,1.0021844E0,3.0724928E0,4.5820026E1,3.3958076E1,1.602145E0,5.478224E0,1.3704386E0,1.7020543E0,1.40681E1,3.1751928E1,2.8930714E0,3.1065006E1,2.319182E0,3.1590421E0,1.1119734E1,2.9483662E0,1.1288714E0,3.0623056E1,1.8660868E0,1.0269845E0,2.2720242E0,2.8792982E1,1.2787637E0,1.8802786E0,9.102874E0,2.0168595E0,2.4410421E1,6.212635E0,2.2426756E1,6.3662252E0],"tree_param":{"num_deleted":"8","num_feature":"18","num_nodes":"39","size_leaf_vector":"0"}},{"base_weights":[1.4822047E-2,-2.5650699E-2,2.005917E0,-2.4419928E-1,2.699105E-2,-9.0530716E-2,-1.4913232E0,4.7942716E-1,-3.1804923E-2,-1.9438535E-1,3.2120866E-1,6.385713E-1,-8.785705E-2,-5.179021E-2,4.650099E-1,4.139579E-2,-7.109073E-1,-1.9439676E-1,7.3337877E-1,2.5055036E-1,1.1527002E0,-9.264391E-4,-2.3499131E-1,-6.502758E-2,5.660752E-1,-1.2099427E0,-0E0,4.83376E-1,-1.3507046E-1,-1.8850416E-1,9.069744E-2,1.0782952E-1,-4.2675364E-1,5.9754584E-2,-3.3476493E-1,-1.2314962E-1,-4.9207783E-1,4.057316E-2,9.045561E-1,3.6031306E-1,-3.5612576E-2,-7.9808104E-1,-1.34027E-1,1.8431452E-1,-1.176425E-1,-3.594469E-1,-4.0561818E-3,4.0509418E-1,-3.2846827E-2,2.7214175E-2,-9.168478E-2,-9.616877E-1,-3.0246046E-1,-2.9509008E-1,1.201178E-2],"default_left":[true,true,false,true,true,true,false,true,true,true,true,true,false,true,false,true,true,false,false,true,false,true,true,true,false,false,false,false,false,true,true,true,true,true,true,true,false,true,false,true,true,true,true,true,true,false,false,false,false,true,true,true,true,true,true],"id":22,"leaf_child_counts":[0,0,0,0,0,0,0,0,0,0,0,0,0,0,0,0,0,0,0,0,0,0,0,0,0,0,0,0,0,0,0,0,0,0,0,0,0,0,0,0,0,0,0,0,0,0,0,0,0,0,0,0,0,0,0],"left_children":[1,3,-1,5,7,9,-1,11,13,15,17,19,-1,21,-1,23,25,-1,-1,27,-1,29,31,-1,-1,-1,-1,-1,-1,35,37,-1,41,-1,-1,45,-1,47,-1,-1,-1,-1,-1,-1,-1,-1,-1,-1,-1,-1,-1,-1,-1,-1,-1],"loss_changes":[8.147599E0,1.1501198E0,0E0,3.5658848E0,2.1694727E0,8.4532666E-1,0E0,9.080734E-1,7.3917997E-1,1.8978313E0,1.0089505E0,1.1847005E0,0E0,6.5487766E-1,0E0,6.799024E-1,1.7354531E0,0E0,0E0,5.6601363E-1,0E0,9.8516136E-1,1.0540707E0,3.7217706E-1,0E0,0E0,0E0,0E0,0E0,3.0676234E-1,1.5221119E0,2.4289247E-1,9.7316015E-1,1.973792E-1,0E0,4.6915388E-1,0E0,1.0145346E0,0E0,0E0,2.0326085E-2,3.7156582E-2,1.6682532E-1,0E0,0E0,0E0,0E0,0E0,0E0,0E0,0E0,0E0,0E0,0E0,0E0],"parents":[2147483647,0,0,1,1,3,3,4,4,5,5,7,7,8,8,9,9,10,10,11,11,13,13,15,15,16,16,19,19,21,21,22,22,23,23,29,29,30,30,31,31,32,32,33,33,35,35,37,37,40,40,41,41,42,42],"right_children":[2,4,-1,6,8,10,-1,12,14,16,18,20,-1,22,-1,24,26,-1,-1,28,-1,30,32,-1,-1,-1,-1,-1,-1,36,38,-1,42,-1,-1,46,-1,48,-1,-1,-1,-1,-1,-1,-1,-1,-1,-1,-1,-1,-1,-1,-1,-1,-1],"split_conditions":[8.462936E1,2.734355E0,5.415976E-1,1.568871E0,1.6618448E1,6.935484E-1,-4.026573E-1,1.8965517E0,1.7673224E8,5.061179E-2,3.9377084E-1,1.3448277E0,-2.3721404E-2,3.6168888E5,1.2555268E-1,1.6129032E-2,6.725806E-1,-5.2487127E-2,1.9801228E-1,1.0517242E0,3.1122905E-1,1.4333334E0,7.419355E-1,-1.7557448E-2,1.5284032E-1,-3.2668453E-1,-0E0,1.3051152E-1,-3.6469024E-2,8.064516E-2,5.6508867E3,2.911397E-2,1.3387096E0,1.6133739E-2,-9.038653E-2,3.515841E1,-1.3286102E-1,4.853263E1,2.4423015E-1,9.728453E-2,-9.615396E-3,-2.1548189E-1,-3.618729E-2,4.9764924E-2,-3.1763475E-2,-9.705067E-2,-1.0951691E-3,1.0937543E-1,-8.868644E-3,7.347828E-3,-2.4754891E-2,-2.5965568E-1,-8.166433E-2,-7.9674326E-2,3.243181E-3],"split_indices":[17,17,0,17,17,13,0,14,15,13,14,12,0,15,0,13,17,0,0,12,0,0,6,12,0,0,0,0,0,4,15,0,8,2147483647,2147483647,17,0,17,0,2147483647,2147483647,7,14,2147483647,2147483647,0,0,0,0,2147483647,2147483647,2147483647,2147483647,2147483647,2147483647],"sum_hessian":[9.922132E1,9.820717E1,1.0141503E0,1.839387E1,7.98133E1,1.7338108E1,1.055763E0,8.375979E0,7.143732E1,1.4286697E1,3.0514102E0,6.4566226E0,1.9193571E0,6.9555214E1,1.8821024E0,1.0427338E1,3.859359E0,1.579556E0,1.4718541E0,4.5382876E0,1.9183348E0,5.5269806E1,1.4285412E1,9.3814535E0,1.0458846E0,1.8629993E0,1.9963597E0,2.687869E0,1.8504186E0,1.7826378E1,3.7443428E1,5.262674E0,9.022738E0,6.9211054E0,2.460348E0,1.5852251E1,1.974128E0,3.6271652E1,1.171774E0,1.3841437E0,3.87853E0,3.2013078E0,5.82143E0,4.076297E0,2.8448086E0,4.607733E0,1.1244518E1,5.3463597E0,3.0925293E1,1.9877027E0,1.8908273E0,1.6846497E0,1.5166581E0,2.3155293E0,3.5059009E0],"tree_param":{"num_deleted":"12","num_feature":"18","num_nodes":"55","size_leaf_vector":"0"}},{"base_weights":[-6.9005485E-3,3.1642716E-2,-1.4656324E0,1.1034649E-2,7.911385E-1,6.881132E-2,-2.815038E-1,-4.8444163E-2,2.514513E-1,-3.5995555E-1,3.9592013E-1,1.5131146E-2,-3.5445476E-1,6.83408E-1,1.5883711E-1,-1.1745747E-1,-6.06789E-1,-1.7828663E-1,1.09921835E-1,-1.3686305E-1,-9.193133E-1,1.0384479E0,2.3352732E-1,-2.0786099E-1,3.252621E-1,-2.5563207E-1,7.6043405E-2,-5.519259E-1,6.0943622E-2,3.8467214E-1,-1.7581152E-2,8.09445E-2,-2.2894467E-1,1.3462401E-2,-4.3884408E-1,4.4219896E-2,5.591506E-1,2.5651044E-1,-9.373905E-2,-1.9246876E-2,-1.3816944E0,1.6030978E-1,-3.2405174E-1,4.6860757E-1,3.6382936E-2,2.727282E-2,-1.8768713E-1,-8.887158E-2,-2.7762282E-1,-1.913563E-1,1.6088226E-1,-1.5483792E-1,6.634952E-1,1.5602326E0,2.351329E-1],"default_left":[true,true,false,true,false,true,true,true,true,true,false,true,true,true,true,true,false,true,true,true,false,false,false,true,true,true,true,true,true,true,true,true,true,true,false,true,true,true,true,false,false,false,false,true,true,true,true,true,true,true,true,false,false,false,false],"id":23,"leaf_child_counts":[0,0,0,0,0,0,0,0,0,0,0,0,0,0,0,0,0,0,0,0,0,0,0,0,0,0,0,0,0,0,0,0,0,0,0,0,0,0,0,0,0,0,0,0,0,0,0,0,0,0,0,0,0,0,0],"left_children":[1,3,-1,5,-1,7,9,11,13,15,-1,17,19,21,23,-1,-1,27,29,-1,-1,-1,-1,33,35,-1,-1,39,41,-1,-1,-1,-1,-1,-1,51,53,-1,-1,-1,-1,-1,-1,-1,-1,-1,-1,-1,-1,-1,-1,-1,-1,-1,-1],"loss_changes":[5.516898E0,1.4782592E0,0E0,1.6063753E0,0E0,1.7134567E0,9.751786E-1,9.645284E-1,1.131927E0,7.944771E-1,0E0,7.817843E-1,9.1066206E-1,5.737202E-1,1.7182732E0,2.5163856E-1,0E0,1.292789E0,1.0115408E0,1.6717452E-1,0E0,0E0,0E0,4.71734E-1,1.2181385E0,0E0,1.583619E-1,2.4315E0,4.1139734E-1,2.4471128E-1,1.6275924E-1,0E0,8.828044E-3,1.9833033E-1,0E0,1.3078957E0,2.944655E0,0E0,0E0,0E0,0E0,0E0,0E0,0E0,0E0,0E0,0E0,0E0,0E0,0E0,0E0,0E0,0E0,0E0,0E0],"parents":[2147483647,0,0,1,1,3,3,5,5,6,6,7,7,8,8,9,9,11,11,12,12,13,13,14,14,15,15,17,17,18,18,19,19,23,23,24,24,26,26,27,27,28,28,29,29,30,30,32,32,33,33,35,35,36,36],"right_children":[2,4,-1,6,-1,8,10,12,14,16,-1,18,20,22,24,-1,-1,28,30,-1,-1,-1,-1,34,36,-1,-1,40,42,-1,-1,-1,-1,-1,-1,52,54,-1,-1,-1,-1,-1,-1,-1,-1,-1,-1,-1,-1,-1,-1,-1,-1,-1,-1],"split_conditions":[1.016129E0,8.370186E1,-3.9572078E-1,3.836559E0,2.1360742E-1,4.424731E-1,1.2946509E8,1.8870968E0,3.2258064E-2,1.15E0,1.0689844E-1,2.270278E0,8.387097E-1,2.5E0,1.8548387E0,-3.171352E-2,-1.6383304E-1,3.2258064E-2,1.6551723E0,-3.6953025E-2,-2.482146E-1,2.8038093E-1,6.305238E-2,9.83871E-1,1.9833333E0,-6.902066E-2,2.053172E-2,3.2258064E-2,1.1658064E0,1.0386148E-1,-4.746911E-3,2.1855015E-2,-6.1815064E-2,3.6348484E-3,-1.1848791E-1,1.5075269E0,1.0806451E0,6.925782E-2,-2.5309544E-2,-5.1966566E-3,-3.730575E-1,4.328364E-2,-8.749397E-2,1.2652405E-1,9.823393E-3,7.3636617E-3,-5.0675526E-2,-2.3995329E-2,-7.495816E-2,-5.1666204E-2,4.3438215E-2,-4.180624E-2,1.7914371E-1,4.2126283E-1,6.348588E-2],"split_indices":[4,17,0,3,0,5,15,0,8,6,0,17,6,0,0,4,0,14,12,3,0,0,0,5,9,2147483647,2147483647,12,17,0,15,2147483647,2147483647,9,0,6,14,2147483647,2147483647,0,0,0,0,2147483647,2147483647,2147483647,2147483647,2147483647,2147483647,2147483647,2147483647,0,0,0,0],"sum_hessian":[9.6043144E1,9.451723E1,1.5259235E0,9.3020905E1,1.4963222E0,7.834637E1,1.4674535E1,4.812802E1,3.0218346E1,1.3584706E1,1.0898281E0,4.0609135E1,7.518886E0,4.189814E0,2.6028532E1,7.6174345E0,5.967272E0,1.3031789E1,2.7577347E1,6.3375645E0,1.1813221E0,1.5981073E0,2.5917068E0,8.028845E0,1.7999687E1,4.286868E0,3.3305664E0,4.5929885E0,8.4388E0,8.126782E0,1.9450563E1,1.886837E0,4.4507275E0,4.558962E0,3.4698825E0,8.735209E0,9.264478E0,1.3954163E0,1.9351503E0,3.4277525E0,1.1652361E0,7.1921167E0,1.2466837E0,6.247103E0,1.8796788E0,1.6009914E1,3.44065E0,1.929539E0,2.5211883E0,1.7549047E0,2.8040574E0,7.165709E0,1.5695008E0,1.3249112E0,7.939566E0],"tree_param":{"num_deleted":"14","num_feature":"18","num_nodes":"55","size_leaf_vector":"0"}},{"base_weights":[1.3430771E-2,-3.2922268E-2,3.1308326E-1,4.263825E-3,-2.5085086E-1,-7.340086E-2,9.11132E-1,-2.5687449E-2,8.5013115E-1,6.6437006E-2,-5.862099E-1,1.3181378E-1,-8.091942E-1,1.430339E-1,2.017283E0,-2.7892032E-1,1.3743424E-2,-2.277709E-1,1.7732134E-1,-8.6003475E-2,-7.625995E-1,2.5071177E-1,-2.5861982E-1,2.8603712E-1,-2.656987E-2,-9.108819E-2,-4.3547806E-1,1.7467959E-1,-3.775711E-2,5.018914E-2,2.6937234E-1,-2.8493863E-1,-1.1240028E0,1.4262086E-1,4.0507886E-1,-7.5913537E-1,-1.4428657E-1,-2.036065E-1,2.7454543E-1,-1.0364848E0,7.9986517E-4,-3.5902366E-1,6.6446975E-2,-7.0985866E-1,3.3149374E-1,4.3749684E-1,-6.548254E-2,-9.8085485E-2,1.0334005E-1,5.925859E-1,-2.51413E-1,-2.947852E-1,1.01752184E-1,3.9835414E-1,-1.8416177E-1,5.8672893E-1,2.195625E-2],"default_left":[true,true,true,true,true,true,true,true,false,true,true,true,false,true,false,true,true,true,true,false,true,true,false,true,true,false,true,true,true,true,true,false,false,true,true,false,true,true,true,false,true,true,true,false,false,true,true,true,true,false,false,true,true,false,false,false,false],"id":24,"leaf_child_counts":[0,0,0,0,0,0,0,0,0,0,0,0,0,0,0,0,0,0,0,0,0,0,0,0,0,0,0,0,0,0,0,0,0,0,0,0,0,0,0,0,0,0,0,0,0,0,0,0,0,0,0,0,0,0,0,0,0],"left_children":[1,3,5,7,9,11,13,15,-1,-1,19,21,-1,-1,-1,25,27,-1,-1,-1,31,-1,-1,-1,-1,-1,35,37,39,-1,-1,-1,-1,-1,-1,-1,-1,43,45,-1,47,-1,-1,-1,-1,49,-1,53,55,-1,-1,-1,-1,-1,-1,-1,-1],"loss_changes":[1.5264275E0,7.7528614E-1,3.4775589E0,2.115003E0,1.5271281E0,1.6017709E0,4.671333E0,8.0969065E-1,0E0,3.023168E-1,5.3408146E-1,4.6196932E-1,0E0,1.2035464E-1,0E0,2.7615315E-1,5.9246224E-1,0E0,5.8525696E-2,0E0,5.2082014E-1,5.499339E-2,0E0,0E0,0E0,0E0,4.150238E-1,7.109591E-1,2.0983083E0,0E0,0E0,0E0,0E0,0E0,0E0,0E0,2.1825539E-1,1.3689753E0,8.1639826E-1,0E0,5.4936576E-1,0E0,0E0,0E0,0E0,1.190469E0,2.403116E-1,1.247759E0,1.02911E0,0E0,0E0,0E0,0E0,0E0,0E0,0E0,0E0],"parents":[2147483647,0,0,1,1,2,2,3,3,4,4,5,5,6,6,7,7,9,9,10,10,11,11,13,13,15,15,16,16,18,18,20,20,21,21,26,26,27,27,28,28,36,36,37,37,38,38,40,40,45,45,46,46,47,47,48,48],"right_children":[2,4,6,8,10,12,14,16,-1,-1,20,22,-1,-1,-1,26,28,-1,-1,-1,32,-1,-1,-1,-1,-1,36,38,40,-1,-1,-1,-1,-1,-1,-1,-1,44,46,-1,48,-1,-1,-1,-1,50,-1,54,56,-1,-1,-1,-1,-1,-1,-1,-1],"split_conditions":[3.655914E0,2.2096772E0,1.489785E0,1.7419355E0,1.9032258E0,6.6129064E7,1.5E0,1.6129032E-2,2.2953542E-1,1.7937992E-2,2.3779569E0,1.0666666E0,-2.1848245E-1,3.8619157E-2,5.446664E-1,1.2903225E-1,3.448276E-2,-6.1498143E-2,4.7876764E-2,-2.322094E-2,1.6833334E0,6.769218E-2,-6.9827355E-2,7.723002E-2,-7.173865E-3,-2.4593813E-2,1.2903225E-1,3.2258064E-2,3.0645162E-1,1.35510685E-2,7.2730534E-2,-7.6933436E-2,-3.0348077E-1,3.8507633E-2,1.093713E-1,-2.0496656E-1,-3.8957376E-2,3.175751E-1,7.258064E-1,-2.7985093E-1,4.3548387E-1,-9.693639E-2,1.7940683E-2,-1.9166185E-1,8.950331E-2,7.107669E4,-1.7680287E-2,1.6551723E0,6.1290324E-1,1.5999821E-1,-6.788151E-2,-7.9592004E-2,2.747309E-2,1.0755562E-1,-4.9723677E-2,1.5841682E-1,5.9281876E-3],"split_indices":[7,1,13,5,9,10,9,12,0,6,1,13,0,11,0,13,7,2147483647,2147483647,0,6,15,0,2147483647,2147483647,0,7,13,7,2147483647,2147483647,0,0,2147483647,2147483647,0,13,12,1,0,5,2147483647,2147483647,0,0,16,10,12,5,0,0,2147483647,2147483647,0,0,0,0],"sum_hessian":[1.0795175E2,9.423185E1,1.3719901E1,8.129473E1,1.293712E1,8.856807E0,4.8630943E0,7.943967E1,1.8550652E0,7.0443945E0,5.8927264E0,7.556534E0,1.3002725E0,3.5419528E0,1.3211416E0,9.918842E0,6.952082E1,1.6150062E0,5.4293885E0,1.9388362E0,3.95389E0,6.0865E0,1.4700341E0,1.5812035E0,1.9607494E0,5.2571745E0,4.6616683E0,1.6321005E1,5.3199818E1,2.9747753E0,2.4546132E0,2.4852579E0,1.4686322E0,4.7494965E0,1.3370035E0,1.4304239E0,3.2312446E0,3.1708965E0,1.3150108E1,1.0250764E0,5.217474E1,1.2753912E0,1.9558535E0,1.4711534E0,1.6997433E0,8.715935E0,4.434173E0,2.653319E1,2.564155E1,7.2403145E0,1.4756206E0,1.5736151E0,2.860558E0,3.3674626E0,2.3165728E1,2.7824674E0,2.2859081E1],"tree_param":{"num_deleted":"12","num_feature":"18","num_nodes":"57","size_leaf_vector":"0"}},{"base_weights":[4.190094E-2,6.915299E-2,-9.5394325E-1,3.627593E-2,9.263762E-1,1.0625928E-1,-9.699738E-2,1.9853851E0,-2.755173E-1,-9.372062E-2,2.2628474E-1,-3.6269296E-2,-3.9244425E-1,-1.6749774E-1,3.2044432E-1,1.0434812E0,1.6596767E-1,5.185975E-2,-1.5924439E-1,-1.2684199E-1,-4.8983565E-1,-3.2579684E-1,-2.3450403E-2,4.7580844E-1,8.8973895E-2,-8.249064E-2,2.5936708E-1,-5.668801E-2,1.7068999E-1,-2.4107434E-1,8.3669804E-2,2.1873476E-1,-3.0037898E-1,5.0458703E-2,-2.368607E-1,9.598027E-1,1.22548096E-1,1.1143519E-1,-1.01316884E-1,4.4216162E-1,-3.745939E-2,-4.3022853E-1,-4.5746006E-2,3.9698E-1,-2.2280086E-2,-5.369178E-1,-0E0,-0E0,1.2234767E-1,8.955605E-2,1.9270076E0,-4.949785E-2,2.740502E-1,-2.0507108E-1,6.709417E-2,1.4671683E-1,-3.9095894E-1,-1.23443015E-1,1.9648705E-2],"default_left":[true,true,false,true,true,true,true,false,false,true,true,true,true,true,true,false,true,true,true,true,true,false,true,true,true,true,true,true,true,true,true,true,true,true,true,true,true,true,true,false,true,true,true,true,true,false,false,true,true,false,false,false,false,true,true,false,false,true,true],"id":25,"leaf_child_counts":[0,0,0,0,0,0,0,0,0,0,0,0,0,0,0,0,0,0,0,0,0,0,0,0,0,0,0,0,0,0,0,0,0,0,0,0,0,0,0,0,0,0,0,0,0,0,0,0,0,0,0,0,0,0,0,0,0,0,0],"left_children":[1,3,-1,5,7,9,11,-1,-1,13,15,17,-1,21,-1,-1,25,27,-1,-1,-1,-1,31,-1,-1,-1,35,-1,39,-1,-1,-1,45,-1,-1,49,51,-1,-1,-1,55,-1,-1,-1,-1,-1,-1,-1,-1,-1,-1,-1,-1,-1,-1,-1,-1,-1,-1],"loss_changes":[2.7973995E0,2.7532344E0,0E0,9.114944E-1,5.162832E0,1.5556835E0,5.8680737E-1,0E0,0E0,8.048386E-1,1.7982254E0,3.2487902E-1,7.714033E-2,4.8108363E-1,9.7569525E-2,0E0,9.2065775E-1,2.3870915E-1,2.691795E-1,0E0,0E0,0E0,8.989938E-1,0E0,0E0,2.4564762E-1,2.591227E0,8.577122E-2,5.1378447E-1,3.3023995E-1,0E0,3.210831E-1,4.431491E-1,2.5336893E-2,0E0,3.5774841E0,6.648387E-1,0E0,1.623652E-1,0E0,4.4009134E-1,0E0,3.3277325E-2,0E0,0E0,0E0,0E0,0E0,0E0,0E0,0E0,0E0,0E0,0E0,0E0,0E0,0E0,0E0,0E0],"parents":[2147483647,0,0,1,1,3,3,4,4,5,5,6,6,9,9,10,10,11,11,12,12,13,13,14,14,16,16,17,17,18,18,22,22,25,25,26,26,27,27,28,28,29,29,31,31,32,32,33,33,35,35,36,36,38,38,40,40,42,42],"right_children":[2,4,-1,6,8,10,12,-1,-1,14,16,18,-1,22,-1,-1,26,28,-1,-1,-1,-1,32,-1,-1,-1,36,-1,40,-1,-1,-1,46,-1,-1,50,52,-1,-1,-1,56,-1,-1,-1,-1,-1,-1,-1,-1,-1,-1,-1,-1,-1,-1,-1,-1,-1,-1],"split_conditions":[2.0666666E0,8.42625E1,-2.575647E-1,1.7997775E0,1.5E0,1.535039E0,3.1612902E0,5.36054E-1,-7.438968E-2,1.5863448E3,1.709793E1,1.5E-1,-1.0595995E-1,1.6129032E-2,8.651997E-2,2.8173995E-1,4.2941895E1,4.8387095E-2,-4.2995986E-2,-3.424734E-2,-1.3225563E-1,-8.796515E-2,5.4838705E-1,1.2846829E-1,2.4022952E-2,-2.2272473E-2,5.474952E1,-1.5305763E-2,9.193548E-1,-6.5090075E-2,2.2590848E-2,5.9058387E-2,1.3064516E0,1.362385E-2,-6.3952394E-2,1.016129E0,1.7741935E0,3.0087503E-2,-2.735556E-2,1.1938364E-1,1.5E0,-1.1616171E-1,-1.2351423E-2,1.07184604E-1,-6.0156235E-3,-1.4496781E-1,-0E0,-0E0,3.303387E-2,2.4180135E-2,5.2029204E-1,-1.336442E-2,7.3993556E-2,-5.5369195E-2,1.8115427E-2,3.9613545E-2,-1.0555892E-1,-3.3329614E-2,5.3051505E-3],"split_indices":[5,17,0,14,4,12,3,0,0,11,17,4,7,12,7,0,17,5,3,2147483647,2147483647,0,12,2147483647,2147483647,5,17,12,5,2147483647,2147483647,14,7,2147483647,2147483647,2,6,2147483647,2147483647,0,8,2147483647,2147483647,2147483647,2147483647,0,0,2147483647,2147483647,0,0,0,0,2147483647,2147483647,0,0,2147483647,2147483647],"sum_hessian":[9.9972786E1,9.822537E1,1.747413E0,9.561234E1,2.6130333E0,6.2874138E1,3.2738205E1,1.0469698E0,1.5660636E0,2.363336E1,3.9240776E1,2.8115723E1,4.622481E0,2.0586002E1,3.0473576E0,1.5654738E0,3.7675304E1,1.6667833E1,1.1447888E1,1.8854964E0,2.7369847E0,9.173613E0,1.1412389E1,1.1659639E0,1.8813937E0,1.02959795E1,2.7379324E1,8.940112E0,7.7277217E0,8.599675E0,2.8482125E0,6.180939E0,5.2314496E0,5.8586454E0,4.437334E0,3.4792616E0,2.3900063E1,1.5143485E0,7.425764E0,2.886671E0,4.8410506E0,3.7319255E0,4.86775E0,3.2050104E0,2.9759288E0,2.4875634E0,2.743886E0,3.9994233E0,1.8592219E0,2.4119928E0,1.0672688E0,1.1475618E1,1.2424444E1,4.4969764E0,2.9287877E0,3.5487778E0,1.2922727E0,1.8888359E0,2.9789143E0],"tree_param":{"num_deleted":"20","num_feature":"18","num_nodes":"59","size_leaf_vector":"0"}},{"base_weights":[1.7041951E-2,6.295952E-2,-3.5333127E-1,4.0898183E-1,2.673538E-2,-0E0,-4.2620337E-1,7.778788E-1,-4.96287E-2,-0E0,5.5553484E-1,-5.494088E-1,-1.2961628E-1,-0E0,-8.222623E-2,-3.0823052E-1,3.547551E-2,1.8383183E0,-5.429839E-1,1.0022387E-1,-3.3026436E-1,-4.6618384E-1,4.4349667E-1,1.8402942E-1,-5.5725474E-2,-8.8964796E-1,-2.5415543E-1,2.6960732E-2,7.623483E-1,-4.2288437E-1,-1.4387753E-2,3.2087436E-1,-5.3918076E-1,-9.8172955E-2,1.6830404E-1,2.4201141E-1,1.2867389E0,4.9179707E-2,-9.535204E-2,-7.78394E-1,-9.934266E-2,7.195994E-2,-1.9611956E-1,7.299054E-1,-2.3029765E-2,5.931835E-1,-1.720402E-1,-1.2740932E-1,1.6677687E-1,-1.6757202E-1,1.7873162E-1],"default_left":[true,true,true,true,true,true,true,false,true,true,true,true,true,true,true,true,true,false,false,true,true,true,false,true,true,false,true,true,true,false,true,false,true,true,true,true,false,true,true,false,false,true,true,false,false,false,false,false,false,false,false],"id":26,"leaf_child_counts":[0,0,0,0,0,0,0,0,0,0,0,0,0,0,0,0,0,0,0,0,0,0,0,0,0,0,0,0,0,0,0,0,0,0,0,0,0,0,0,0,0,0,0,0,0,0,0,0,0,0,0],"left_children":[1,3,-1,7,9,-1,-1,-1,-1,15,17,-1,-1,-1,-1,21,23,-1,-1,-1,-1,25,-1,27,29,-1,31,33,35,-1,37,-1,39,-1,43,45,-1,47,49,-1,-1,-1,-1,-1,-1,-1,-1,-1,-1,-1,-1],"loss_changes":[1.8126776E0,1.1715963E0,3.0476344E-1,1.5477667E0,1.2253294E0,0E0,2.7860367E-1,0E0,7.74711E-3,9.2454267E-1,6.889347E0,0E0,2.2894338E-1,0E0,0E0,1.2430571E0,1.0400697E0,0E0,0E0,0E0,0E0,4.5463336E-1,0E0,2.6196043E0,7.144824E-1,0E0,1.2491724E0,4.412804E-1,1.3585491E0,0E0,2.3155564E-1,0E0,4.15334E-1,2.3717143E-1,1.277283E0,7.375047E-1,0E0,5.4564387E-1,4.2091742E-1,0E0,0E0,0E0,0E0,0E0,0E0,0E0,0E0,0E0,0E0,0E0,0E0],"parents":[2147483647,0,0,1,1,2,2,3,3,4,4,6,6,8,8,9,9,10,10,12,12,15,15,16,16,21,21,23,23,24,24,26,26,27,27,28,28,30,30,32,32,33,33,34,34,35,35,37,37,38,38],"right_children":[2,4,-1,8,10,-1,-1,-1,-1,16,18,-1,-1,-1,-1,22,24,-1,-1,-1,-1,26,-1,28,30,-1,32,34,36,-1,38,-1,40,-1,44,46,-1,48,50,-1,-1,-1,-1,-1,-1,-1,-1,-1,-1,-1,-1],"split_conditions":[7.259367E6,1.4070077E-1,-9.539945E-2,3.2258064E-2,8.37975E1,-0E0,-1.1507492E-1,2.1002729E-1,-1.339975E-2,3.448276E-2,8.7216774E1,-1.4834037E-1,-3.4996394E-2,-0E0,-2.2201084E-2,2.2741935E0,1.1451613E0,4.9634597E-1,-1.4660566E-1,2.7060445E-2,-8.917138E-2,5.645161E-1,1.1974411E-1,5.5698925E-1,1.3387097E0,-2.4020496E-1,1.0103793E1,1.5731724E1,9.193548E-1,-1.14178784E-1,1.4166667E0,8.663608E-2,6.9139785E-1,-2.65067E-2,3.0883709E1,4.0946945E1,3.474195E-1,1.8870968E0,2.85E0,-2.1016638E-1,-2.6822519E-2,1.9429184E-2,-5.2952282E-2,1.9707447E-1,-6.2180366E-3,1.6015956E-1,-4.6450853E-2,-3.440052E-2,4.5029756E-2,-4.5244448E-2,4.825754E-2],"split_indices":[15,17,6,14,17,2147483647,2147483647,0,14,14,17,2147483647,2147483647,2147483647,2147483647,0,1,0,0,2147483647,2147483647,12,0,6,1,0,17,17,2,0,6,0,2,17,17,17,0,2,1,0,0,2147483647,2147483647,0,0,0,0,0,0,0,0],"sum_hessian":[1.0444916E2,9.369072E1,1.0758437E1,7.8774014E0,8.5813324E1,1.9994036E0,8.759033E0,3.9919767E0,3.8854246E0,8.264189E1,3.171428E0,5.5622587E0,3.1967747E0,1.9598954E0,1.9255291E0,7.7257733E0,7.491612E1,1.1565409E0,2.014887E0,1.7000487E0,1.496726E0,6.7091875E0,1.0165857E0,2.8152065E1,4.6764053E1,1.1564555E0,5.552732E0,2.2975845E1,5.176221E0,3.7737713E0,4.2990284E1,1.7868857E0,3.7658465E0,1.2311203E1,1.0664642E1,3.341315E0,1.8349059E0,2.4233168E1,1.8757114E1,1.925932E0,1.8399143E0,4.5577044E0,7.753498E0,2.0080545E0,8.656588E0,1.5869149E0,1.7544003E0,9.619553E0,1.4613616E1,1.5181851E1,3.5752635E0],"tree_param":{"num_deleted":"10","num_feature":"18","num_nodes":"51","size_leaf_vector":"0"}},{"base_weights":[4.4162717E-2,1.2589444E-1,-1.2782574E-1,6.336156E-2,2.6910704E-1,-7.711745E-2,-6.420208E-1,1.0133207E-1,-1.7924331E-1,1.0641011E0,5.9152834E-2,-1.811502E-1,1.1756434E-1,3.0056444E-1,3.0401403E-2,6.796537E-2,-2.946307E-1,1.5148451E0,1.7596036E-1,1.5374765E-1,-2.4662808E-1,3.556168E-2,-2.7055144E-1,4.5010504E-1,-8.806956E-2,1.4655371E-1,6.553874E-1,-2.381651E-1,9.654974E-2,-4.779797E-1,-1.0175685E-2,-1.2108082E-1,2.5332946E-1,-1.6224377E-1,3.1502354E-1,-3.7199345E-1,-8.844701E-2,7.694478E-2,7.0014346E-1,-3.6784394E-3,-1.3760133E-1,4.308516E-1,-2.0372441E-1,-6.888599E-2,-3.432804E-1,4.787977E-2,3.7468204E-1,1.0393719E-1,-3.338294E-1,4.3588927E-1,1.2359746E-1,-4.1333213E-3,-2.78001E-1,-4.388181E-1,-7.8558825E-2,7.594825E-2,-1.7303482E-1,-4.663315E-2,-1.812806E-1,5.6739074E-1,9.838274E-2,-5.2199215E-1,4.0976465E-2,-2.5100082E-2,2.1390976E-1,5.784763E-1,9.071021E-2,-7.57006E-2,2.0894746E-1,-5.199393E-1,-2.1593142E-1,-4.9142525E-2,-2.4256773E-1,5.333475E-2,-2.3972271E-1,4.9892893E-1,-3.945488E-2],"default_left":[true,true,true,true,true,true,false,true,true,true,true,true,true,true,true,true,true,false,false,true,false,true,true,true,true,true,false,true,true,true,true,true,true,true,false,true,true,true,true,