{"learner":{"attributes":{"scikit_learn":"{\"n_estimators\": 35, \"objective\": \"reg:pseudohubererror\", \"max_depth\": 5, \"learning_rate\": 0.06999999999999999, \"verbosity\": null, \"booster\": \"gbtree\", \"tree_method\": null, \"gamma\": 0, \"min_child_weight\": 1, \"max_delta_step\": null, \"subsample\": 0.8, \"colsample_bytree\": 0.8, \"colsample_bylevel\": null, \"colsample_bynode\": null, \"reg_alpha\": null, \"reg_lambda\": null, \"scale_pos_weight\": 1, \"base_score\": null, \"missing\": NaN, \"num_parallel_tree\": null, \"kwargs\": {\"nthread\": 4, \"seed\": 27}, \"random_state\": null, \"n_jobs\": null, \"monotone_constraints\": null, \"interaction_constraints\": null, \"importance_type\": \"gain\", \"gpu_id\": null, \"validate_parameters\": null, \"n_features_in_\": 18, \"type\": \"XGBRegressor\"}"},"gradient_booster":{"model":{"gbtree_model_param":{"num_trees":"35","size_leaf_vector":"0"},"tree_info":[0,0,0,0,0,0,0,0,0,0,0,0,0,0,0,0,0,0,0,0,0,0,0,0,0,0,0,0,0,0,0,0,0,0,0],"trees":[{"base_weights":[3.9250805E1],"default_left":[false],"id":0,"leaf_child_counts":[0],"left_children":[-1],"loss_changes":[0E0],"parents":[2147483647],"right_children":[-1],"split_conditions":[2.7475564E0],"split_indices":[0],"sum_hessian":[3.1521912E0],"tree_param":{"num_deleted":"0","num_feature":"18","num_nodes":"1","size_leaf_vector":"0"}},{"base_weights":[2.6237855E0,1.3772553E0,4.495803E0,1.9152321E0,6.023322E-1,7.556054E0,2.9616773E0,1.4493812E0,2.9957094E0,1.0756227E-1,2.8345933E0,8.696526E0,2.1560862E0,5.2745776E0,1.8654971E0,1.7585564E0,-3.1609088E-1,5.4262486E0,4.3990478E-1,8.4333223E-1,-4.1024822E-1,7.50656E0,1.3850888E0,6.499455E-1,3.9081206E0,2.380415E0,8.076681E-1,1.2670974E0,-9.1059744E-2,-6.082484E-1,-1.4144097E-1,1.2549494E-1,1.5468189E0,1.2970924E0,5.2815123E0],"default_left":[true,true,true,true,true,true,true,true,true,true,false,false,false,true,true,true,false,false,false,true,true,false,false,true,true,false,false,false,false,false,false,false,false,false,false],"id":1,"leaf_child_counts":[0,0,0,0,0,0,0,0,0,0,0,0,0,0,0,0,0,0,0,0,0,0,0,0,0,0,0,0,0,0,0,0,0,0,0],"left_children":[1,3,5,7,9,11,13,15,17,19,-1,-1,-1,21,23,25,-1,-1,-1,27,29,-1,-1,31,33,-1,-1,-1,-1,-1,-1,-1,-1,-1,-1],"loss_changes":[1.0181067E2,1.1029861E1,6.2402008E1,4.10952E0,1.4532276E1,1.4414978E1,2.4826355E1,8.017275E0,2.3213184E1,4.931574E0,0E0,0E0,0E0,2.301973E1,2.433435E1,5.0459976E0,0E0,0E0,0E0,2.2135587E0,3.257674E-1,0E0,0E0,3.561813E0,6.9145203E0,0E0,0E0,0E0,0E0,0E0,0E0,0E0,0E0,0E0,0E0],"parents":[2147483647,0,0,1,1,2,2,3,3,4,4,5,5,6,6,7,7,8,8,9,9,13,13,14,14,15,15,19,19,20,20,23,23,24,24],"right_children":[2,4,6,8,10,12,14,16,18,20,-1,-1,-1,22,24,26,-1,-1,-1,28,30,-1,-1,32,34,-1,-1,-1,-1,-1,-1,-1,-1,-1,-1],"split_conditions":[1.7370968E0,1.6215054E0,7.859387E5,2.734355E0,4.658596E1,1.4532942E6,2.983871E0,1.568871E0,1.3810927E5,1.34594E-1,1.9842154E-1,6.087568E-1,1.5092604E-1,1.6075268E0,1.9666667E0,6.6740826E-2,-2.2126362E-2,3.798374E-1,3.0793335E-2,1.5645161E0,6.451613E-2,5.254592E-1,9.6956216E-2,3.048387E0,2.887097E0,1.6662905E-1,5.6536768E-2,8.8696815E-2,-6.374182E-3,-4.257739E-2,-9.900868E-3,8.784646E-3,1.0827732E-1,9.079647E-2,3.6970586E-1],"split_indices":[3,7,10,17,17,15,7,17,16,6,0,0,0,6,6,14,0,0,0,3,3,0,0,3,0,0,0,0,0,0,0,0,0,0,0],"sum_hessian":[4.528298E1,2.8224615E1,1.7058365E1,1.5790692E1,1.2433924E1,4.3853064E0,1.26730585E1,1.266959E1,3.1211026E0,1.1036027E1,1.3978969E0,3.1166036E0,1.2687026E0,2.8493187E0,9.82374E0,1.0784833E1,1.884757E0,1.0240939E0,2.0970087E0,4.2989254E0,6.7371016E0,1.2195308E0,1.629788E0,6.9851284E0,2.8386116E0,5.6116114E0,5.173221E0,2.7126286E0,1.5862966E0,3.1523502E0,3.5847511E0,5.1270113E0,1.8581171E0,1.648674E0,1.1899376E0],"tree_param":{"num_deleted":"0","num_feature":"18","num_nodes":"35","size_leaf_vector":"0"}},{"base_weights":[2.2725353E0,1.6642646E0,5.825777E0,1.8317299E0,-8.2544334E-2,1.322808E0,9.027946E0,1.5173708E0,3.3488684E0,2.696512E-1,-3.260852E-1,2.4040613E-2,1.926836E0,1.553493E1,1.2553195E0,1.892953E0,6.472823E-1,3.7962015E0,5.622721E-1,1.1059139E0,3.5194936E0,3.009905E-1,1.9026371E0,4.8418837E0,1.7442266E0],"default_left":[true,true,true,true,true,true,true,true,true,false,false,false,false,false,false,true,true,true,false,false,false,false,false,false,false],"id":2,"leaf_child_counts":[0,0,0,0,0,0,0,0,0,0,0,0,0,0,0,0,0,0,0,0,0,0,0,0,0],"left_children":[1,3,5,7,9,11,13,15,17,-1,-1,-1,-1,-1,-1,19,21,23,-1,-1,-1,-1,-1,-1,-1],"loss_changes":[1.0218219E2,1.3489731E1,9.138786E1,1.4783157E1,5.1215315E-1,3.2091885E0,1.8362732E2,1.0647263E1,5.7443314E0,0E0,0E0,0E0,0E0,0E0,0E0,2.7928574E1,4.849894E0,2.867752E0,0E0,0E0,0E0,0E0,0E0,0E0,0E0],"parents":[2147483647,0,0,1,1,2,2,3,3,4,4,5,5,6,6,7,7,8,8,15,15,16,16,17,17],"right_children":[2,4,6,8,10,12,14,16,18,-1,-1,-1,-1,-1,-1,20,22,24,-1,-1,-1,-1,-1,-1,-1],"split_conditions":[3.016129E0,2.5789765E6,1.1666667E0,1.7897849E0,4.1129032E-1,1.5E0,2.2395613E4,1.655914E0,1.548387E0,1.8875584E-2,-2.2825966E-2,1.682843E-3,1.3487852E-1,1.0874451E0,8.787236E-2,5.967742E-1,1.116129E0,2.7E0,3.9359044E-2,7.741397E-2,2.4636455E-1,2.1069335E-2,1.331846E-1,3.3893186E-1,1.2209586E-1],"split_indices":[3,11,13,9,8,9,11,0,6,0,0,0,0,0,0,13,6,13,0,0,0,0,0,0,0],"sum_hessian":[5.0763336E1,4.4597225E1,6.166111E0,4.065139E1,3.9458332E0,3.1498346E0,3.0162766E0,3.5330814E1,5.320576E0,1.5692534E0,2.3765798E0,1.3299677E0,1.8198669E0,1.0982156E0,1.9180609E0,2.3857084E1,1.1473731E1,4.272416E0,1.0481601E0,1.7209694E1,6.6473904E0,9.964712E0,1.5090182E0,1.929517E0,2.3428993E0],"tree_param":{"num_deleted":"0","num_feature":"18","num_nodes":"25","size_leaf_vector":"0"}},{"base_weights":[1.689117E0,1.1569618E0,2.5916288E0,1.4739635E0,3.067557E-1,6.14911E0,1.4954263E0,1.6938591E0,5.260275E-1,8.198629E-2,1.2533343E0,1.5238146E0,9.717201E0,5.009751E-1,2.4990962E0,1.2101204E0,3.7868135E0,-5.42543E-2,8.046894E-1,3.0960214E-1,-3.8476616E-1,1.4279524E0,1.1106674E-1,1.2348069E0,4.9971695E0,1.5264567E0,3.1219003E-1,6.1079745E0,7.706788E-1,2.0007782E-1,1.0868481E0,-1.6913769E-1,5.967031E-1,-8.867151E-1,1.4493798E-1,-2.125709E-1,5.2873737E-1,2.238168E0,7.120721E-1],"default_left":[true,true,true,true,true,true,true,true,true,true,false,false,false,true,true,true,true,false,true,true,true,false,true,true,false,false,false,false,false,false,false,false,false,false,false,false,false,false,false],"id":3,"leaf_child_counts":[0,0,0,0,0,0,0,0,0,0,0,0,0,0,0,0,0,0,0,0,0,0,0,0,0,0,0,0,0,0,0,0,0,0,0,0,0,0,0],"left_children":[1,3,5,7,9,11,13,15,17,19,-1,-1,-1,21,23,25,27,-1,29,31,33,-1,35,37,-1,-1,-1,-1,-1,-1,-1,-1,-1,-1,-1,-1,-1,-1,-1],"loss_changes":[2.709584E1,1.0658516E1,7.829814E1,5.3134995E0,2.5480306E0,6.7108826E1,1.7185257E1,1.942289E1,1.1844817E0,1.3024485E0,0E0,0E0,0E0,3.6471434E0,2.2073479E1,5.4114056E0,2.3168015E1,0E0,6.064255E-1,1.2061591E0,1.2178485E0,0E0,1.2608626E0,2.2171745E0,0E0,0E0,0E0,0E0,0E0,0E0,0E0,0E0,0E0,0E0,0E0,0E0,0E0,0E0,0E0],"parents":[2147483647,0,0,1,1,2,2,3,3,4,4,5,5,6,6,7,7,8,8,9,9,13,13,14,14,15,15,16,16,18,18,19,19,20,20,22,22,23,23],"right_children":[2,4,6,8,10,12,14,16,18,20,-1,-1,-1,22,24,26,28,-1,30,32,34,-1,36,38,-1,-1,-1,-1,-1,-1,-1,-1,-1,-1,-1,-1,-1,-1,-1],"split_conditions":[1.032258E0,3.665325E4,1.4258065E0,1.0645161E0,1.0967741E0,1.483871E0,4.4301075E-1,5.1724136E-2,1.9666667E0,2.8376346E0,8.77334E-2,1.0666702E-1,6.802041E-1,2.2435484E0,1.5E-1,3.448276E-2,3.7258065E0,-3.797801E-3,9.683333E6,4.8387095E-2,1.5806451E0,9.995667E-2,1.549277E7,2.7903225E0,3.4980187E-1,1.0685197E-1,2.1853302E-2,4.275582E-1,5.3947516E-2,1.4005447E-2,7.607937E-2,-1.1839638E-2,4.1769218E-2,-6.2070057E-2,1.0145659E-2,-1.4879963E-2,3.7011616E-2,1.5667176E-1,4.9845044E-2],"split_indices":[13,15,14,5,6,13,5,2,6,7,0,0,0,7,4,7,7,0,10,14,2,0,10,7,0,0,0,0,0,0,0,0,0,0,0,0,0,0,0],"sum_hessian":[6.166027E1,4.022438E1,2.1435888E1,2.8765448E1,1.1458935E1,3.9635625E0,1.7472324E1,2.2710365E1,6.0550823E0,1.0138189E1,1.320746E0,2.3475347E0,1.6160278E0,9.529498E0,7.9428267E0,1.972871E1,2.9816537E0,2.2256732E0,3.829409E0,7.041184E0,3.097005E0,2.033272E0,7.4962263E0,6.2659144E0,1.6769123E0,1.4071442E1,5.65727E0,1.105659E0,1.8759947E0,1.7622802E0,2.0671287E0,2.793654E0,4.24753E0,1.2441056E0,1.8528993E0,4.500224E0,2.9960024E0,1.0222018E0,5.243713E0],"tree_param":{"num_deleted":"0","num_feature":"18","num_nodes":"39","size_leaf_vector":"0"}},{"base_weights":[1.5497801E0,1.8649814E0,3.955293E-1,1.6329379E0,3.1288834E0,-1.3902697E-1,1.1190665E0,1.95264E0,1.2143434E0,4.068085E-1,3.7132316E0,1.8440436E-1,-6.559071E-1,1.4336674E0,-3.8364742E-2,1.148645E0,3.019272E0,1.5769368E-2,1.5525385E0,1.0165602E0,4.139646E0,4.5126173E-1,-1.3736852E-2,-8.994222E-1,-2.1496515E-1,1.8136182E0,1.1253078E-1,1.4116514E0,2.1427283E-1,5.2002025E0,1.6156443E0,8.003415E-1,-3.9935672E-1,6.682803E-1,1.8567059E0,1.5647306E0,4.9551764E0,-8.947167E-2,6.8224005E-2,2.2027614E0,4.086333E-1],"default_left":[true,true,true,true,true,true,true,true,true,false,true,true,true,true,false,true,true,true,true,false,true,false,true,false,false,true,false,false,false,false,false,false,false,false,false,false,false,false,false,false,false],"id":4,"leaf_child_counts":[0,0,0,0,0,0,0,0,0,0,0,0,0,0,0,0,0,0,0,0,0,0,0,0,0,0,0,0,0,0,0,0,0,0,0,0,0,0,0,0,0],"left_children":[1,3,5,7,9,11,13,15,17,-1,19,21,23,25,-1,27,29,31,33,-1,35,-1,37,-1,-1,39,-1,-1,-1,-1,-1,-1,-1,-1,-1,-1,-1,-1,-1,-1,-1],"loss_changes":[2.3015991E1,9.852539E0,6.0630865E0,3.6769104E0,9.340263E0,1.7381392E0,2.4583597E0,1.7095406E1,8.980366E0,0E0,2.1082458E0,3.62095E-1,2.3001409E-1,2.4140453E0,0E0,3.4541874E0,2.1267822E1,2.2409267E0,3.4165077E0,0E0,1.5229721E0,0E0,3.6105253E-2,0E0,0E0,1.2784309E0,0E0,0E0,0E0,0E0,0E0,0E0,0E0,0E0,0E0,0E0,0E0,0E0,0E0,0E0,0E0],"parents":[2147483647,0,0,1,1,2,2,3,3,4,4,5,5,6,6,7,7,8,8,10,10,11,11,12,12,13,13,15,15,16,16,17,17,18,18,20,20,22,22,25,25],"right_children":[2,4,6,8,10,12,14,16,18,-1,20,22,24,26,-1,28,30,32,34,-1,36,-1,38,-1,-1,40,-1,-1,-1,-1,-1,-1,-1,-1,-1,-1,-1,-1,-1,-1,-1],"split_conditions":[4.827586E-1,3.112903E0,1.016129E0,1.3003337E0,1.2096775E0,1.9496608E6,8.191317E1,6.1290324E-1,1.8870968E0,2.8476594E-2,1.1774194E0,1.0989989E0,8.333334E-1,2.95E7,-2.685532E-3,1.568871E0,9.83871E-1,1.6387097E0,1.5559139E0,7.1159214E-2,8.666667E-1,3.158832E-2,1.1290323E0,-6.295956E-2,-1.504756E-2,7.229997E7,7.877155E-3,9.88156E-2,1.4999098E-2,3.6401418E-1,1.13095105E-1,5.6023903E-2,-2.7954971E-2,4.677962E-2,1.2996942E-1,1.0953115E-1,3.4686235E-1,-6.2630167E-3,4.7756806E-3,1.541933E-1,2.860433E-2],"split_indices":[16,7,8,2,0,16,17,12,2,0,2,7,6,11,0,17,0,0,0,0,4,0,1,0,0,15,0,0,0,0,0,0,0,0,0,0,0,0,0,0,0],"sum_hessian":[6.428934E1,5.001544E1,1.4273897E1,4.419376E1,5.82168E0,8.673605E0,5.6002927E0,2.2978867E1,2.1214895E1,1.3286397E0,4.49304E0,5.7308393E0,2.9427657E0,4.2157483E0,1.3845444E0,1.4286799E1,8.692067E0,4.8990684E0,1.6315826E1,1.0754975E0,3.4175427E0,1.8976293E0,3.83321E0,1.2259479E0,1.7168179E0,2.9846191E0,1.2311292E0,1.0750075E1,3.536724E0,2.3444598E0,6.347607E0,1.3741086E0,3.5249598E0,4.9941626E0,1.1321664E1,1.5240982E0,1.8934445E0,1.9446468E0,1.8885632E0,1.8926007E0,1.0920184E0],"tree_param":{"num_deleted":"0","num_feature":"18","num_nodes":"41","size_leaf_vector":"0"}},{"base_weights":[1.3444698E0,9.53815E-1,1.8404003E0,1.313779E0,2.8386238E-1,2.4221425E0,4.3553248E-1,6.2003577E-1,1.7573177E0,1.942608E0,6.5281866E-3,1.5917488E0,5.6576157E0,-1.4497018E-1,1.6452032E0,9.3371755E-1,-2.0580241E-1,1.9868748E0,4.6670544E-1,-6.936656E-1,3.5893622E-1,4.2454247E0,9.1632104E-1,-2.9905593E-1,3.9715305E-1,2.5291522E0,1.08253084E-1,1.2303834E0,-5.8030464E-2,-5.249884E-1,2.1778019E-1,1.378385E0,2.8905647E0,-1.0598507E0,-2.3041405E-1,1.1006609E0,1.5661846E-1,5.155024E0,1.4037001E0,1.9103811E0,4.378474E-1,-9.1106914E-2,-5.1947415E-1],"default_left":[true,true,true,true,true,true,true,true,true,false,true,true,false,true,true,true,true,true,false,true,true,true,true,true,false,false,false,false,false,false,false,false,false,false,false,false,false,false,false,false,false,false,false],"id":5,"leaf_child_counts":[0,0,0,0,0,0,0,0,0,0,0,0,0,0,0,0,0,0,0,0,0,0,0,0,0,0,0,0,0,0,0,0,0,0,0,0,0,0,0,0,0,0,0],"left_children":[1,3,5,7,9,11,13,15,17,-1,19,21,-1,23,25,27,29,31,-1,33,35,37,39,41,-1,-1,-1,-1,-1,-1,-1,-1,-1,-1,-1,-1,-1,-1,-1,-1,-1,-1,-1],"loss_changes":[1.1539871E1,9.385017E0,2.277861E1,6.9245224E0,7.0798607E0,4.5812798E1,7.091364E0,3.2237616E0,3.6181793E0,0E0,3.7559805E0,2.7705368E1,0E0,7.463893E-1,4.135518E0,2.6198754E0,6.606647E-1,3.009426E0,0E0,6.208217E-1,1.3452474E0,1.2969131E0,6.4533806E0,2.4698174E-1,0E0,0E0,0E0,0E0,0E0,0E0,0E0,0E0,0E0,0E0,0E0,0E0,0E0,0E0,0E0,0E0,0E0,0E0,0E0],"parents":[2147483647,0,0,1,1,2,2,3,3,4,4,5,5,6,6,7,7,8,8,10,10,11,11,13,13,14,14,15,15,16,16,17,17,19,19,20,20,21,21,22,22,23,23],"right_children":[2,4,6,8,10,12,14,16,18,-1,20,22,-1,24,26,28,30,32,-1,34,36,38,40,42,-1,-1,-1,-1,-1,-1,-1,-1,-1,-1,-1,-1,-1,-1,-1,-1,-1,-1,-1],"split_conditions":[1.032258E0,1.6602546E6,1.7218977E4,1.6129032E-2,5.16129E-1,6.2903225E-1,1.8344085E0,3.8209122E-1,1.8166666E0,1.3598256E-1,1.1290322E-1,1.032258E0,3.960331E-1,8.402302E8,2.95E7,1.8075639E-1,1.3793103E-1,1.8620689E0,3.266938E-2,9.9542483E8,8.548387E-1,1.4144564E7,2.3435483E0,1.7743528E6,2.7800713E-2,1.7704065E-1,7.577716E-3,8.612684E-2,-4.0621324E-3,-3.6749188E-2,1.5244613E-2,9.648695E-2,2.0233953E-1,-7.418955E-2,-1.6128983E-2,7.704627E-2,1.0963292E-2,3.6085168E-1,9.825901E-2,1.3372667E-1,3.064932E-2,-6.377484E-3,-3.6363192E-2],"split_indices":[13,10,16,13,6,4,6,12,6,0,4,14,0,10,11,14,14,12,0,10,6,10,7,16,0,0,0,0,0,0,0,0,0,0,0,0,0,0,0,0,0,0,0],"sum_hessian":[6.762509E1,3.946275E1,2.8162342E1,2.504508E1,1.4417668E1,1.9403454E1,8.758889E0,1.0702743E1,1.4342339E1,1.2051357E0,1.3212533E1,1.6627838E1,2.775616E0,6.513376E0,2.245513E0,7.6618695E0,3.0408726E0,1.1718519E1,2.6238194E0,4.0993137E0,9.113219E0,2.301192E0,1.4326646E1,5.420958E0,1.092418E0,1.0157547E0,1.2297584E0,5.712457E0,1.9494126E0,1.5976105E0,1.4432622E0,8.512203E0,3.2063162E0,1.57024E0,2.5290737E0,1.0014623E0,8.111757E0,1.1265501E0,1.174642E0,3.6827781E0,1.06438675E1,3.516616E0,1.904342E0],"tree_param":{"num_deleted":"0","num_feature":"18","num_nodes":"43","size_leaf_vector":"0"}},{"base_weights":[1.1840098E0,1.4646474E0,3.0396605E-1,5.837353E-1,1.7148858E0,-3.45203E-1,5.8757746E-1,9.040449E-1,5.728104E-2,1.7899054E0,-5.2805036E-1,-6.276451E-1,-2.213105E-2,1.0285113E0,-8.435228E-2,1.2169847E0,-8.399354E-2,-2.5608018E-1,3.120731E-1,2.6043367E0,1.3264917E0,1.4955235E0,1.4875083E-1,7.1699455E-2,-3.544933E-1,1.3428351E-1,4.0367267E-1,1.8366264E0,4.2975645E0,5.2160573E-1,1.6775607E0,2.6250622E0,5.031499E-1,4.9099284E-1,-1.7674682E-1,-5.0948724E-2,1.7668611E-1],"default_left":[true,true,true,true,true,true,true,true,true,true,false,false,false,true,true,false,false,false,true,true,true,true,true,true,false,false,false,false,false,false,false,false,false,false,false,false,false],"id":6,"leaf_child_counts":[0,0,0,0,0,0,0,0,0,0,0,0,0,0,0,0,0,0,0,0,0,0,0,0,0,0,0,0,0,0,0,0,0,0,0,0,0],"left_children":[1,3,5,7,9,11,13,15,17,19,-1,-1,-1,21,23,-1,-1,-1,25,27,29,31,33,35,-1,-1,-1,-1,-1,-1,-1,-1,-1,-1,-1,-1,-1],"loss_changes":[1.7395355E1,1.1014809E1,3.6508393E0,2.237309E0,8.001175E0,5.6317765E-1,4.0579576E0,2.690854E0,5.7514733E-1,1.1945862E1,0E0,0E0,0E0,3.1337385E0,2.882575E-1,0E0,0E0,0E0,8.84667E-3,9.993584E0,7.0496407E0,4.5367765E0,5.260358E-1,7.059984E-2,0E0,0E0,0E0,0E0,0E0,0E0,0E0,0E0,0E0,0E0,0E0,0E0,0E0],"parents":[2147483647,0,0,1,1,2,2,3,3,4,4,5,5,6,6,7,7,8,8,9,9,13,13,14,14,18,18,19,19,20,20,21,21,22,22,23,23],"right_children":[2,4,6,8,10,12,14,16,18,20,-1,-1,-1,22,24,-1,-1,-1,26,28,30,32,34,36,-1,-1,-1,-1,-1,-1,-1,-1,-1,-1,-1,-1,-1],"split_conditions":[2.4193548E-1,5.829032E-1,7.580645E-1,6.6740826E-2,6.7023864E7,1.2741935E0,1.7419355E0,3.2258064E-2,4.4838708E-2,1.2741935E0,-3.6963526E-2,-4.3935154E-2,-1.5491735E-3,3.4574192E6,3.7096775E0,8.518893E-2,-5.879548E-3,-1.7925613E-2,3.448276E-2,4.137931E-1,3.301075E-1,1.2264624E8,1.8989248E7,1.5806451E0,-2.4814531E-2,9.399846E-3,2.8257087E-2,1.2856385E-1,3.0082953E-1,3.65124E-2,1.1742925E-1,1.8375435E-1,3.5220496E-2,3.43695E-2,-1.2372277E-2,-3.5664106E-3,1.2368028E-2],"split_indices":[16,17,1,14,11,14,14,12,17,2,0,0,0,11,3,0,0,0,12,2,5,10,16,1,0,0,0,0,0,0,0,0,0,0,0,0,0],"sum_hessian":[7.123675E1,5.3508957E1,1.7727787E1,1.2574782E1,4.0934174E1,5.324095E0,1.2403693E1,7.372134E0,5.202648E0,3.9804806E1,1.1293712E0,2.337671E0,2.9864235E0,7.1687393E0,5.234954E0,5.4228473E0,1.9492872E0,2.3308945E0,2.871754E0,1.2759894E1,2.7044909E1,4.2256656E0,2.9430737E0,3.7837746E0,1.4511794E0,1.8149745E0,1.0567793E0,1.0213692E1,2.5462031E0,8.968604E0,1.8076305E1,1.2068123E0,3.0188532E0,1.1867924E0,1.7562814E0,1.9824901E0,1.8012847E0],"tree_param":{"num_deleted":"0","num_feature":"18","num_nodes":"37","size_leaf_vector":"0"}},{"base_weights":[1.0596354E0,6.648434E-1,1.4804146E0,1.0455818E0,-6.728519E-2,4.7803545E0,1.0217556E0,1.1967417E0,-5.887181E-2,4.4641295E-1,-1.8044086E-1,8.146782E0,3.6484227E-1,4.9395728E-1,1.7173605E0,6.790934E-1,1.7527856E0,1.8017335E-1,-3.371394E-1,-3.3293802E-1,2.8309795E-1,1.41273E0,2.1233475E-1,7.6759875E-1,4.7424E0,8.313456E-1,-4.7032532E-1,2.5298865E0,5.9893626E-1,-4.539146E-1,1.9744608E-1,3.3876678E-1,9.959135E-2,4.6785727E-1,1.6327773E0,-3.8658738E-1,4.7467554E-1,1.0695668E0,-3.2931373E-1],"default_left":[true,true,true,true,true,true,true,true,true,false,true,false,false,true,true,true,true,false,false,true,true,true,true,true,false,false,false,false,false,false,false,false,false,false,false,false,false,false,false],"id":7,"leaf_child_counts":[0,0,0,0,0,0,0,0,0,0,0,0,0,0,0,0,0,0,0,0,0,0,0,0,0,0,0,0,0,0,0,0,0,0,0,0,0,0,0],"left_children":[1,3,5,7,9,11,13,15,17,-1,19,-1,-1,21,23,25,27,-1,-1,29,31,33,35,37,-1,-1,-1,-1,-1,-1,-1,-1,-1,-1,-1,-1,-1,-1,-1],"loss_changes":[1.1091721E1,1.1030893E1,4.7141884E1,4.3991756E0,9.1712654E-1,5.533748E1,1.0698566E1,5.3878326E0,3.3177736E-1,0E0,9.7829556E-1,0E0,0E0,4.6902757E0,3.4182957E1,2.747929E0,7.7972736E0,0E0,0E0,7.229152E-1,3.4087896E-3,1.4007664E-1,2.68777E0,4.066073E0,0E0,0E0,0E0,0E0,0E0,0E0,0E0,0E0,0E0,0E0,0E0,0E0,0E0,0E0,0E0],"parents":[2147483647,0,0,1,1,2,2,3,3,4,4,5,5,6,6,7,7,8,8,10,10,13,13,14,14,15,15,16,16,19,19,20,20,21,21,22,22,23,23],"right_children":[2,4,6,8,10,12,14,16,18,-1,20,-1,-1,22,24,26,28,-1,-1,30,32,34,36,38,-1,-1,-1,-1,-1,-1,-1,-1,-1,-1,-1,-1,-1,-1,-1],"split_conditions":[4.263441E-1,1.016129E0,7.741935E-1,7.107669E4,7.419355E-1,2.704301E0,1.483871E0,1.7741935E-1,6.1352225E5,3.1248907E-2,5.804194E1,5.702747E-1,2.5538959E-2,2.016129E0,1.9344085E0,1.4961067E-1,1.2741935E0,1.2612135E-2,-2.3599759E-2,8.064516E-2,3.6666665E0,1.2903225E0,1.516129E0,8.203717E1,3.31968E-1,5.8194194E-2,-3.292277E-2,1.7709206E-1,4.192554E-2,-3.177402E-2,1.3821226E-2,2.3713674E-2,6.9713946E-3,3.275001E-2,1.1429442E-1,-2.7061116E-2,3.3227287E-2,7.486968E-2,-2.305196E-2],"split_indices":[5,0,6,16,1,3,13,13,16,0,17,0,0,0,6,13,2,0,0,5,3,0,8,17,0,0,0,0,0,0,0,0,0,0,0,0,0,0,0],"sum_hessian":[7.169409E1,3.8320393E1,3.3373703E1,2.4928404E1,1.3391987E1,2.9227533E0,3.045095E1,2.1853842E1,3.0745618E0,1.8858017E0,1.1506185E1,1.178907E0,1.7438462E0,1.8286198E1,1.2164753E1,1.2468035E1,9.385807E0,1.8434596E0,1.2311023E0,8.869879E0,2.6363063E0,3.3478127E0,1.4938385E1,1.0212208E1,1.952545E0,1.1254047E1,1.2139878E0,4.8959155E0,4.489892E0,7.339884E0,1.5299947E0,1.3735502E0,1.2627562E0,1.2229011E0,2.1249115E0,4.405973E0,1.0532413E1,8.027307E0,2.1849012E0],"tree_param":{"num_deleted":"0","num_feature":"18","num_nodes":"39","size_leaf_vector":"0"}},{"base_weights":[9.876712E-1,6.996905E-1,1.4152726E0,1.0482887E0,9.2952736E-2,9.2348206E-1,3.8808997E0,1.1972717E0,-1.4370443E-1,7.4518675E-1,-2.528605E-1,2.3775861E0,5.183972E-1,1.9646604E-1,7.3944273E0,8.383105E-1,2.5567825E0,-3.5695904E-1,6.029956E-2,-6.745836E-2,1.114146E0,-7.679554E-1,-3.1129267E-2,3.9337435E0,4.6828383E-1,7.104707E-1,-2.5372317E-1,9.2744577E-1,-1.1015259E-1,3.4875848E0,7.9529214E-1,3.1007108E-1,1.8594382E0,-2.3450178E-1,1.6906443E-1,1.3869801E-1,1.2251931E0,-6.727852E-2,-4.4109255E-1],"default_left":[true,true,true,true,true,true,true,true,true,true,true,true,true,false,false,true,true,false,false,false,true,false,true,false,false,true,true,false,false,false,false,false,false,false,false,false,false,false,false],"id":8,"leaf_child_counts":[0,0,0,0,0,0,0,0,0,0,0,0,0,0,0,0,0,0,0,0,0,0,0,0,0,0,0,0,0,0,0,0,0,0,0,0,0,0,0],"left_children":[1,3,5,7,9,11,13,15,17,19,21,23,25,-1,-1,27,29,-1,-1,-1,31,-1,33,-1,-1,35,37,-1,-1,-1,-1,-1,-1,-1,-1,-1,-1,-1,-1],"loss_changes":[8.139656E0,9.691536E0,3.1411018E1,5.374733E0,4.2450504E0,1.3713182E1,5.6631813E1,1.0617554E1,2.0196901E-1,2.019606E0,1.4037827E0,1.37552185E1,3.312982E0,0E0,0E0,1.9768333E0,5.3821297E0,0E0,0E0,0E0,2.1304698E0,0E0,4.3786213E-1,0E0,0E0,4.885872E0,1.4306635E-1,0E0,0E0,0E0,0E0,0E0,0E0,0E0,0E0,0E0,0E0,0E0,0E0],"parents":[2147483647,0,0,1,1,2,2,3,3,4,4,5,5,6,6,7,7,8,8,9,9,10,10,11,11,12,12,15,15,16,16,20,20,22,22,25,25,26,26],"right_children":[2,4,6,8,10,12,14,16,18,20,22,24,26,-1,-1,28,30,-1,-1,-1,32,-1,34,-1,-1,36,38,-1,-1,-1,-1,-1,-1,-1,-1,-1,-1,-1,-1],"split_conditions":[1.483871E0,2.016129E0,1.9666667E0,3.4487885E8,1.9605659E6,1.2419355E0,2.7166667E0,5.061179E-2,1.7580645E0,7.580645E-1,8.666667E-1,2.4306452E0,1.7218977E4,1.3752623E-2,5.176099E-1,7.107669E4,1.1290323E0,-2.4987133E-2,4.220969E-3,-4.7220853E-3,2.7333333E0,-5.375688E-2,1.3716386E8,2.7536204E-1,3.277987E-2,4.8387095E-2,8.2258064E-1,6.492121E-2,-7.7106813E-3,2.4413094E-1,5.567045E-2,2.1704976E-2,1.3016067E-1,-1.6415125E-2,1.1834511E-2,9.708861E-3,8.576352E-2,-4.709496E-3,-3.0876478E-2],"split_indices":[13,0,6,10,10,14,0,2,0,4,4,13,16,0,0,16,6,0,0,0,0,0,10,0,0,5,4,0,0,0,0,0,0,0,0,0,0,0,0],"sum_hessian":[7.3142006E1,4.5281902E1,2.7860104E1,2.829653E1,1.6985374E1,2.4373201E1,3.4869027E0,2.5148836E1,3.1476932E0,5.4851046E0,1.1500269E1,4.249549E0,2.0123653E1,2.2174783E0,1.2694244E0,2.1174587E1,3.9742486E0,1.172383E0,1.9753102E0,1.9679012E0,3.5172033E0,2.7194264E0,8.780843E0,1.7571208E0,2.4924278E0,1.6178833E1,3.9448192E0,1.9375832E1,1.7987555E0,1.9591132E0,2.0151353E0,2.3730383E0,1.1441649E0,4.2708263E0,4.510016E0,8.266056E0,7.9127774E0,2.658504E0,1.286315E0],"tree_param":{"num_deleted":"0","num_feature":"18","num_nodes":"39","size_leaf_vector":"0"}},{"base_weights":[9.473645E-1,7.6750857E-1,1.8366743E0,8.697091E-1,-4.2695295E-2,-4.0231567E-2,2.722412E0,7.7301306E-1,2.5083656E0,-1.0707117E-1,6.256723E-2,5.078821E-1,-2.9282773E-1,4.1943297E-1,3.637928E0,8.677808E-1,-1.4211585E-1,-1.896987E-2,-1.4769611E-1,-3.7542167E-1,-1.17834516E-1,4.3372965E0,4.5981586E-1,9.2674565E-1,-4.582276E-1,-3.4585604E-1,4.8943356E-1,1.7688925E0,7.181923E0],"default_left":[true,true,true,true,true,true,true,true,false,true,false,false,true,false,true,true,true,false,false,false,false,true,false,false,false,false,false,false,false],"id":9,"leaf_child_counts":[0,0,0,0,0,0,0,0,0,0,0,0,0,0,0,0,0,0,0,0,0,0,0,0,0,0,0,0,0],"left_children":[1,3,5,7,9,11,13,15,-1,17,-1,-1,19,-1,21,23,25,-1,-1,-1,-1,27,-1,-1,-1,-1,-1,-1,-1],"loss_changes":[1.1721321E1,5.833622E0,2.1874805E1,7.9180794E0,6.629339E-2,8.663149E-1,1.725866E1,5.3431015E0,0E0,1.8049628E-2,0E0,0E0,1.6209722E-2,0E0,1.1885567E1,4.70002E0,1.0065744E0,0E0,0E0,0E0,0E0,2.3825089E1,0E0,0E0,0E0,0E0,0E0,0E0,0E0],"parents":[2147483647,0,0,1,1,2,2,3,3,4,4,5,5,6,6,7,7,9,9,12,12,14,14,15,15,16,16,21,21],"right_children":[2,4,6,8,10,12,14,16,-1,18,-1,-1,20,-1,22,24,26,-1,-1,-1,-1,28,-1,-1,-1,-1,-1,-1,-1],"split_conditions":[2.951613E0,5.72213E8,8.5E-1,2.2971518E8,2.048387E0,6.0844875E6,6.5E-1,2.5075269E0,1.755856E-1,1.016129E0,4.379706E-3,3.555175E-2,8.666667E-1,2.9360307E-2,1.3166666E0,3.318582E6,3.935484E0,-1.3278909E-3,-1.0338727E-2,-2.6279517E-2,-8.248416E-3,1.9666667E0,3.218711E-2,6.48722E-2,-3.2075934E-2,-2.4209922E-2,3.4260347E-2,1.2382248E-1,5.027346E-1],"split_indices":[0,10,14,10,3,10,8,0,0,1,0,0,4,0,4,11,3,0,0,0,0,6,0,0,0,0,0,0,0],"sum_hessian":[8.10955E1,6.900319E1,1.2092315E1,6.1208763E1,7.794423E0,4.1829953E0,7.9093194E0,5.9187862E1,2.0209012E0,4.825865E0,2.9685583E0,1.0007652E0,3.18223E0,2.6646168E0,5.244703E0,5.368061E1,5.50725E0,1.9859607E0,2.8399043E0,1.3837655E0,1.7984645E0,3.9997797E0,1.244923E0,5.1683456E1,1.9971544E0,4.5059743E0,1.0012753E0,2.9542413E0,1.0455383E0],"tree_param":{"num_deleted":"0","num_feature":"18","num_nodes":"29","size_leaf_vector":"0"}},{"base_weights":[8.694137E-1,6.230632E-1,1.3954738E0,9.234225E-1,1.7741887E-1,7.506081E-1,5.429699E0,1.0683303E0,-4.5256466E-3,5.123145E-1,-2.603172E-1,1.9878358E0,4.882325E-1,1.0028989E0,7.1501646E0,8.2464117E-1,3.4102895E0,-4.294882E-1,2.4146396E-1,1.3004401E0,-3.8529754E-2,-6.4623004E-1,1.2207115E-1,-2.7733213E-1,8.283989E-1,9.4982445E-1,-2.2770531E-1,3.3403617E-1,7.2597295E-2,2.4344087E0,1.7903505E-1,-1.18294895E-1,2.0176074E-2,-1.9474386E-1,6.278662E-1,-4.1864485E-2,-6.4670175E-1,3.2256544E0,3.3721521E-1],"default_left":[true,true,true,true,true,true,true,true,true,true,true,false,true,false,false,true,false,false,true,true,true,false,true,true,true,false,false,false,false,false,false,false,false,false,false,false,false,false,false],"id":10,"leaf_child_counts":[0,0,0,0,0,0,0,0,0,0,0,0,0,0,0,0,0,0,0,0,0,0,0,0,0,0,0,0,0,0,0,0,0,0,0,0,0,0,0],"left_children":[1,3,5,7,9,11,13,15,17,19,21,-1,23,-1,-1,25,-1,-1,27,29,31,-1,33,35,37,-1,-1,-1,-1,-1,-1,-1,-1,-1,-1,-1,-1,-1,-1],"loss_changes":[9.046295E0,7.053152E0,5.7311054E1,4.3038654E0,3.4971776E0,6.0103025E0,1.6375175E1,1.29718075E1,6.5921307E-1,5.840207E0,1.6444473E0,0E0,5.195356E0,0E0,0E0,3.6900673E0,0E0,0E0,3.8370952E-2,6.577986E0,4.3695115E-2,0E0,1.1109705E0,5.482788E-1,1.4752578E1,0E0,0E0,0E0,0E0,0E0,0E0,0E0,0E0,0E0,0E0,0E0,0E0,0E0,0E0],"parents":[2147483647,0,0,1,1,2,2,3,3,4,4,5,5,6,6,7,7,8,8,9,9,10,10,12,12,15,15,18,18,19,19,20,20,22,22,23,23,24,24],"right_children":[2,4,6,8,10,12,14,16,18,20,22,-1,24,-1,-1,26,-1,-1,28,30,32,-1,34,36,38,-1,-1,-1,-1,-1,-1,-1,-1,-1,-1,-1,-1,-1,-1],"split_conditions":[1.9833333E0,1.6602546E6,6.712254E1,1.9193549E0,2.7037635E0,1.0000001E-1,1.8376343E0,9.032258E-1,5E-1,4.392603E8,1.467742E0,1.391485E-1,4.314403E1,7.0202924E-2,5.005115E-1,4.758145E1,2.3872027E-1,-3.0064175E-2,2.5E0,3.4372662E5,7.258065E-1,-4.5236103E-2,1.6398333E8,1.6666668E-2,5.3625336E1,6.6487715E-2,-1.5939372E-2,2.3382531E-2,5.0818105E-3,1.704086E-1,1.2532454E-2,-8.280642E-3,1.4123252E-3,-1.363207E-2,4.3950636E-2,-2.9305138E-3,-4.5269124E-2,2.257958E-1,2.3605065E-2],"split_indices":[13,10,17,5,0,0,6,5,4,10,5,0,17,0,0,17,0,0,1,15,5,0,10,6,17,0,0,0,0,0,0,0,0,0,0,0,0,0,0],"sum_hessian":[7.5513405E1,5.291708E1,2.2596321E1,3.0970922E1,2.194616E1,2.0504728E1,2.0915942E0,2.6656914E1,4.3140078E0,1.2337116E1,9.609043E0,2.4369645E0,1.8067762E1,1.0284053E0,1.063189E0,2.5369268E1,1.2876456E0,1.3081448E0,3.0058632E0,4.5155864E0,7.8215294E0,4.439072E0,5.1699705E0,5.615181E0,1.2452582E1,2.2759325E1,2.6099436E0,1.309754E0,1.6961092E0,1.6630493E0,2.8525374E0,2.8856611E0,4.9358683E0,3.5569668E0,1.6130037E0,4.109058E0,1.5061231E0,1.1708864E0,1.1281695E1],"tree_param":{"num_deleted":"0","num_feature":"18","num_nodes":"39","size_leaf_vector":"0"}},{"base_weights":[7.627532E-1,9.110111E-1,-9.630355E-2,5.3124416E-1,1.3239303E0,-4.2197648E-1,4.4610947E-1,8.071714E-1,2.174323E-1,4.4830513E0,1.0706202E0,-1.4429531E0,-6.02698E-2,1.0264188E0,-4.0710863E-1,5.264353E-1,2.1734734E0,-2.7213278E-1,7.1791875E-1,2.175265E0,5.0171345E-1,-2.5818768E-1,1.926482E-1,8.597507E-1,1.0117251E-1,-5.3101546E-1,2.2496404E-1,2.1941993E0,2.3280877E-1,2.8639994E0,3.3408403E-2,-3.7101817E-1,7.227664E-1],"default_left":[true,true,true,true,true,true,true,true,true,false,true,false,true,false,false,true,false,true,true,true,true,false,false,false,false,false,false,false,false,false,false,false,false],"id":11,"leaf_child_counts":[0,0,0,0,0,0,0,0,0,0,0,0,0,0,0,0,0,0,0,0,0,0,0,0,0,0,0,0,0,0,0,0,0],"left_children":[1,3,5,7,9,11,13,15,17,-1,19,-1,21,-1,-1,23,-1,25,27,29,31,-1,-1,-1,-1,-1,-1,-1,-1,-1,-1,-1,-1],"loss_changes":[1.0003056E1,9.722984E0,2.3721075E0,2.9681149E0,2.0154858E1,2.9554915E0,2.954968E0,6.124424E0,4.6927404E0,0E0,1.7876705E1,0E0,4.064943E-1,0E0,0E0,2.3283134E0,0E0,1.4068596E0,6.186085E0,1.4597801E1,4.3623533E0,0E0,0E0,0E0,0E0,0E0,0E0,0E0,0E0,0E0,0E0,0E0,0E0],"parents":[2147483647,0,0,1,1,2,2,3,3,4,4,5,5,6,6,7,7,8,8,10,10,12,12,15,15,17,17,18,18,19,19,20,20],"right_children":[2,4,6,8,10,12,14,16,18,-1,20,-1,22,-1,-1,24,-1,26,28,30,32,-1,-1,-1,-1,-1,-1,-1,-1,-1,-1,-1,-1],"split_conditions":[8.253155E3,4.263441E-1,1.1774194E0,1.652293E1,6.2903225E-1,8.2258064E-1,3.2166667E0,3.448276E-2,1.5E0,3.138136E-1,6.082585E4,-1.0100672E-1,2.983871E0,7.184932E-2,-2.8497605E-2,1.1846496E-1,1.5214314E-1,1.516129E0,1.4833333E0,1.224223E7,5.604435E6,-1.8073138E-2,1.3485374E-2,6.018255E-2,7.0820753E-3,-3.717108E-2,1.5747482E-2,1.5359396E-1,1.6296614E-2,2.0047995E-1,2.3385882E-3,-2.5971273E-2,5.0593648E-2],"split_indices":[11,5,8,17,5,1,7,7,8,0,10,0,7,0,0,14,0,9,14,15,10,0,0,0,0,0,0,0,0,0,0,0,0],"sum_hessian":[7.685153E1,6.548884E1,1.136269E1,3.530497E1,3.018387E1,7.238578E0,4.1241126E0,1.7949902E1,1.7355068E1,1.0010866E0,2.9182783E1,1.1116035E0,6.1269746E0,2.3338003E0,1.7903122E0,1.6039534E1,1.9103674E0,9.003905E0,8.351163E0,8.960537E0,2.0222246E1,3.4255314E0,2.701443E0,8.41908E0,7.620455E0,5.87568E0,3.1282248E0,1.1941237E0,7.157039E0,6.5251546E0,2.4353821E0,3.9497924E0,1.6272455E1],"tree_param":{"num_deleted":"0","num_feature":"18","num_nodes":"33","size_leaf_vector":"0"}},{"base_weights":[7.728144E-1,5.531658E-1,1.2196943E0,9.4211733E-1,2.9198462E-1,7.1354437E-1,4.4106307E0,1.1144801E0,-2.6272956E-1,-9.0477085E-1,3.8339478E-1,3.005285E0,4.6550998E-1,-1.656773E-2,6.7385244E0,6.9924045E-1,2.2772133E0,8.750398E-1,1.3521917E-1,9.9866503E-1,5.423684E-2,1.0429158E0,-4.5478318E-2,-6.437571E-2,4.0512958E0,1.881121E0,2.4114127E-1,-7.035153E-2,7.9662716E-1,1.5049294E-1,3.0768979E0,-9.197981E-1,2.8447598E-1],"default_left":[true,true,true,true,true,true,true,true,false,false,true,false,true,false,false,true,true,true,true,true,true,false,false,false,false,false,false,false,false,false,false,false,false],"id":12,"leaf_child_counts":[0,0,0,0,0,0,0,0,0,0,0,0,0,0,0,0,0,0,0,0,0,0,0,0,0,0,0,0,0,0,0,0,0],"left_children":[1,3,5,7,9,11,13,15,-1,-1,17,-1,19,-1,-1,21,23,25,27,29,31,-1,-1,-1,-1,-1,-1,-1,-1,-1,-1,-1,-1],"loss_changes":[6.9745674E0,5.2185516E0,3.698941E1,4.711212E0,4.0446997E0,1.1471267E1,3.3186016E1,7.4865E0,0E0,0E0,3.7990618E0,0E0,4.685153E0,0E0,0E0,3.9630556E0,1.8975779E1,6.29846E0,3.1178174E0,1.6026678E1,3.2351408E0,0E0,0E0,0E0,0E0,0E0,0E0,0E0,0E0,0E0,0E0,0E0,0E0],"parents":[2147483647,0,0,1,1,2,2,3,3,4,4,5,5,6,6,7,7,10,10,12,12,15,15,16,16,17,17,18,18,19,19,20,20],"right_children":[2,4,6,8,10,12,14,16,-1,-1,18,-1,20,-1,-1,22,24,26,28,30,32,-1,-1,-1,-1,-1,-1,-1,-1,-1,-1,-1,-1],"split_conditions":[1.9833333E0,3.3333335E-2,1.9344085E0,7.107669E4,3.2297966E1,1.6129032E-1,1.6129032E-1,6.935484E-1,-1.8391069E-2,-6.333396E-2,1.5741935E0,2.1036996E-1,2.9505377E0,-1.1597411E-3,4.716967E-1,3.1808064E0,3.2925472E-1,5.4838705E-1,2.612903E0,4.516129E-1,2.2327957E0,7.3004104E-2,-3.1834822E-3,-4.5062997E-3,2.835907E-1,1.3167848E-1,1.687989E-2,-4.9246075E-3,5.57639E-2,1.0534505E-2,2.1538284E-1,-6.438587E-2,1.991332E-2],"split_indices":[13,6,6,16,17,8,5,13,0,0,1,0,7,0,0,17,14,5,1,5,3,0,0,0,0,0,0,0,0,0,0,0,0],"sum_hessian":[7.692919E1,5.307823E1,2.3850964E1,2.0276012E1,3.280222E1,2.1641743E1,2.2092206E0,1.7804012E1,2.4720001E0,1.6962848E0,3.1105934E1,1.0279045E0,2.0613838E1,1.1034869E0,1.1057336E0,1.4298908E1,3.5051033E0,9.587282E0,2.1518652E1,8.354818E0,1.225902E1,9.509853E0,4.7890553E0,1.9263074E0,1.5787959E0,2.945245E0,6.6420374E0,1.7098072E1,4.420579E0,6.6948986E0,1.6599201E0,1.7711476E0,1.0487872E1],"tree_param":{"num_deleted":"0","num_feature":"18","num_nodes":"33","size_leaf_vector":"0"}},{"base_weights":[6.2434363E-1,5.105525E-1,1.4547824E0,7.08063E-1,1.8769282E-1,2.8183436E-1,2.6813688E0,8.1099516E-1,-3.1218928E-1,-1.299821E-1,4.9129224E-1,-2.9580212E-1,5.625642E-1,4.0386467E0,-4.6774155E-1,1.1150943E0,3.356041E-1,-9.892971E-1,6.219788E-1,-5.821052E-1,1.372635E-1,1.1142122E-1,1.1499515E0,1.0121707E0,-1.6939467E-3,8.076491E-1,3.8267982E0,9.373045E-1,-1.8504341E-1,1.3490334E-1,-1.0618039E0,9.517675E-1,-1.3925278E-1,9.5363617E-1,-1.4231595E-1,1.7888467E-1,1.5439953E0],"default_left":[true,true,true,true,true,true,true,true,true,true,true,false,true,false,false,true,true,false,false,true,true,true,true,false,false,false,false,false,false,false,false,false,false,false,false,false,false],"id":13,"leaf_child_counts":[0,0,0,0,0,0,0,0,0,0,0,0,0,0,0,0,0,0,0,0,0,0,0,0,0,0,0,0,0,0,0,0,0,0,0,0,0],"left_children":[1,3,5,7,9,11,13,15,17,19,21,-1,23,-1,-1,25,27,-1,-1,29,31,33,35,-1,-1,-1,-1,-1,-1,-1,-1,-1,-1,-1,-1,-1,-1],"loss_changes":[6.991417E0,4.5555477E0,1.26571045E1,5.00585E0,2.8865426E0,1.1203959E0,2.0865328E1,5.6088924E0,3.6954234E0,1.9035275E0,3.668554E0,0E0,1.0935068E0,0E0,0E0,1.759356E1,5.6797276E0,0E0,0E0,2.1373725E0,2.451209E0,2.428976E0,1.8065715E0,0E0,0E0,0E0,0E0,0E0,0E0,0E0,0E0,0E0,0E0,0E0,0E0,0E0,0E0],"parents":[2147483647,0,0,1,1,2,2,3,3,4,4,5,5,6,6,7,7,8,8,9,9,10,10,12,12,15,15,16,16,19,19,20,20,21,21,22,22],"right_children":[2,4,6,8,10,12,14,16,18,20,22,-1,24,-1,-1,26,28,-1,-1,30,32,34,36,-1,-1,-1,-1,-1,-1,-1,-1,-1,-1,-1,-1,-1,-1],"split_conditions":[3.887097E0,7.859387E5,2.7903225E0,6.0376553E3,1.6391667E8,9.6774197E-1,7.110578E8,1.8632183E0,2.6715055E0,8.548387E-1,1.048387E0,-2.0706149E-2,1.2645161E0,2.8270528E-1,-3.2741908E-2,1.016129E0,2.3833332E0,-6.92508E-2,4.353852E-2,5E-1,1.6129032E0,1.6612903E0,2.387097E0,7.0851944E-2,-1.1857627E-4,5.6535434E-2,2.6787588E-1,6.561132E-2,-1.2953038E-2,9.443234E-3,-7.432628E-2,6.6623725E-2,-9.747695E-3,6.6754535E-2,-9.962116E-3,1.2521927E-2,1.0807967E-1],"split_indices":[7,10,0,11,10,5,10,14,0,8,6,0,14,0,0,8,7,0,0,14,0,0,3,0,0,0,0,0,0,0,0,0,0,0,0,0,0],"sum_hessian":[8.084599E1,7.252327E1,8.322723E0,4.425626E1,2.8267006E1,4.883014E0,3.439709E0,4.0386784E1,3.8694754E0,1.4092751E1,1.4174256E1,1.5794368E0,3.3035774E0,2.2063093E0,1.2333996E0,2.3810194E1,1.6576591E1,2.209188E0,1.6602873E0,4.79777E0,9.29498E0,9.731142E0,4.4431143E0,1.3967917E0,1.9067857E0,2.2551237E1,1.2589567E0,7.3185005E0,9.25809E0,2.2113004E0,2.5864697E0,1.7368717E0,7.5581083E0,1.6143528E0,8.116789E0,1.7022142E0,2.7409003E0],"tree_param":{"num_deleted":"0","num_feature":"18","num_nodes":"37","size_leaf_vector":"0"}},{"base_weights":[6.0840076E-1,4.6852705E-1,1.2270806E0,5.926044E-1,-1.9605498E-1,2.9210384E0,6.213923E-1,7.029976E-1,4.2907305E-2,-6.955833E-1,2.567608E-1,-1.2526642E-1,4.9572973E0,1.2339375E-1,1.3242877E0,8.9630806E-1,3.3620474E-1,-4.9258655E-1,4.4048518E-1,-2.432063E-1,-8.100324E-1,-3.3285612E-1,8.22536E-1,-4.5957878E-1,4.6356982E-1,2.1549375E0,-3.223116E-1,9.575075E-1,-4.0970564E-1,2.0313451E0,1.07353695E-1,-6.560007E-1,-1.3602884E-1,9.9378127E-1,-2.1563124E-2,-1.0197254E0,-2.8635886E-1,-1.1341326E-1,-4.7114962E-1,2.4025477E-1,1.056211E0,-8.847764E-1,1.6287124E-1,5.1926438E-2,8.902485E-1,2.1005957E-1,3.3366988E0],"default_left":[true,true,true,true,true,true,true,true,true,true,true,false,false,true,true,true,true,true,true,false,true,true,true,true,true,true,false,false,false,false,false,false,false,false,false,false,false,false,false,false,false,false,false,false,false,false,false],"id":14,"leaf_child_counts":[0,0,0,0,0,0,0,0,0,0,0,0,0,0,0,0,0,0,0,0,0,0,0,0,0,0,0,0,0,0,0,0,0,0,0,0,0,0,0,0,0,0,0,0,0,0,0],"left_children":[1,3,5,7,9,11,13,15,17,19,21,-1,-1,23,25,27,29,31,33,-1,35,37,39,41,43,45,-1,-1,-1,-1,-1,-1,-1,-1,-1,-1,-1,-1,-1,-1,-1,-1,-1,-1,-1,-1,-1],"loss_changes":[6.6396885E0,5.8565903E0,1.33241005E1,3.5447311E0,2.8259063E0,2.3051992E1,4.085842E0,3.1725578E0,2.54127E0,1.0506725E-1,2.56531E0,0E0,0E0,1.8408036E0,7.4393234E0,2.908741E0,6.962472E0,2.0931613E-1,1.7581557E0,0E0,1.7219663E-1,7.025194E-2,2.6241422E-1,1.077516E0,9.516207E-1,7.13171E0,0E0,0E0,0E0,0E0,0E0,0E0,0E0,0E0,0E0,0E0,0E0,0E0,0E0,0E0,0E0,0E0,0E0,0E0,0E0,0E0,0E0],"parents":[2147483647,0,0,1,1,2,2,3,3,4,4,5,5,6,6,7,7,8,8,9,9,10,10,13,13,14,14,15,15,16,16,17,17,18,18,20,20,21,21,22,22,23,23,24,24,25,25],"right_children":[2,4,6,8,10,12,14,16,18,20,22,-1,-1,24,26,28,30,32,34,-1,36,38,40,42,44,46,-1,-1,-1,-1,-1,-1,-1,-1,-1,-1,-1,-1,-1,-1,-1,-1,-1,-1,-1,-1,-1],"split_conditions":[1.4107528E0,4.827586E-1,7.376567E1,3.975753E5,9.250121E3,1.7E0,1.5645161E0,2.983871E0,9.6774197E-1,1.9655173E0,8.8709676E-1,-8.768649E-3,3.4701082E-1,8.666667E-1,8.131909E8,3.4487885E8,1.0811827E0,1.016129E0,5.4309303E1,-1.702444E-2,5E-1,1.951613E0,7.096774E-1,2.6612902E0,7.605333E1,2.6612902E0,-2.2561813E-2,6.702553E-2,-2.8679395E-2,1.4219417E-1,7.5147585E-3,-4.5920048E-2,-9.522019E-3,6.956469E-2,-1.5094187E-3,-7.138078E-2,-2.004512E-2,-7.938928E-3,-3.2980476E-2,1.6817834E-2,7.393477E-2,-6.193435E-2,1.1400987E-2,3.6348507E-3,6.2317394E-2,1.470417E-2,2.3356892E-1],"split_indices":[6,16,17,15,10,0,14,7,3,12,8,0,0,4,10,10,1,1,17,0,4,3,6,1,17,0,0,0,0,0,0,0,0,0,0,0,0,0,0,0,0,0,0,0,0,0,0],"sum_hessian":[8.2370224E1,6.861481E1,1.3755416E1,5.7911114E1,1.070369E1,2.6161175E0,1.1139298E1,4.7993843E1,9.9172735E0,4.83442E0,5.869269E0,1.4241011E0,1.1920162E0,7.208006E0,3.9312928E0,3.0484169E1,1.7509672E1,4.123884E0,5.793389E0,1.6071074E0,3.2273128E0,3.075671E0,2.793598E0,2.5267746E0,4.6812315E0,2.407883E0,1.5234098E0,2.9374535E1,1.109635E0,1.1458536E0,1.636382E1,2.2519674E0,1.8719167E0,2.1126747E0,3.6807141E0,1.6281167E0,1.5991962E0,1.8926008E0,1.1830701E0,1.380863E0,1.412735E0,1.2508637E0,1.2759109E0,2.9535031E0,1.7277284E0,1.3552455E0,1.0526375E0],"tree_param":{"num_deleted":"0","num_feature":"18","num_nodes":"47","size_leaf_vector":"0"}},{"base_weights":[5.0535E-1,7.5427216E-1,2.7837685E-1,5.0741446E-1,1.3909825E0,1.6581643E-1,9.5550245E-1,7.712655E-1,-2.1274896E-1,3.3397048E0,5.3174996E-1,6.123853E-1,-2.0028466E-2,2.3023188E0,-6.4230345E-2,9.0148145E-1,-1.505114E-1,-1.0504352E0,5.223352E-1,4.121958E0,9.757724E-1,-1.4778605E-1,1.283642E0,3.6906838E-1,1.4173021E0,-4.1327715E-1,2.3309444E-1,-3.687332E-1,2.500342E-1,5.901768E-1,1.5035306E0,-3.6828676E-1,-1.5341316E0,9.004739E-1,-3.1741664E-1,-2.3765467E-1,-4.8891906E-2,2.2412205E0,4.0104687E-2,4.9015924E-1,-1.6671133E-1,-8.0765736E-1,-1.0215799E-1,3.9570746E-1,-9.28079E-2],"default_left":[true,true,true,true,true,true,true,true,true,true,true,true,true,false,true,true,false,true,true,false,false,true,true,true,false,true,true,false,false,false,false,false,false,false,false,false,false,false,false,false,false,false,false,false,false],"id":15,"leaf_child_counts":[0,0,0,0,0,0,0,0,0,0,0,0,0,0,0,0,0,0,0,0,0,0,0,0,0,0,0,0,0,0,0,0,0,0,0,0,0,0,0,0,0,0,0,0,0],"left_children":[1,3,5,7,9,11,13,15,17,19,21,23,25,-1,27,29,-1,31,33,-1,-1,35,37,39,-1,41,43,-1,-1,-1,-1,-1,-1,-1,-1,-1,-1,-1,-1,-1,-1,-1,-1,-1,-1],"loss_changes":[4.893524E0,5.9737015E0,3.5634756E0,6.2822113E0,1.7142836E1,3.587768E0,9.419046E0,2.9900827E0,6.3475533E0,2.0211563E0,4.8038435E0,1.9626589E0,3.2209158E0,0E0,5.529302E-1,3.044773E0,0E0,9.9685526E-1,2.0906427E0,0E0,0E0,3.850922E-2,5.1380935E0,8.017353E-1,0E0,1.4700279E0,1.082704E0,0E0,0E0,0E0,0E0,0E0,0E0,0E0,0E0,0E0,0E0,0E0,0E0,0E0,0E0,0E0,0E0,0E0,0E0],"parents":[2147483647,0,0,1,1,2,2,3,3,4,4,5,5,6,6,7,7,8,8,9,9,10,10,11,11,12,12,14,14,15,15,17,17,18,18,21,21,22,22,23,23,25,25,26,26],"right_children":[2,4,6,8,10,12,14,16,18,20,22,24,26,-1,28,30,-1,32,34,-1,-1,36,38,40,-1,42,44,-1,-1,-1,-1,-1,-1,-1,-1,-1,-1,-1,-1,-1,-1,-1,-1,-1,-1],"split_conditions":[1.048387E0,1.016129E0,2.9166665E0,2.7397847E0,3.2634407E-1,8.6206895E-1,3.7741935E0,5.72213E8,1.2903225E-1,3.903226E0,3.6666665E0,9.333333E5,2.7903226E-1,1.6116232E-1,2.75E0,2.0022246E-1,-1.0535798E-2,2.9666667E0,7.221374E8,2.8853706E-1,6.830407E-2,2.0072748E7,1.5E0,1.3810927E5,9.921115E-2,1.9032258E0,3.4591398E0,-2.5811324E-2,1.7502395E-2,4.1312378E-2,1.0524715E-1,-2.5780072E-2,-1.0738922E-1,6.303317E-2,-2.2219164E-2,-1.6635828E-2,-3.4224335E-3,1.5688543E-1,2.807328E-3,3.4311146E-2,-1.1669793E-2,-5.6536015E-2,-7.1510593E-3,2.7699523E-2,-6.496553E-3],"split_indices":[14,8,0,7,4,0,3,10,4,3,3,10,4,0,1,7,0,7,10,0,0,10,4,16,0,1,7,0,0,0,0,0,0,0,0,0,0,0,0,0,0,0,0,0,0],"sum_hessian":[8.932952E1,4.1496742E1,4.7832775E1,3.1197971E1,1.0298773E1,4.208222E1,5.7505574E0,2.2780697E1,8.417274E0,2.2680452E0,8.030727E0,1.1692069E1,3.039015E1,1.9359183E0,3.8146393E0,1.9980188E1,2.8005087E0,3.7335737E0,4.6837006E0,1.1453488E0,1.1226963E0,4.640363E0,3.3903642E0,1.0098061E1,1.5940076E0,1.1653187E1,1.8736963E1,1.849382E0,1.9652572E0,1.4475531E1,5.5046577E0,2.2798057E0,1.453768E0,3.179616E0,1.5040847E0,1.6960135E0,2.9443495E0,1.46215E0,1.9282142E0,8.3059845E0,1.7920763E0,4.4351444E0,7.2180424E0,1.2357063E1,6.3799E0],"tree_param":{"num_deleted":"0","num_feature":"18","num_nodes":"45","size_leaf_vector":"0"}},{"base_weights":[4.4624534E-1,3.5987487E-1,1.15332E0,5.4945093E-1,9.157766E-2,1.4691524E-1,4.4287157E0,7.881237E-1,2.568022E-1,-1.4819726E0,2.3661853E-1,8.2331204E-1,-2.5109348E-1,5.852215E-1,2.3956883E0,-8.65109E-2,4.6218422E-1,1.4551911E0,3.7300326E-2,2.3943564E-1,-6.882924E-1,2.9396057E-1,1.5494304E0,3.0049792E-1,-4.0855718E-1,1.1073004E0,5.301175E-2,-5.533936E-2,2.7112725E0,-1.4095768E-1,5.0929916E-1],"default_left":[true,true,true,true,true,true,false,true,true,false,true,false,true,true,false,true,true,true,true,false,false,false,false,false,false,false,false,false,false,false,false],"id":16,"leaf_child_counts":[0,0,0,0,0,0,0,0,0,0,0,0,0,0,0,0,0,0,0,0,0,0,0,0,0,0,0,0,0,0,0],"left_children":[1,3,5,7,9,11,-1,13,15,-1,17,-1,19,21,-1,23,25,27,29,-1,-1,-1,-1,-1,-1,-1,-1,-1,-1,-1,-1],"loss_changes":[4.7894497E0,3.886364E0,2.8433966E1,2.9513893E0,7.938285E0,2.3021915E0,0E0,6.552313E0,1.5747195E0,0E0,7.5485115E0,0E0,1.3800447E0,5.9972034E0,0E0,1.2431874E0,3.5777981E0,8.448966E0,2.4216027E0,0E0,0E0,0E0,0E0,0E0,0E0,0E0,0E0,0E0,0E0,0E0,0E0],"parents":[2147483647,0,0,1,1,2,2,3,3,4,4,5,5,7,7,8,8,10,10,12,12,13,13,15,15,16,16,17,17,18,18],"right_children":[2,4,6,8,10,12,-1,14,16,-1,18,-1,20,22,-1,24,26,28,30,-1,-1,-1,-1,-1,-1,-1,-1,-1,-1,-1,-1],"split_conditions":[3.887097E0,2.8166666E0,1.1E0,1.2741935E0,3.668216E1,1.55E0,3.100101E-1,1.7096775E0,1.4430108E0,-1.0373808E-1,1.1935484E0,5.7631843E-2,2.7037635E0,2.0022246E-1,1.6769817E-1,1.6129031E0,1.9833333E0,4.1940926E1,1.9666667E0,1.6760495E-2,-4.818047E-2,2.057724E-2,1.0846013E-1,2.1034854E-2,-2.8599003E-2,7.751103E-2,3.7108224E-3,-3.8737552E-3,1.8978907E-1,-9.867038E-3,3.5650942E-2],"split_indices":[7,7,13,2,17,6,0,9,2,0,1,0,0,7,0,0,9,17,6,0,0,0,0,0,0,0,0,0,0,0,0],"sum_hessian":[8.4221375E1,7.639816E1,7.823214E0,4.4152523E1,3.224564E1,6.783696E0,1.0395178E0,2.3386417E1,2.0766108E1,1.9434547E0,3.0302185E1,2.11714E0,4.6665564E0,2.1976631E1,1.4097852E0,7.989603E0,1.2776505E1,3.3739579E0,2.6928226E1,2.4123197E0,2.2542367E0,1.7880344E1,4.0962873E0,3.6591942E0,4.3304086E0,4.2964196E0,8.480085E0,1.9658368E0,1.4081211E0,2.0055357E1,6.8728704E0],"tree_param":{"num_deleted":"0","num_feature":"18","num_nodes":"31","size_leaf_vector":"0"}},{"base_weights":[4.1744116E-1,2.100615E-1,7.6761913E-1,4.4686586E-1,-1.1177558E-1,3.7803477E-1,2.787443E0,5.8506674E-1,-2.6341334E-1,1.7520769E-1,-2.62852E-1,1.484375E0,2.0603445E-1,-1.6627681E-1,4.0725217E0,2.638528E-1,2.1505992E0,-5.0390255E-1,-1.07031636E-1,-3.4553457E-2,7.659968E-1,-1.0830102E0,-2.9879205E-2,2.2004323E0,2.6370132E-1,-1.1426358E-1,4.8934284E-1,5.70066E-1,5.8834376E0,5.169403E-1,-2.3213847E-1,2.616539E0,6.334735E-1,-3.4690502E-1,1.686807E-1,3.3744743E-1,-2.2948997E-1,1.4082548E-1,-5.2756524E-1,-2.0253958E-2,7.7735734E-1],"default_left":[true,true,true,true,true,true,true,true,true,true,true,true,true,false,true,true,true,false,false,true,false,false,true,false,false,true,true,false,false,false,false,false,false,false,false,false,false,false,false,false,false],"id":17,"leaf_child_counts":[0,0,0,0,0,0,0,0,0,0,0,0,0,0,0,0,0,0,0,0,0,0,0,0,0,0,0,0,0,0,0,0,0,0,0,0,0,0,0,0,0],"left_children":[1,3,5,7,9,11,13,15,17,19,21,23,25,-1,27,29,31,-1,-1,33,-1,-1,35,-1,-1,37,39,-1,-1,-1,-1,-1,-1,-1,-1,-1,-1,-1,-1,-1,-1],"loss_changes":[6.130064E0,4.3016543E0,2.4005602E1,3.328617E0,1.1060264E0,4.9944563E0,1.962703E1,1.3202485E1,1.7009994E-1,1.1456974E0,3.1043882E0,2.5546227E0,2.3487294E0,0E0,1.8959896E1,3.1152093E0,1.5390301E0,0E0,0E0,5.423596E-1,0E0,0E0,1.0902508E0,0E0,0E0,1.4100819E0,2.0114002E0,0E0,0E0,0E0,0E0,0E0,0E0,0E0,0E0,0E0,0E0,0E0,0E0,0E0,0E0],"parents":[2147483647,0,0,1,1,2,2,3,3,4,4,5,5,6,6,7,7,8,8,9,9,10,10,11,11,12,12,14,14,15,15,16,16,19,19,22,22,25,25,26,26],"right_children":[2,4,6,8,10,12,14,16,18,20,22,24,26,-1,28,30,32,-1,-1,34,-1,-1,36,-1,-1,38,40,-1,-1,-1,-1,-1,-1,-1,-1,-1,-1,-1,-1,-1,-1],"split_conditions":[1.483871E0,9.516129E-1,1.9344085E0,3.4235562E8,2.016129E0,3.2258064E-2,5E-1,5.1724136E-2,5.4333945E6,1.9833333E0,8.666667E-1,2.65E0,1.016129E0,-1.1639377E-2,1.8833333E0,3.1808064E0,7.741935E-1,-3.527318E-2,-7.4922144E-3,9.683333E6,5.3619776E-2,-7.5810716E-2,3.6265E4,1.5403026E-1,1.8459093E-2,1.7218977E4,2.3333333E-1,3.9904617E-2,4.1184065E-1,3.618582E-2,-1.6249692E-2,1.8315773E-1,4.4343147E-2,-2.4283351E-2,1.1807648E-2,2.362132E-2,-1.6064297E-2,9.857784E-3,-3.6929566E-2,-1.417777E-3,5.4415014E-2],"split_indices":[13,6,6,10,0,8,5,2,15,0,4,3,8,0,13,17,6,0,0,10,0,0,10,0,0,16,6,0,0,0,0,0,0,0,0,0,0,0,0,0,0],"sum_hessian":[8.563356E1,5.4787567E1,3.0845995E1,3.1339678E1,2.3447891E1,2.685362E1,3.9923742E0,2.6382626E1,4.9570513E0,8.031537E0,1.5416354E1,2.5865223E0,2.4267097E1,1.4743133E0,2.518061E0,2.2860647E1,3.5219796E0,1.0776079E0,3.8794434E0,6.6219206E0,1.4096165E0,2.6032414E0,1.2813112E1,1.1243383E0,1.462184E0,1.1670051E1,1.2597048E1,1.3063229E0,1.211738E0,1.5108869E1,7.7517786E0,2.1400566E0,1.381923E0,2.3315804E0,4.2903404E0,4.2681937E0,8.544919E0,7.623875E0,4.046175E0,4.88445E0,7.7125974E0],"tree_param":{"num_deleted":"0","num_feature":"18","num_nodes":"41","size_leaf_vector":"0"}},{"base_weights":[3.8485238E-1,2.9413462E-1,1.0744605E0,3.7895337E-1,-6.506583E-2,1.3149701E-1,3.4108753E0,5.25755E-1,1.4103392E-1,1.6107379E-1,-4.9869096E-1,7.9201543E-1,-4.585838E-1,2.9162776E-1,1.0714962E0,-6.4257705E-1,2.8079256E-1,2.9670787E-1,-5.2970684E-1,-1.5055887E-1,-7.700454E-1,9.8664975E-1,2.4071297E-1,5.1452294E-2,-8.125583E-1,5.0540197E-1,-5.5528782E-2,4.4102025E-1,2.713651E0,-1.1161791E0,9.959352E-3,-4.271783E-2,5.2987313E-1,-2.4725132E-1,6.0429215E-1],"default_left":[true,true,true,true,true,true,false,true,true,true,true,true,true,true,true,true,true,true,false,false,false,false,false,false,false,false,false,false,false,false,false,false,false,false,false],"id":18,"leaf_child_counts":[0,0,0,0,0,0,0,0,0,0,0,0,0,0,0,0,0,0,0,0,0,0,0,0,0,0,0,0,0,0,0,0,0,0,0],"left_children":[1,3,5,7,9,11,-1,13,15,17,19,21,23,25,27,29,31,33,-1,-1,-1,-1,-1,-1,-1,-1,-1,-1,-1,-1,-1,-1,-1,-1,-1],"loss_changes":[5.26758E0,2.4697313E0,2.158133E1,2.1985302E0,1.6673123E0,3.5452452E0,0E0,4.782305E0,3.0492966E0,1.2245771E0,4.3114924E-1,2.1519184E-1,9.34628E-1,2.2008042E0,1.0809739E1,1.3304231E0,1.870076E0,1.8499434E0,0E0,0E0,0E0,0E0,0E0,0E0,0E0,0E0,0E0,0E0,0E0,0E0,0E0,0E0,0E0,0E0,0E0],"parents":[2147483647,0,0,1,1,2,2,3,3,4,4,5,5,7,7,8,8,9,9,10,10,11,11,12,12,13,13,14,14,15,15,16,16,17,17],"right_children":[2,4,6,8,10,12,-1,14,16,18,20,22,24,26,28,30,32,34,-1,-1,-1,-1,-1,-1,-1,-1,-1,-1,-1,-1,-1,-1,-1,-1,-1],"split_conditions":[3.655914E0,2.1202219E4,1.489785E0,2.754301E0,1.7419355E0,1.55E0,2.3876128E-1,1.5967742E0,4.137931E-1,3.064516E0,1.1290323E0,1.1614855E6,7.583234E1,5.645161E-1,3.8709676E-1,1.2903225E-1,2.4934272E5,9.354839E-1,-3.707948E-2,-1.0539121E-2,-5.3903177E-2,6.906548E-2,1.6849907E-2,3.6016605E-3,-5.687908E-2,3.537814E-2,-3.8870147E-3,3.0871417E-2,1.8995556E-1,-7.813254E-2,6.9715467E-4,-2.9902481E-3,3.709112E-2,-1.7307593E-2,4.230045E-2],"split_indices":[7,16,13,7,14,6,0,13,2,7,1,15,17,7,5,4,10,1,0,0,0,0,0,0,0,0,0,0,0,0,0,0,0,0,0],"sum_hessian":[8.825259E1,7.925336E1,8.999232E0,6.4069496E1,1.5183859E1,7.1641173E0,1.8351148E0,3.8873734E1,2.519576E1,1.0392574E1,4.7912846E0,3.2188356E0,3.9452815E0,2.8277037E1,1.0596697E1,3.2690132E0,2.1926748E1,9.163754E0,1.2288194E0,2.7798014E0,2.011483E0,1.7953328E0,1.4235029E0,1.9664705E0,1.978811E0,1.721837E1,1.1058666E1,8.573584E0,2.023113E0,1.4825063E0,1.7865069E0,9.898671E0,1.2028077E1,3.3808727E0,5.7828817E0],"tree_param":{"num_deleted":"0","num_feature":"18","num_nodes":"35","size_leaf_vector":"0"}},{"base_weights":[3.5719046E-1,1.4423901E-1,6.000827E-1,2.7176952E-1,-3.7952232E-1,1.8060342E0,2.4654552E-1,3.7648878E-1,-3.0964243E-1,1.5199977E-2,-6.311686E-1,2.538411E0,4.779826E-2,1.4065875E-1,1.238138E0,6.169252E-2,6.5972555E-1,-5.097303E-1,-1.279003E-1,-3.9640558E-1,3.401475E-1,-3.0284896E-1,-7.66442E-1,3.3582845E0,9.675574E-1,-5.69733E-1,4.923323E-1,1.183048E0,6.439843E-2,4.2585614E-1,-9.222548E-1,8.399252E-1,6.354604E-2,1.0973703E0,4.129712E0,1.2788858E0,2.4806415E-1,5.444939E-1,-6.7496724E-2],"default_left":[true,true,true,true,true,true,true,true,true,true,true,true,true,true,false,true,true,false,false,false,false,false,false,true,true,false,false,false,true,false,false,false,false,false,false,false,false,false,false],"id":19,"leaf_child_counts":[0,0,0,0,0,0,0,0,0,0,0,0,0,0,0,0,0,0,0,0,0,0,0,0,0,0,0,0,0,0,0,0,0,0,0,0,0,0,0],"left_children":[1,3,5,7,9,11,13,15,17,19,21,23,25,27,-1,29,31,-1,-1,-1,-1,-1,-1,33,35,-1,-1,-1,37,-1,-1,-1,-1,-1,-1,-1,-1,-1,-1],"loss_changes":[4.58152E0,3.4031725E0,1.7395006E1,2.5710707E0,1.0119702E0,1.1890305E1,3.344938E0,3.0453806E0,1.7850077E-1,7.90918E-1,4.262519E-2,5.206894E0,1.313259E0,2.4207458E0,0E0,6.6618533E0,1.8928709E0,0E0,0E0,0E0,0E0,0E0,0E0,2.286827E0,5.017865E-1,0E0,0E0,0E0,1.9571247E0,0E0,0E0,0E0,0E0,0E0,0E0,0E0,0E0,0E0,0E0],"parents":[2147483647,0,0,1,1,2,2,3,3,4,4,5,5,6,6,7,7,8,8,9,9,10,10,11,11,12,12,13,13,15,15,16,16,23,23,24,24,28,28],"right_children":[2,4,6,8,10,12,14,16,18,20,22,24,26,28,-1,30,32,-1,-1,-1,-1,-1,-1,34,36,-1,-1,-1,38,-1,-1,-1,-1,-1,-1,-1,-1,-1,-1],"split_conditions":[1.1356322E0,2.7037635E0,1.032258E0,3.3619744E8,1.9605659E6,5.5166665E3,1.8333333E0,9.516129E-1,4.7729355E1,1.5E0,1.016129E0,1.016129E0,2.3548386E0,3.2258064E-2,8.666966E-2,2.222347E0,6.1783707E1,-3.568112E-2,-8.953021E-3,-2.7748391E-2,2.3810325E-2,-2.1199428E-2,-5.365094E-2,1.8209677E0,1.05112904E8,-3.988131E-2,3.446326E-2,8.281336E-2,1.0000001E-1,2.980993E-2,-6.4557835E-2,5.8794767E-2,4.448223E-3,7.681592E-2,2.8907984E-1,8.952201E-2,1.736449E-2,3.8114574E-2,-4.724771E-3],"split_indices":[13,0,14,10,10,11,5,13,17,9,9,9,0,8,0,17,17,0,0,0,0,0,0,13,10,0,0,0,0,0,0,0,0,0,0,0,0,0,0],"sum_hessian":[8.924926E1,4.840493E1,4.084433E1,3.931359E1,9.091338E0,8.328044E0,3.2516285E1,3.361211E1,5.701484E0,3.9052758E0,5.1860623E0,5.565896E0,2.762148E0,3.0410738E1,2.105546E0,1.6495937E1,1.7116173E1,1.8547827E0,3.8467016E0,1.6258864E0,2.2793894E0,2.4583173E0,2.727745E0,2.909482E0,2.656414E0,1.0382316E0,1.7239163E0,1.0837579E0,2.932698E1,1.2453889E1,4.0420475E0,1.2829511E1,4.286661E0,1.3564609E0,1.5530211E0,1.3114578E0,1.3449563E0,5.646309E0,2.3680672E1],"tree_param":{"num_deleted":"0","num_feature":"18","num_nodes":"39","size_leaf_vector":"0"}},{"base_weights":[4.0905705E-1,2.8560787E-1,1.0761192E0,4.863081E-1,-3.4072217E-2,1.3480087E-1,2.7708752E0,3.062956E-1,1.0550872E0,-5.6256866E-1,7.6283164E-2,-4.688831E-2,6.263673E-1,5.0797105E0,1.2430839E-1,5.958065E-1,-2.2750923E-2,1.4598908E0,-6.8111226E-2,-8.277449E-1,-5.406587E-2,1.5849929E-1,-6.810254E-1,6.799923E-2,-2.4331142E-1,-2.32931E-1,4.7780314E-1,3.33899E-1,1.5802304E0,-3.1070974E-1,6.054232E-1,1.9014236E0,-4.763625E-2,3.1697354E-1,-1.6561107E-1,2.3105055E-1,-2.1426496E-1],"default_left":[true,true,true,true,true,true,true,true,true,true,true,true,false,false,true,true,true,true,false,false,false,true,false,true,false,false,false,false,false,false,false,false,false,false,false,false,false],"id":20,"leaf_child_counts":[0,0,0,0,0,0,0,0,0,0,0,0,0,0,0,0,0,0,0,0,0,0,0,0,0,0,0,0,0,0,0,0,0,0,0,0,0],"left_children":[1,3,5,7,9,11,13,15,17,19,21,23,-1,-1,25,27,29,31,-1,-1,-1,33,-1,35,-1,-1,-1,-1,-1,-1,-1,-1,-1,-1,-1,-1,-1],"loss_changes":[7.2720556E0,5.08704E0,2.1980127E1,4.654331E0,1.875073E0,9.2782164E-1,2.963057E1,3.6655734E0,5.227276E0,7.030748E-1,1.7808474E0,2.0328915E-1,0E0,0E0,5.321378E-1,4.7398148E0,3.6080284E0,5.6384068E0,0E0,0E0,0E0,1.339055E0,0E0,3.257803E-1,0E0,0E0,0E0,0E0,0E0,0E0,0E0,0E0,0E0,0E0,0E0,0E0,0E0],"parents":[2147483647,0,0,1,1,2,2,3,3,4,4,5,5,6,6,7,7,8,8,9,9,10,10,11,11,14,14,15,15,16,16,17,17,21,21,23,23],"right_children":[2,4,6,8,10,12,14,16,18,20,22,24,-1,-1,26,28,30,32,-1,-1,-1,34,-1,36,-1,-1,-1,-1,-1,-1,-1,-1,-1,-1,-1,-1,-1],"split_conditions":[1.9344085E0,9.516129E-1,1.8833333E0,4.3548387E-1,1.6032257E0,8.262334E1,4.843592E8,1.652293E1,9.7062496E8,1.048387E0,1.7166667E0,2.6612902E0,4.384571E-2,3.5557973E-1,6.292087E7,7.741935E-1,2.580645E0,3.1166668E0,-4.767786E-3,-5.7942145E-2,-3.784611E-3,2.419355E0,-4.7671776E-2,1.8387096E0,-1.70318E-2,-1.6305171E-2,3.344622E-2,2.337293E-2,1.10616125E-1,-2.1749683E-2,4.2379625E-2,1.3309965E-1,-3.3345374E-3,2.2188148E-2,-1.1592776E-2,1.6173538E-2,-1.4998547E-2],"split_indices":[6,6,13,5,3,17,10,17,10,6,6,1,0,0,15,13,3,3,0,0,0,13,0,14,0,0,0,0,0,0,0,0,0,0,0,0,0],"sum_hessian":[9.104083E1,7.8028694E1,1.3012144E1,4.7614388E1,3.0414303E1,9.05967E0,3.952473E0,3.7336346E1,1.0278041E1,4.5459194E0,2.5868383E1,7.2752576E0,1.7844131E0,1.6199172E0,2.3325558E0,1.9430105E1,1.7906242E1,7.3347983E0,2.9432425E0,2.57519E0,1.9707294E0,2.4048319E1,1.8200642E0,5.0028887E0,2.272369E0,1.3297658E0,1.00279E0,1.6404774E1,3.0253325E0,1.262448E1,5.2817616E0,5.471105E0,1.8636932E0,1.6165966E1,7.8823543E0,3.2860973E0,1.7167916E0],"tree_param":{"num_deleted":"0","num_feature":"18","num_nodes":"37","size_leaf_vector":"0"}},{"base_weights":[2.7001607E-1,2.9793075E-1,-6.8667144E-1,2.488595E-1,2.363719E0,3.092405E-1,-2.5098196E-1,3.619422E-1,-3.857122E-1,1.1875328E-1,-8.190342E-1,2.901099E-1,2.2184684E0,-8.42881E-2,-4.868315E-1,-2.1504301E-1,1.0630581E0,-2.98272E-1,-1.0186912E0],"default_left":[true,true,false,true,false,true,true,true,true,true,true,false,false,false,false,false,false,false,false],"id":21,"leaf_child_counts":[0,0,0,0,0,0,0,0,0,0,0,0,0,0,0,0,0,0,0],"left_children":[1,3,-1,5,-1,7,9,11,13,15,17,-1,-1,-1,-1,-1,-1,-1,-1],"loss_changes":[2.6980915E0,8.679133E0,0E0,2.8064804E0,0E0,3.1106324E0,2.2599664E0,9.480657E0,1.4800721E-1,2.4699478E0,1.3143158E-1,0E0,0E0,0E0,0E0,0E0,0E0,0E0,0E0],"parents":[2147483647,0,0,1,1,3,3,5,5,6,6,7,7,8,8,9,9,10,10],"right_children":[2,4,-1,6,-1,8,10,12,14,16,18,-1,-1,-1,-1,-1,-1,-1,-1],"split_conditions":[8.80215E1,8.416435E1,-4.8067E-2,8.253155E3,1.6546033E-1,8.150919E1,1.0666666E0,2.435484E0,1.1333333E0,2.6612902E0,8.8709676E-1,2.0307694E-2,1.552928E-1,-5.900167E-3,-3.4078203E-2,-1.5053011E-2,7.441407E-2,-2.0879041E-2,-7.130838E-2],"split_indices":[17,17,0,11,0,17,9,1,5,0,8,0,0,0,0,0,0,0,0],"sum_hessian":[9.237023E1,9.042049E1,1.9497505E0,8.9416916E1,1.0035648E0,8.011975E1,9.29717E0,7.4917564E1,5.2021847E0,6.1107416E0,3.1864276E0,7.324004E1,1.6775221E0,1.7673835E0,3.4348013E0,5.0854073E0,1.0253342E0,1.574252E0,1.6121757E0],"tree_param":{"num_deleted":"0","num_feature":"18","num_nodes":"19","size_leaf_vector":"0"}},{"base_weights":[2.9182705E-1,2.3689736E-1,1.4617542E0,1.8712685E-1,7.6346236E-1,2.4814513E0,-2.0345122E-1,2.9228917E-1,-2.6602995E-1,2.582631E0,1.1625642E-2,1.9024368E-1,8.362142E-1,-1.4604091E-2,-1.1068381E0,-1.968776E-1,2.1536657E-1,3.815892E-1,-2.9179522E-1,1.9534683E0,2.7592438E-1,2.3023282E-1,-6.193149E-1,-3.232394E-1,-1.5263783E0],"default_left":[true,true,true,true,true,false,false,true,true,false,true,true,true,true,true,false,false,false,false,false,false,false,false,false,false],"id":22,"leaf_child_counts":[0,0,0,0,0,0,0,0,0,0,0,0,0,0,0,0,0,0,0,0,0,0,0,0,0],"left_children":[1,3,5,7,9,-1,-1,11,13,-1,15,17,19,21,23,-1,-1,-1,-1,-1,-1,-1,-1,-1,-1],"loss_changes":[5.293878E0,2.0853786E0,6.8596783E0,3.8427758E0,9.568163E0,0E0,0E0,3.4266028E0,3.2403927E0,0E0,2.960111E-1,5.2480016E0,5.6649327E0,2.0483518E0,6.679902E-1,0E0,0E0,0E0,0E0,0E0,0E0,0E0,0E0,0E0,0E0],"parents":[2147483647,0,0,1,1,2,2,3,3,4,4,7,7,8,8,10,10,11,11,12,12,13,13,14,14],"right_children":[2,4,6,8,10,-1,-1,12,14,-1,16,18,20,22,24,-1,-1,-1,-1,-1,-1,-1,-1,-1,-1],"split_conditions":[8.416435E1,2.6553764E0,8.9583E1,3.6075268E0,7.910693E1,1.7370158E-1,-1.42415855E-2,2.919355E0,1.9032258E0,1.8078418E-1,1.5833333E0,2.8316092E0,1.5806451E0,3.2419355E0,6.8301834E1,-1.3781432E-2,1.507566E-2,2.6711244E-2,-2.0425666E-2,1.3674279E-1,1.9314706E-2,1.6116297E-2,-4.3352045E-2,-2.2626758E-2,-1.0684648E-1],"split_indices":[17,1,17,3,17,0,0,3,9,0,6,7,14,7,17,0,0,0,0,0,0,0,0,0,0],"sum_hessian":[8.6765884E1,8.402336E1,2.7425234E0,7.800569E1,6.017667E0,1.3969295E0,1.3455939E0,6.360104E1,1.4404653E1,1.047648E0,4.9700184E0,5.469037E1,8.91067E0,1.1871963E1,2.5326898E0,2.472951E0,2.497068E0,3.9299E1,1.5391368E1,2.1456246E0,6.765046E0,8.891298E0,2.9806643E0,1.500529E0,1.0321609E0],"tree_param":{"num_deleted":"0","num_feature":"18","num_nodes":"25","size_leaf_vector":"0"}},{"base_weights":[2.6284E-1,4.316513E-2,5.076849E-1,1.256323E-1,-6.576099E-1,1.9396677E0,3.9261702E-1,4.048301E-1,-7.840811E-2,-1.0396088E0,-2.1069375E-1,5.4141507E-2,7.463842E-1,1.6297838E-1,1.3850197E0,-3.8126037E-1,1.7112565E-1,1.0890608E0,-1.0338837E-1,2.7680188E-1,2.5215604E0,3.834531E-1,-5.065652E-1,1.9830747E0,2.1650687E-1,-4.7819453E-1,1.1490236E-1,9.575977E-1,-1.3050781E-1,-8.1897765E-1,1.3922269E-3,1.3279265E0,6.1602555E-2,3.8579788E0,9.4435275E-2],"default_left":[true,true,true,true,true,false,true,true,true,false,false,true,true,true,true,true,true,false,true,true,true,false,false,false,false,false,false,false,false,false,false,false,false,false,false],"id":23,"leaf_child_counts":[0,0,0,0,0,0,0,0,0,0,0,0,0,0,0,0,0,0,0,0,0,0,0,0,0,0,0,0,0,0,0,0,0,0,0],"left_children":[1,3,5,7,9,-1,11,13,15,-1,-1,17,19,21,23,25,27,-1,29,31,33,-1,-1,-1,-1,-1,-1,-1,-1,-1,-1,-1,-1,-1,-1],"loss_changes":[4.8063416E0,2.8801997E0,6.21813E0,2.54694E0,6.784997E-1,0E0,4.804567E0,4.2320843E0,2.0563216E0,0E0,0E0,3.659508E0,1.5728668E1,2.5880573E0,2.0782113E0,6.4226663E-1,3.7154334E0,0E0,1.4853877E0,3.697318E0,1.2606949E1,0E0,0E0,0E0,0E0,0E0,0E0,0E0,0E0,0E0,0E0,0E0,0E0,0E0,0E0],"parents":[2147483647,0,0,1,1,2,2,3,3,4,4,6,6,7,7,8,8,11,11,12,12,13,13,14,14,15,15,16,16,18,18,19,19,20,20],"right_children":[2,4,6,8,10,-1,12,14,16,-1,-1,18,20,22,24,26,28,-1,30,32,34,-1,-1,-1,-1,-1,-1,-1,-1,-1,-1,-1,-1,-1,-1],"split_conditions":[4.424731E-1,4.3737488E5,1.1139785E0,1.6034483E0,2.2580644E-1,1.3577674E-1,1.483871E0,2.8679032E0,2.0166667E0,-7.277262E-2,-1.4748562E-2,5.3225803E-1,1.9344085E0,1.1658064E0,2.2580644E-1,2.7931035E0,1.1451613E0,7.623426E-2,1.1290322E-1,2.2096775E0,2.15E0,2.6841717E-2,-3.5459567E-2,1.3881522E-1,1.5155481E-2,-3.347362E-2,8.043165E-3,6.703184E-2,-9.135547E-3,-5.7328437E-2,9.7455886E-5,9.295486E-2,4.312179E-3,2.700585E-1,6.6104694E-3],"split_indices":[5,15,3,12,8,0,13,17,3,0,0,6,6,17,0,13,2,0,4,3,5,0,0,0,0,0,0,0,0,0,0,0,0,0,0],"sum_hessian":[8.8767456E1,4.740868E1,4.1358776E1,4.3151352E1,4.2573256E0,1.8968133E0,3.9461964E1,1.7804531E1,2.534682E1,1.5803484E0,2.6769772E0,2.0756096E1,1.8705866E1,1.5216331E1,2.5882013E0,1.1211655E1,1.4135167E1,1.9608169E0,1.879528E1,1.5706895E1,2.998971E0,1.1768394E1,3.4479358E0,1.2508913E0,1.33731E0,9.409547E0,1.8021073E0,3.3155563E0,1.0819611E1,1.5300214E0,1.7265259E1,1.7905263E0,1.3916369E1,1.5538613E0,1.4451097E0],"tree_param":{"num_deleted":"0","num_feature":"18","num_nodes":"35","size_leaf_vector":"0"}},{"base_weights":[2.0670003E-1,4.5008888E-3,4.5765647E-1,-1.07911795E-1,3.0535284E-1,2.5665128E-1,2.375284E0,3.0863473E-2,-5.0314724E-1,1.1364032E0,6.6126876E-2,1.4066896E0,1.2968318E-1,5.6671095E-1,3.3958063E0,-1.1803782E-1,5.485578E-1,-8.724619E-1,-2.789725E-1,-9.7200565E-2,8.874278E-1,2.8462074E0,-2.2769499E-1,2.0687106E-1,-8.3228356E-1,3.87663E-2,-4.853312E-1,1.0502694E0,-3.9339048E-1,1.0293431E-3,-4.927505E-1,4.2911756E-1,-2.5362587E-1,8.3872426E-1,2.8070357E-2],"default_left":[true,true,true,true,true,true,true,true,true,false,true,true,true,false,false,true,true,false,true,true,false,false,false,true,false,false,false,false,false,false,false,false,false,false,false],"id":24,"leaf_child_counts":[0,0,0,0,0,0,0,0,0,0,0,0,0,0,0,0,0,0,0,0,0,0,0,0,0,0,0,0,0,0,0,0,0,0,0],"left_children":[1,3,5,7,9,11,13,15,17,-1,19,21,23,-1,-1,25,27,-1,29,31,-1,-1,-1,33,-1,-1,-1,-1,-1,-1,-1,-1,-1,-1,-1],"loss_changes":[4.817713E0,1.8460743E0,1.5722801E1,2.1967356E0,2.8759913E0,5.5813675E0,5.271723E0,2.4062355E0,6.169989E-1,0E0,1.7748201E0,9.642807E0,2.893517E0,0E0,0E0,1.4248385E0,3.7033892E0,0E0,4.7559953E-1,1.047489E0,0E0,0E0,0E0,3.8999453E0,0E0,0E0,0E0,0E0,0E0,0E0,0E0,0E0,0E0,0E0,0E0],"parents":[2147483647,0,0,1,1,2,2,3,3,4,4,5,5,6,6,7,7,8,8,10,10,11,11,12,12,15,15,16,16,18,18,19,19,23,23],"right_children":[2,4,6,8,10,12,14,16,18,-1,20,22,24,-1,-1,26,28,-1,30,32,-1,-1,-1,34,-1,-1,-1,-1,-1,-1,-1,-1,-1,-1,-1],"split_conditions":[1.1356322E0,1.1935484E0,3.887097E0,2.8031144E0,9.516129E-1,3.2258064E-2,2.080645E0,1.4516129E-1,1.048387E0,7.9548225E-2,1.00195E5,1.1551723E0,2.0902334E5,3.9669767E-2,2.3770644E-1,3.448276E-2,8.7096775E-1,-6.1072335E-2,3.467742E0,2.8833332E0,6.2119946E-2,1.9923452E-1,-1.5938649E-2,1.032258E0,-5.825985E-2,2.713641E-3,-3.3973183E-2,7.351886E-2,-2.7537333E-2,7.205402E-5,-3.4492534E-2,3.003823E-2,-1.7753812E-2,5.8710698E-2,1.964925E-3],"split_indices":[13,8,7,7,6,8,1,9,1,0,11,2,11,0,0,7,6,0,7,7,0,0,0,14,0,0,0,0,0,0,0,0,0,0,0],"sum_hessian":[9.3983665E1,5.2611652E1,4.137201E1,3.876755E1,1.38441E1,3.8473106E1,2.8989027E0,2.9375221E1,9.392331E0,2.2561376E0,1.1587963E1,2.8231149E0,3.5649994E1,1.6067427E0,1.29216E0,2.3413057E1,5.962163E0,2.45537E0,6.9369607E0,1.0401188E1,1.1867746E0,1.1068122E0,1.7163025E0,3.3728573E1,1.9214194E0,1.7034975E1,6.3780823E0,3.8151147E0,2.1470482E0,3.434158E0,3.5028026E0,1.9836394E0,8.417549E0,6.6252313E0,2.7103342E1],"tree_param":{"num_deleted":"0","num_feature":"18","num_nodes":"35","size_leaf_vector":"0"}},{"base_weights":[2.4887773E-1,2.8800416E-1,-7.914783E-1,2.4257648E-1,1.6856853E0,-1.0732685E0,-2.1947832E-1,2.8661922E-1,-4.2545816E-1,5.5236116E-2,4.9850997E-1,-1.346737E-1,-5.371216E-1,1.8922144E-1,-6.155415E-1,9.659648E-1,2.3129109E-1],"default_left":[true,true,true,true,false,false,false,true,true,true,true,false,false,false,false,false,false],"id":25,"leaf_child_counts":[0,0,0,0,0,0,0,0,0,0,0,0,0,0,0,0,0],"left_children":[1,3,5,7,-1,-1,-1,9,11,13,15,-1,-1,-1,-1,-1,-1],"loss_changes":[3.723957E0,4.8931623E0,3.0920553E-1,2.5358844E0,0E0,0E0,0E0,3.7754688E0,1.0550499E-1,3.549961E0,4.818674E0,0E0,0E0,0E0,0E0,0E0,0E0],"parents":[2147483647,0,0,1,1,2,2,3,3,7,7,8,8,9,9,10,10],"right_children":[2,4,6,8,-1,-1,-1,10,12,14,16,-1,-1,-1,-1,-1,-1],"split_conditions":[1.016129E0,8.370186E1,1.7741935E0,8.150919E1,1.1799797E-1,-7.51288E-2,-1.5363483E-2,4.1940926E1,1.1333333E0,2.983871E0,1.048387E0,-9.427159E-3,-3.7598513E-2,1.3245501E-2,-4.3087907E-2,6.7617536E-2,1.6190376E-2],"split_indices":[4,17,5,17,0,0,0,17,5,7,14,0,0,0,0,0,0],"sum_hessian":[8.488557E1,8.25058E1,2.3797677E0,8.1045204E1,1.4605905E0,1.0072246E0,1.3725431E0,7.6568115E1,4.4770927E0,3.7203194E1,3.936492E1,1.8543139E0,2.622779E0,3.1607601E1,5.5955925E0,1.3366892E1,2.5998028E1],"tree_param":{"num_deleted":"0","num_feature":"18","num_nodes":"17","size_leaf_vector":"0"}},{"base_weights":[2.7044824E-1,3.0654383E-1,-7.3840153E-1,2.5518093E-1,2.0949554E0,-9.826548E-1,-2.1036164E-1,3.1864196E-1,-2.3982374E-1,2.2794591E-1,1.3550636E0,-1.0557779E0,-4.26489E-2,3.9884314E-1,-3.4841053E-2,5.044202E-1,2.672688E0,3.4877568E-1,-2.9297122E-1],"default_left":[true,true,true,true,false,false,false,true,true,true,true,false,true,false,false,false,false,false,false],"id":26,"leaf_child_counts":[0,0,0,0,0,0,0,0,0,0,0,0,0,0,0,0,0,0,0],"left_children":[1,3,5,7,-1,-1,-1,9,11,13,15,-1,17,-1,-1,-1,-1,-1,-1],"loss_changes":[3.5924287E0,7.7280455E0,2.4294686E-1,2.8589501E0,0E0,0E0,0E0,7.1115694E0,1.6661592E0,3.3278427E0,5.544901E0,0E0,1.0436108E0,0E0,0E0,0E0,0E0,0E0,0E0],"parents":[2147483647,0,0,1,1,2,2,3,3,7,7,8,8,9,9,10,10,12,12],"right_children":[2,4,6,8,-1,-1,-1,10,12,14,16,-1,18,-1,-1,-1,-1,-1,-1],"split_conditions":[1.016129E0,8.370186E1,2.8166666E0,7.636446E1,1.4664689E-1,-6.878584E-2,-1.4725315E-2,1.7741935E0,7.68515E1,7.9032254E-1,7.2101E1,-7.3904455E-2,2.903226E0,2.791902E-2,-2.4388738E-3,3.5309415E-2,1.8708816E-1,2.4414297E-2,-2.0507986E-2],"split_indices":[4,17,1,17,0,0,0,6,17,6,17,0,0,0,0,0,0,0,0],"sum_hessian":[9.14365E1,8.89501E1,2.4863954E0,8.7577576E1,1.3725283E0,1.1113667E0,1.3750286E0,7.794153E1,9.636045E0,7.279156E1,5.149968E0,1.0278876E0,8.608158E0,4.379366E1,2.89979E1,3.9698825E0,1.1800857E0,3.2043173E0,5.403841E0],"tree_param":{"num_deleted":"0","num_feature":"18","num_nodes":"19","size_leaf_vector":"0"}},{"base_weights":[2.5764638E-1,6.292647E-2,4.1708326E-1,2.0681526E-1,-3.456419E-1,8.69591E-1,1.914119E-1,3.3215427E-1,-2.9508978E-1,-1.1887991E0,1.2502262E-2,5.151507E-1,1.5681188E0,1.4413087E0,2.6373032E-2,-1.3038271E-2,7.577451E-1,-4.2614833E-1,-8.743198E-2,2.4039894E-1,-5.905211E-1,1.4549938E0,1.4223325E-1,1.5048313E-1,2.3337548E0,2.5366747E-1,2.29435E0,-3.6705735E-1,3.585567E-1,1.4206813E-1,-6.841081E-1,9.5370334E-1,-4.34886E-1,-9.909225E-2,4.5013675E-1,-1.5393776E-1,2.5307965E0,-1.4547633E-1,5.2092415E-1,-1.1997556E-1,-7.5413454E-1,1.1096436E0,-5.2258797E-2],"default_left":[true,true,true,true,true,true,true,true,true,false,true,true,true,true,true,true,true,false,false,true,false,true,true,false,false,false,false,true,true,false,false,false,false,false,false,false,false,false,false,false,false,false,false],"id":27,"leaf_child_counts":[0,0,0,0,0,0,0,0,0,0,0,0,0,0,0,0,0,0,0,0,0,0,0,0,0,0,0,0,0,0,0,0,0,0,0,0,0,0,0,0,0,0,0],"left_children":[1,3,5,7,9,11,13,15,17,-1,19,21,23,25,27,29,31,-1,-1,33,-1,35,37,-1,-1,-1,-1,39,41,-1,-1,-1,-1,-1,-1,-1,-1,-1,-1,-1,-1,-1,-1],"loss_changes":[2.7478652E0,2.5056005E0,4.8323784E0,2.063672E0,3.3843575E0,3.1552696E0,6.964133E0,3.7521434E0,1.4708006E-1,0E0,1.354242E0,4.036723E0,4.9659863E0,3.410324E0,4.183548E0,1.6635064E0,3.084825E0,0E0,0E0,5.5104756E-1,0E0,6.155531E0,1.1409978E0,0E0,0E0,0E0,0E0,1.3142432E0,5.4010696E0,0E0,0E0,0E0,0E0,0E0,0E0,0E0,0E0,0E0,0E0,0E0,0E0,0E0,0E0],"parents":[2147483647,0,0,1,1,2,2,3,3,4,4,5,5,6,6,7,7,8,8,10,10,11,11,12,12,13,13,14,14,15,15,16,16,19,19,21,21,22,22,27,27,28,28],"right_children":[2,4,6,8,10,12,14,16,18,-1,20,22,24,26,28,30,32,-1,-1,34,-1,36,38,-1,-1,-1,-1,40,42,-1,-1,-1,-1,-1,-1,-1,-1,-1,-1,-1,-1,-1,-1],"split_conditions":[4.424731E-1,2.8833332E0,3.6265E4,3.2258064E-2,4.113334E1,1.3333334E0,4.4085648E1,3.175751E-1,5.645161E-1,-8.321594E-2,3.2333333E0,9.516129E-1,5E-1,9.354839E-1,1.967742E0,1.568871E0,6.7093445E4,-2.9830383E-2,-6.120239E-3,4.8387095E-2,-4.1336477E-2,7.419355E-1,3.1612902E0,1.0533819E-2,1.6336283E-1,1.7756723E-2,1.6060449E-1,1.7258065E0,6.2903225E-1,9.94477E-3,-4.7887567E-2,6.6759236E-2,-3.044202E-2,-6.936458E-3,3.1509575E-2,-1.0775643E-2,1.7715576E-1,-1.0183343E-2,3.646469E-2,-8.398289E-3,-5.2789416E-2,7.767505E-2,-3.6581159E-3],"split_indices":[5,7,10,5,17,6,17,12,9,0,7,6,9,1,2,17,16,0,0,6,0,2,7,0,0,0,0,1,4,0,0,0,0,0,0,0,0,0,0,0,0,0,0],"sum_hessian":[8.835618E1,4.04047E1,4.795148E1,3.0246391E1,1.0158308E1,1.50068865E1,3.2944595E1,2.4473038E1,5.7733545E0,2.3370354E0,7.821273E0,1.1108035E1,3.8988516E0,2.940677E0,3.0003918E1,1.4048114E1,1.0424923E1,2.8944318E0,2.8789225E0,6.112543E0,1.7087297E0,2.3311975E0,8.776837E0,1.7868688E0,2.1119828E0,1.7715774E0,1.1690995E0,1.3687631E1,1.6316286E1,1.2051022E1,1.997093E0,9.125819E0,1.2991042E0,2.5356944E0,3.5768485E0,1.2775096E0,1.053688E0,5.337516E0,3.4393215E0,9.154206E0,4.5334244E0,5.1675205E0,1.1148766E1],"tree_param":{"num_deleted":"0","num_feature":"18","num_nodes":"43","size_leaf_vector":"0"}},{"base_weights":[2.2001073E-1,2.5192213E-1,-1.0001712E0,1.9663873E-1,8.014912E-1,3.3930117E-1,-6.2272787E-2,-3.30871E-1,1.4258124E0,2.72445E-1,1.523639E0,-8.5187596E-1,2.7843514E-2,-4.447217E-1,-9.84568E-2,2.6015353E0,5.905833E-1,1.615567E-1,6.964545E-1,9.2134374E-1,-5.969361E-2,-1.8203911E-1,1.1395779E0],"default_left":[true,true,false,true,true,true,true,true,true,true,false,false,true,false,false,false,true,false,false,false,false,false,false],"id":28,"leaf_child_counts":[0,0,0,0,0,0,0,0,0,0,0,0,0,0,0,0,0,0,0,0,0,0,0],"left_children":[1,3,-1,5,7,9,11,13,15,17,-1,-1,19,-1,-1,-1,21,-1,-1,-1,-1,-1,-1],"loss_changes":[3.987506E0,2.7071195E0,0E0,3.2345352E0,6.334552E0,4.038444E0,2.283022E0,5.567813E-2,3.8979826E0,2.4479742E0,0E0,0E0,2.359756E0,0E0,0E0,0E0,2.128582E0,0E0,0E0,0E0,0E0,0E0,0E0],"parents":[2147483647,0,0,1,1,3,3,4,4,5,5,6,6,7,7,8,8,9,9,12,12,16,16],"right_children":[2,4,-1,6,8,10,12,14,16,18,-1,-1,20,-1,-1,-1,22,-1,-1,-1,-1,-1,-1],"split_conditions":[1.016129E0,2.5075269E0,-7.001198E-2,1.7215054E0,6.4193547E-1,1.048387E0,1.8360215E0,8.387097E-1,7.910693E1,1.8387096E0,1.06654726E-1,-5.9631318E-2,7.5E-1,-3.1130519E-2,-6.891976E-3,1.8210748E-1,1.5E0,1.1308969E-2,4.8751816E-2,6.4494066E-2,-4.1785524E-3,-1.2742738E-2,7.977045E-2],"split_indices":[4,1,0,1,8,5,1,4,17,8,0,0,9,0,0,0,9,0,0,0,0,0,0],"sum_hessian":[9.4936325E1,9.3290054E1,1.6462755E0,8.599706E1,7.292989E0,5.5245716E1,3.0751345E1,2.758959E0,4.5340295E0,5.345804E1,1.7876798E0,2.2841802E0,2.8467165E1,1.2386866E0,1.5202725E0,1.004821E0,3.5292087E0,4.3470516E1,9.987522E0,1.6901774E0,2.6776987E1,1.7436758E0,1.7855327E0],"tree_param":{"num_deleted":"0","num_feature":"18","num_nodes":"23","size_leaf_vector":"0"}},{"base_weights":[2.3406792E-1,1.3809231E-1,1.0895507E0,1.7199598E-1,-9.029082E-1,7.211067E-2,2.6337757E0,1.9779079E-1,-7.5275344E-1,-2.0243683E-1,5.718175E-1,3.8275516E0,6.4535695E-1,1.4614327E-1,6.040411E-1,-3.5281777E-1,6.39855E-2,2.1862602E-1,-4.0391302E-1,-2.7338317E-1,1.2871038E0],"default_left":[true,true,true,true,false,true,true,true,false,true,false,false,false,true,true,false,false,false,false,false,false],"id":29,"leaf_child_counts":[0,0,0,0,0,0,0,0,0,0,0,0,0,0,0,0,0,0,0,0,0],"left_children":[1,3,5,7,-1,9,11,13,-1,15,-1,-1,-1,17,19,-1,-1,-1,-1,-1,-1],"loss_changes":[7.381948E0,3.1069717E0,1.4121629E1,2.1009293E0,0E0,1.0101476E0,6.050894E0,1.5987668E0,0E0,2.2073828E-1,0E0,0E0,0E0,2.9850347E0,5.5960207E0,0E0,0E0,0E0,0E0,0E0,0E0],"parents":[2147483647,0,0,1,1,2,2,3,3,5,5,6,6,7,7,9,9,13,13,14,14],"right_children":[2,4,6,8,-1,10,12,14,-1,16,-1,-1,-1,18,20,-1,-1,-1,-1,-1,-1],"split_conditions":[3.655914E0,1.016129E0,1.489785E0,3.4752688E0,-6.320357E-2,1.3402031E5,2.3225808E0,1.7741935E0,-5.269274E-2,3.935484E0,4.0027227E-2,2.679286E-1,4.5174986E-2,8.253155E3,7.419355E-1,-2.4697244E-2,4.478985E-3,1.5303821E-2,-2.8273912E-2,-1.9136822E-2,9.009726E-2],"split_indices":[7,4,13,7,0,15,13,6,0,3,0,0,0,11,9,0,0,0,0,0,0],"sum_hessian":[9.07406E1,8.263167E1,8.10893E0,8.0833824E1,1.797847E0,5.519202E0,2.5897274E0,7.940503E1,1.4287955E0,3.9460588E0,1.5731437E0,1.0402663E0,1.549461E0,7.165509E1,7.749934E0,2.3150556E0,1.6310031E0,6.3844616E1,7.810478E0,3.6548655E0,4.095069E0],"tree_param":{"num_deleted":"0","num_feature":"18","num_nodes":"21","size_leaf_vector":"0"}},{"base_weights":[2.3988532E-1,1.9861194E-1,1.3731519E0,4.8075858E-1,8.968379E-2,-5.344152E-1,2.592069E0,2.8726715E-1,1.6840175E0,3.2292756E-1,-9.580138E-2,3.9731503E-1,-3.1931135E-1,2.150601E0,3.6105442E-1,-4.31748E-2,1.036574E0,-2.3276092E-1,3.873577E-1,2.752124E-1,1.1854157E0,-4.4743332E-1,-1.1227373E-1,2.4809594E-1,-2.4800251E-1,2.2692444E0,5.0736094E-1,2.3233305E-1,-4.1903642E-1,9.9978364E-1,-3.8330415E-1],"default_left":[true,true,true,true,true,false,false,true,true,true,true,true,true,false,false,true,true,true,true,false,false,false,false,false,false,false,false,false,false,false,false],"id":30,"leaf_child_counts":[0,0,0,0,0,0,0,0,0,0,0,0,0,0,0,0,0,0,0,0,0,0,0,0,0,0,0,0,0,0,0],"left_children":[1,3,5,7,9,-1,-1,11,13,15,17,19,21,-1,-1,23,25,27,29,-1,-1,-1,-1,-1,-1,-1,-1,-1,-1,-1,-1],"loss_changes":[4.1813984E0,2.816651E0,8.772718E0,5.497004E0,2.9884784E0,0E0,0E0,1.6845683E0,1.2931871E0,8.016296E0,2.6610246E0,1.6173487E0,5.952719E-2,0E0,0E0,1.3219057E0,5.6233635E0,2.773929E0,4.610155E0,0E0,0E0,0E0,0E0,0E0,0E0,0E0,0E0,0E0,0E0,0E0,0E0],"parents":[2147483647,0,0,1,1,2,2,3,3,4,4,7,7,8,8,9,9,10,10,11,11,12,12,15,15,16,16,17,17,18,18],"right_children":[2,4,6,8,10,-1,-1,12,14,16,18,20,22,-1,-1,24,26,28,30,-1,-1,-1,-1,-1,-1,-1,-1,-1,-1,-1,-1],"split_conditions":[8.416435E1,1.868743E0,1.7741935E0,9.83871E-1,1.048387E0,-3.7409063E-2,1.8144482E-1,6.612903E-1,3.016129E0,1.6290323E0,2.6996663E0,2.580645E-1,5.645161E-1,1.5054207E-1,2.527381E-2,2.7954023E0,1.7333333E0,2.3435483E0,3.7741935E0,1.926487E-2,8.2979105E-2,-3.1320333E-2,-7.859161E-3,1.7366717E-2,-1.7360177E-2,1.5884711E-1,3.5515267E-2,1.6263314E-2,-2.933255E-2,6.998485E-2,-2.683129E-2],"split_indices":[17,7,5,1,14,0,0,0,3,8,0,9,9,0,0,7,1,7,3,0,0,0,0,0,0,0,0,0,0,0,0],"sum_hessian":[9.422703E1,9.204984E1,2.1771824E0,2.4688343E1,6.73615E1,1.067751E0,1.1094315E0,2.2335413E1,2.3529303E0,2.9511019E1,3.7850483E1,1.9197514E1,3.137899E0,1.276973E0,1.0759573E0,2.0125889E1,9.385129E0,2.9894608E1,7.9558754E0,1.7790407E1,1.4071071E0,1.221112E0,1.9167868E0,8.222302E0,1.1903586E1,1.8313932E0,7.5537357E0,8.478406E0,2.14162E1,4.267385E0,3.6884904E0],"tree_param":{"num_deleted":"0","num_feature":"18","num_nodes":"31","size_leaf_vector":"0"}},{"base_weights":[2.362043E-1,1.4958921E-1,8.987008E-1,2.8782594E-1,-1.0242639E-2,-1.347263E-1,2.393393E0,1.8654431E-1,1.1328522E0,-6.902906E-1,3.2789808E-2,2.0119964E-1,-5.2578074E-1,-5.3966744E-3,5.381081E0,2.911935E-1,-3.1588528E-1,1.9270556E0,3.3558255E-1,8.0417997E-1,-3.0971332E-2,-5.3124964E-2,5.7531744E-1,4.609922E-2,-1.0002475E0,4.5043594E-1,-9.878899E-3,-4.5344093E-1,1.1655481E-1,-2.6862895E-1,1.2805626E-1],"default_left":[true,true,true,true,true,true,true,true,true,false,true,true,true,false,false,true,true,false,false,false,true,false,false,false,false,false,false,false,false,false,false],"id":31,"leaf_child_counts":[0,0,0,0,0,0,0,0,0,0,0,0,0,0,0,0,0,0,0,0,0,0,0,0,0,0,0,0,0,0,0],"left_children":[1,3,5,7,9,11,13,15,17,-1,19,21,23,-1,-1,25,27,-1,-1,-1,29,-1,-1,-1,-1,-1,-1,-1,-1,-1,-1],"loss_changes":[5.464038E0,1.9358649E0,1.7438938E1,3.8065102E0,1.238217E0,1.0907844E0,3.287427E1,2.3590732E0,2.4099545E0,0E0,1.9933236E0,4.8314327E-1,1.0613319E0,0E0,0E0,1.7402687E0,5.235162E-1,0E0,0E0,0E0,1.4678684E0,0E0,0E0,0E0,0E0,0E0,0E0,0E0,0E0,0E0,0E0],"parents":[2147483647,0,0,1,1,2,2,3,3,4,4,5,5,6,6,7,7,8,8,10,10,11,11,12,12,15,15,16,16,20,20],"right_children":[2,4,6,8,10,12,14,16,18,-1,20,22,24,-1,-1,26,28,-1,-1,-1,30,-1,-1,-1,-1,-1,-1,-1,-1,-1,-1],"split_conditions":[1.7526882E0,2.7330368E0,1.1666667E0,2.4747126E0,3.3333335E-2,3.5E0,7.0735344E1,6.7093445E4,4.3201612E7,-4.832034E-2,8.064516E-2,1.6398333E8,2.532258E0,-3.777672E-4,3.7667567E-1,1.868743E0,6.296384E6,1.348939E-1,2.349078E-2,5.6292597E-2,1.8E0,-3.7187475E-3,4.027222E-2,3.2269454E-3,-7.001732E-2,3.1530514E-2,-6.915229E-4,-3.1740867E-2,8.1588365E-3,-1.8804027E-2,8.963938E-3],"split_indices":[5,7,13,7,2,7,17,16,10,0,9,10,0,0,0,7,16,0,0,0,8,0,0,0,0,0,0,0,0,0,0],"sum_hessian":[9.656465E1,8.648354E1,1.0081102E1,4.5945232E1,4.0538315E1,6.498155E0,3.5829475E0,4.2117897E1,3.8273356E0,1.5174034E0,3.902091E1,3.7566175E0,2.7415378E0,2.5409966E0,1.041951E0,3.52055E1,6.9123936E0,1.2074553E0,2.6198804E0,2.0925534E0,3.6928356E1,2.7471259E0,1.0094917E0,1.6525459E0,1.0889918E0,2.2701944E1,1.2503559E1,5.207399E0,1.7049944E0,1.4527958E1,2.2400398E1],"tree_param":{"num_deleted":"0","num_feature":"18","num_nodes":"31","size_leaf_vector":"0"}},{"base_weights":[1.8450327E-1,1.4792015E-1,1.274782E0,1.8972276E-1,-6.1074793E-1,4.6109304E-1,9.830295E-2,-6.3750017E-3,1.1217222E0,-1.3443327E-1,2.7555662E-1,5.210337E-1,-3.627077E-1,1.4391289E0,-6.8017477E-3,-5.7206947E-1,-1.6865985E-2,6.2969356E-4,8.144917E-1],"default_left":[true,true,false,true,false,true,true,true,true,true,true,false,false,false,false,false,false,false,false],"id":32,"leaf_child_counts":[0,0,0,0,0,0,0,0,0,0,0,0,0,0,0,0,0,0,0],"left_children":[1,3,-1,5,-1,7,9,11,13,15,17,-1,-1,-1,-1,-1,-1,-1,-1],"loss_changes":[3.3706546E0,2.8899093E0,0E0,2.0302773E0,0E0,6.4343047E0,2.6711886E0,2.6663163E0,3.100978E0,1.445305E0,5.4186974E0,0E0,0E0,0E0,0E0,0E0,0E0,0E0,0E0],"parents":[2147483647,0,0,1,1,3,3,5,5,6,6,7,7,8,8,9,9,10,10],"right_children":[2,4,-1,6,-1,8,10,12,14,16,18,-1,-1,-1,-1,-1,-1,-1,-1],"split_conditions":[8.462936E1,8.1604004E1,8.923474E-2,4.8331478E-1,-4.2752355E-2,7.741935E-1,1.1290322E-1,1.4070077E-1,9.3045974E-1,9.83871E-1,1.9032258E0,3.6472358E-2,-2.538954E-2,1.00739025E-1,-4.7612234E-4,-4.0044863E-2,-1.180619E-3,4.4078548E-5,5.7014417E-2],"split_indices":[17,17,0,2,0,13,4,17,1,8,13,0,0,0,0,0,0,0,0],"sum_hessian":[8.823526E1,8.646954E1,1.7657208E0,8.266464E1,3.8048964E0,1.9811768E1,6.285288E1,1.2182005E1,7.629762E0,2.7278046E1,3.557483E1,4.725529E0,7.4564757E0,5.740085E0,1.889677E0,4.9576483E0,2.2320398E1,2.4220432E1,1.1354399E1],"tree_param":{"num_deleted":"0","num_feature":"18","num_nodes":"19","size_leaf_vector":"0"}},{"base_weights":[1.4922327E-1,1.12341814E-1,1.1376964E0,-2.6921967E-2,2.92601E-1,2.6633477E0,-6.8245214E-1,-1.17716596E-1,5.320137E-1,7.650454E-1,6.823458E-2,-1.1100571E-2,-5.8385855E-1,2.2005663E0,-2.9844835E-1,1.3781433E0,1.6983213E-1,-1.9504124E-1,2.7824774E-1,-6.825893E-2,5.137345E-1,-1.111413E0,-1.1456047E-1,-4.876014E-1,1.553984E-1,2.153101E-1,1.7518535E0,-1.2636714E-1,1.020623E0,-6.734191E-1,2.2705539E-1,1.1368153E0,4.2661007E-2],"default_left":[true,true,true,true,true,false,false,true,true,true,true,true,true,false,true,true,true,true,true,false,false,false,false,false,false,false,false,false,false,false,false,false,false],"id":33,"leaf_child_counts":[0,0,0,0,0,0,0,0,0,0,0,0,0,0,0,0,0,0,0,0,0,0,0,0,0,0,0,0,0,0,0,0,0],"left_children":[1,3,5,7,9,-1,-1,11,13,15,17,19,21,-1,23,25,27,29,31,-1,-1,-1,-1,-1,-1,-1,-1,-1,-1,-1,-1,-1,-1],"loss_changes":[3.4348032E0,2.400683E0,1.1274303E1,2.8380086E0,4.3604164E0,0E0,0E0,2.372351E0,1.1497602E1,4.6216135E0,1.6755381E0,1.2342656E0,2.0738018E0,0E0,5.997992E-1,2.4100733E0,2.1177883E0,2.898858E0,3.3340454E0,0E0,0E0,0E0,0E0,0E0,0E0,0E0,0E0,0E0,0E0,0E0,0E0,0E0,0E0],"parents":[2147483647,0,0,1,1,2,2,3,3,4,4,7,7,8,8,9,9,10,10,11,11,12,12,14,14,15,15,16,16,17,17,18,18],"right_children":[2,4,6,8,10,-1,-1,12,14,16,18,20,22,-1,24,26,28,30,32,-1,-1,-1,-1,-1,-1,-1,-1,-1,-1,-1,-1,-1,-1],"split_conditions":[8.416435E1,1.016129E0,8.80215E1,1.7897849E0,1.016129E0,1.8643434E-1,-4.777165E-2,1.0339E4,1.7849462E-1,3.2634407E-1,1.6129032E-1,1.6774194E0,9.677419E-2,1.5403964E-1,4.2487934E5,1.5806451E0,2.5E0,9.814023E5,1.4032258E0,-4.7781253E-3,3.5961416E-2,-7.779891E-2,-8.019233E-3,-3.4132097E-2,1.0877888E-2,1.5071707E-2,1.2262975E-1,-8.8457E-3,7.144361E-2,-4.713934E-2,1.5893877E-2,7.957707E-2,2.9862705E-3],"split_indices":[17,8,17,9,14,0,0,15,6,4,4,5,4,0,16,8,1,10,9,0,0,0,0,0,0,0,0,0,0,0,0,0,0],"sum_hessian":[9.672279E1,9.431732E1,2.4054725E0,5.36891E1,4.062822E1,1.0565839E0,1.3488886E0,4.6865555E1,6.8235426E0,1.2305965E1,2.8322254E1,3.8975002E1,7.890552E0,1.7193133E0,5.1042295E0,5.4139557E0,6.8920097E0,1.2599107E1,1.5723148E1,3.593172E1,3.0432837E0,3.0705707E0,4.8199816E0,3.5502083E0,1.5540212E0,1.7000954E0,3.7138603E0,5.7438006E0,1.1482091E0,5.62672E0,6.972387E0,2.561738E0,1.316141E1],"tree_param":{"num_deleted":"0","num_feature":"18","num_nodes":"33","size_leaf_vector":"0"}},{"base_weights":[1.4739451E-1,1.7642124E-1,-9.079658E-1,1.358864E-1,1.4570256E0,1.9408298E-1,-3.7379727E-1,1.510517E-1,1.3687801E0,-6.545928E-1,2.4588664E-1,-3.4186992E-1,2.1004575E-1,3.2067248E-3,-1.025948E0],"default_left":[true,true,false,true,false,true,true,true,false,true,false,false,false,false,false],"id":34,"leaf_child_counts":[0,0,0,0,0,0,0,0,0,0,0,0,0,0,0],"left_children":[1,3,-1,5,-1,7,9,11,-1,13,-1,-1,-1,-1,-1],"loss_changes":[2.9227738E0,4.4014072E0,0E0,2.6528058E0,0E0,3.7730806E0,1.7716188E0,2.3130932E0,0E0,1.6260438E0,0E0,0E0,0E0,0E0,0E0],"parents":[2147483647,0,0,1,1,3,3,5,5,6,6,7,7,9,9],"right_children":[2,4,-1,6,-1,8,10,12,-1,14,-1,-1,-1,-1,-1],"split_conditions":[8.80215E1,8.370186E1,-6.35576E-2,7.639346E1,1.01991795E-1,2.6666667E0,7.3639025E6,5.829032E-1,9.581461E-2,1.6E0,1.7212065E-2,-2.3930894E-2,1.4703203E-2,2.2447073E-4,-7.181636E-2],"split_indices":[17,17,0,17,0,1,10,17,0,5,0,0,0,0,0],"sum_hessian":[8.9181496E1,8.7604836E1,1.5766591E0,8.598914E1,1.6156939E0,7.77327E1,8.256447E0,7.607454E1,1.6581599E0,5.6430807E0,2.613366E0,7.6190443E0,6.845549E1,2.3939414E0,3.2491393E0],"tree_param":{"num_deleted":"0","num_feature":"18","num_nodes":"15","size_leaf_vector":"0"}}]},"name":"gbtree"},"learner_model_param":{"base_score":"5E-1","num_class":"0","num_feature":"18"},"objective":{"name":"reg:pseudohubererror","reg_loss_param":{"scale_pos_weight":"1"}}},"version":[1,2,0]}