{"learner":{"attributes":{"scikit_learn":"{\"n_estimators\": 81, \"objective\": \"reg:squaredlogerror\", \"max_depth\": 5, \"learning_rate\": 0.23, \"verbosity\": null, \"booster\": \"gbtree\", \"tree_method\": null, \"gamma\": 0, \"min_child_weight\": 1, \"max_delta_step\": null, \"subsample\": 0.8, \"colsample_bytree\": 0.8, \"colsample_bylevel\": null, \"colsample_bynode\": null, \"reg_alpha\": null, \"reg_lambda\": null, \"scale_pos_weight\": 1, \"base_score\": null, \"missing\": NaN, \"num_parallel_tree\": null, \"kwargs\": {\"nthread\": 4, \"seed\": 27}, \"random_state\": null, \"n_jobs\": null, \"monotone_constraints\": null, \"interaction_constraints\": null, \"importance_type\": \"gain\", \"gpu_id\": null, \"validate_parameters\": null, \"n_features_in_\": 18, \"type\": \"XGBRegressor\"}"},"gradient_booster":{"model":{"gbtree_model_param":{"num_trees":"81","size_leaf_vector":"0"},"tree_info":[0,0,0,0,0,0,0,0,0,0,0,0,0,0,0,0,0,0,0,0,0,0,0,0,0,0,0,0,0,0,0,0,0,0,0,0,0,0,0,0,0,0,0,0,0,0,0,0,0,0,0,0,0,0,0,0,0,0,0,0,0,0,0,0,0,0,0,0,0,0,0,0,0,0,0,0,0,0,0,0,0],"trees":[{"base_weights":[9.0305656E-1],"default_left":[false],"id":0,"leaf_child_counts":[0],"left_children":[-1],"loss_changes":[0E0],"parents":[2147483647],"right_children":[-1],"split_conditions":[2.0770301E-1],"split_indices":[0],"sum_hessian":[1.8913528E2],"tree_param":{"num_deleted":"0","num_feature":"18","num_nodes":"1","size_leaf_vector":"0"}},{"base_weights":[9.8469055E-1],"default_left":[false],"id":1,"leaf_child_counts":[0],"left_children":[-1],"loss_changes":[0E0],"parents":[2147483647],"right_children":[-1],"split_conditions":[2.2647883E-1],"split_indices":[0],"sum_hessian":[1.4390776E2],"tree_param":{"num_deleted":"0","num_feature":"18","num_nodes":"1","size_leaf_vector":"0"}},{"base_weights":[1.0765048E0],"default_left":[false],"id":2,"leaf_child_counts":[0],"left_children":[-1],"loss_changes":[0E0],"parents":[2147483647],"right_children":[-1],"split_conditions":[2.4759611E-1],"split_indices":[0],"sum_hessian":[1.1096617E2],"tree_param":{"num_deleted":"0","num_feature":"18","num_nodes":"1","size_leaf_vector":"0"}},{"base_weights":[1.1565784E0],"default_left":[false],"id":3,"leaf_child_counts":[0],"left_children":[-1],"loss_changes":[0E0],"parents":[2147483647],"right_children":[-1],"split_conditions":[2.6601306E-1],"split_indices":[0],"sum_hessian":[8.2495926E1],"tree_param":{"num_deleted":"0","num_feature":"18","num_nodes":"1","size_leaf_vector":"0"}},{"base_weights":[1.2352556E0],"default_left":[false],"id":4,"leaf_child_counts":[0],"left_children":[-1],"loss_changes":[0E0],"parents":[2147483647],"right_children":[-1],"split_conditions":[2.841088E-1],"split_indices":[0],"sum_hessian":[6.2675724E1],"tree_param":{"num_deleted":"0","num_feature":"18","num_nodes":"1","size_leaf_vector":"0"}},{"base_weights":[1.2873461E0],"default_left":[false],"id":5,"leaf_child_counts":[0],"left_children":[-1],"loss_changes":[0E0],"parents":[2147483647],"right_children":[-1],"split_conditions":[2.9608962E-1],"split_indices":[0],"sum_hessian":[4.7009438E1],"tree_param":{"num_deleted":"0","num_feature":"18","num_nodes":"1","size_leaf_vector":"0"}},{"base_weights":[1.3299315E0],"default_left":[false],"id":6,"leaf_child_counts":[0],"left_children":[-1],"loss_changes":[0E0],"parents":[2147483647],"right_children":[-1],"split_conditions":[3.0588424E-1],"split_indices":[0],"sum_hessian":[3.54021E1],"tree_param":{"num_deleted":"0","num_feature":"18","num_nodes":"1","size_leaf_vector":"0"}},{"base_weights":[1.3671063E0],"default_left":[false],"id":7,"leaf_child_counts":[0],"left_children":[-1],"loss_changes":[0E0],"parents":[2147483647],"right_children":[-1],"split_conditions":[3.1443447E-1],"split_indices":[0],"sum_hessian":[2.7689344E1],"tree_param":{"num_deleted":"0","num_feature":"18","num_nodes":"1","size_leaf_vector":"0"}},{"base_weights":[1.368879E0],"default_left":[false],"id":8,"leaf_child_counts":[0],"left_children":[-1],"loss_changes":[0E0],"parents":[2147483647],"right_children":[-1],"split_conditions":[3.1484216E-1],"split_indices":[0],"sum_hessian":[2.1764402E1],"tree_param":{"num_deleted":"0","num_feature":"18","num_nodes":"1","size_leaf_vector":"0"}},{"base_weights":[1.3799351E0],"default_left":[false],"id":9,"leaf_child_counts":[0],"left_children":[-1],"loss_changes":[0E0],"parents":[2147483647],"right_children":[-1],"split_conditions":[3.1738508E-1],"split_indices":[0],"sum_hessian":[1.9581493E1],"tree_param":{"num_deleted":"0","num_feature":"18","num_nodes":"1","size_leaf_vector":"0"}},{"base_weights":[1.3227382E0,1.364113E0,3.954956E-1],"default_left":[true,false,false],"id":10,"leaf_child_counts":[0,0,0],"left_children":[1,-1,-1],"loss_changes":[4.9324036E-2,0E0,0E0],"parents":[2147483647,0,0],"right_children":[2,-1,-1],"split_conditions":[5.72213E8,3.1374598E-1,9.096399E-2],"split_indices":[10,0,0],"sum_hessian":[1.4348206E1,1.3284292E1,1.0639132E0],"tree_param":{"num_deleted":"0","num_feature":"18","num_nodes":"3","size_leaf_vector":"0"}},{"base_weights":[1.2313186E0,1.2975217E0,2.6749563E-1],"default_left":[true,false,false],"id":11,"leaf_child_counts":[0,0,0],"left_children":[1,-1,-1],"loss_changes":[4.9529457E-1,0E0,0E0],"parents":[2147483647,0,0],"right_children":[2,-1,-1],"split_conditions":[8.253155E3,2.9843E-1,6.1523996E-2],"split_indices":[11,0,0],"sum_hessian":[1.22017145E1,1.1093498E1,1.1082158E0],"tree_param":{"num_deleted":"0","num_feature":"18","num_nodes":"3","size_leaf_vector":"0"}},{"base_weights":[1.2029115E0],"default_left":[false],"id":12,"leaf_child_counts":[0],"left_children":[-1],"loss_changes":[0E0],"parents":[2147483647],"right_children":[-1],"split_conditions":[2.7666965E-1],"split_indices":[0],"sum_hessian":[1.0701876E1],"tree_param":{"num_deleted":"0","num_feature":"18","num_nodes":"1","size_leaf_vector":"0"}},{"base_weights":[1.069327E0,6.168783E-1,1.2822844E0,7.239079E-1,8.443226E-2],"default_left":[true,true,false,false,false],"id":13,"leaf_child_counts":[0,0,0,0,0],"left_children":[1,3,-1,-1,-1],"loss_changes":[2.0105171E-1,2.3648381E-1,0E0,0E0,0E0],"parents":[2147483647,0,0,1,1],"right_children":[2,4,-1,-1,-1],"split_conditions":[4.3548387E-1,1.6666668E-2,2.9492542E-1,1.6649881E-1,1.941942E-2],"split_indices":[5,6,0,0,0],"sum_hessian":[9.296226E0,4.2222857E0,5.07394E0,3.2161937E0,1.0060923E0],"tree_param":{"num_deleted":"0","num_feature":"18","num_nodes":"5","size_leaf_vector":"0"}},{"base_weights":[1.023547E0,5.0970536E-1,1.1645489E0],"default_left":[true,false,false],"id":14,"leaf_child_counts":[0,0,0],"left_children":[1,-1,-1],"loss_changes":[5.311489E-2,0E0,0E0],"parents":[2147483647,0,0],"right_children":[2,-1,-1],"split_conditions":[3.742861E1,1.1723223E-1,2.6784626E-1],"split_indices":[17,0,0],"sum_hessian":[7.9257207E0,2.7002616E0,5.225459E0],"tree_param":{"num_deleted":"0","num_feature":"18","num_nodes":"3","size_leaf_vector":"0"}},{"base_weights":[8.2962644E-1,4.3157458E-1,1.0248296E0,6.098477E-1,-7.863284E-2],"default_left":[true,true,false,false,false],"id":15,"leaf_child_counts":[0,0,0,0,0],"left_children":[1,3,-1,-1,-1],"loss_changes":[2.0883703E-1,4.5587242E-1,0E0,0E0,0E0],"parents":[2147483647,0,0,1,1],"right_children":[2,4,-1,-1,-1],"split_conditions":[4.263441E-1,2.1790323E0,2.3571081E-1,1.4026497E-1,-1.8085552E-2],"split_indices":[5,7,0,0,0],"sum_hessian":[7.3799105E0,3.484774E0,3.895136E0,2.437712E0,1.047062E0],"tree_param":{"num_deleted":"0","num_feature":"18","num_nodes":"5","size_leaf_vector":"0"}},{"base_weights":[7.590848E-1,2.995617E-1,1.0013447E0,4.40585E-1,-4.9134105E-2,3.1047434E-1,1.1227381E0],"default_left":[true,true,true,false,false,false,false],"id":16,"leaf_child_counts":[0,0,0,0,0,0,0],"left_children":[1,3,5,-1,-1,-1,-1],"loss_changes":[5.293269E-1,2.1826696E-1,2.470541E-2,0E0,0E0,0E0,0E0],"parents":[2147483647,0,0,1,1,2,2],"right_children":[2,4,6,-1,-1,-1,-1],"split_conditions":[1.0967742E0,2.032258E0,4.0967742E-1,1.0133455E-1,-1.1300844E-2,7.14091E-2,2.5822976E-1],"split_indices":[13,7,6,0,0,0,0],"sum_hessian":[6.449348E0,2.998419E0,3.450929E0,1.9473348E0,1.0510844E0,1.0474286E0,2.4035003E0],"tree_param":{"num_deleted":"0","num_feature":"18","num_nodes":"7","size_leaf_vector":"0"}},{"base_weights":[6.995875E-1,2.1436137E-1,1.0139898E0,3.5790795E-1,-5.647813E-2],"default_left":[true,true,false,false,false],"id":17,"leaf_child_counts":[0,0,0,0,0],"left_children":[1,3,-1,-1,-1],"loss_changes":[8.301773E-1,1.7447877E-1,0E0,0E0,0E0],"parents":[2147483647,0,0,1,1],"right_children":[2,4,-1,-1,-1],"split_conditions":[1.1356322E0,1.8364849E0,2.3321766E-1,8.231883E-2,-1.2989971E-2],"split_indices":[13,7,0,0,0],"sum_hessian":[5.866568E0,2.967911E0,2.8986568E0,1.729689E0,1.2382219E0],"tree_param":{"num_deleted":"0","num_feature":"18","num_nodes":"5","size_leaf_vector":"0"}},{"base_weights":[6.223979E-1,2.1640873E-1,8.7946737E-1,6.632639E-2,3.148107E-1,2.7311453E-1,1.0017041E0],"default_left":[true,true,true,false,false,false,false],"id":18,"leaf_child_counts":[0,0,0,0,0,0,0],"left_children":[1,3,5,-1,-1,-1,-1],"loss_changes":[5.203514E-1,3.7696928E-2,1.1256218E-2,0E0,0E0,0E0,0E0],"parents":[2147483647,0,0,1,1,2,2],"right_children":[2,4,6,-1,-1,-1,-1],"split_conditions":[1.1356322E0,4.5741833E1,5.08046E-1,1.5255069E-2,7.240646E-2,6.2816344E-2,2.3039195E-1],"split_indices":[13,17,5,0,0,0,0],"sum_hessian":[5.8093657E0,2.966387E0,2.8429785E0,1.8376479E0,1.1287392E0,1.0195968E0,1.8233817E0],"tree_param":{"num_deleted":"0","num_feature":"18","num_nodes":"7","size_leaf_vector":"0"}},{"base_weights":[5.214704E-1,1.0310472E-1,8.2000506E-1,2.9318276E-1,-7.667603E-2,1.0371537E0,3.2225454E-1],"default_left":[true,true,true,false,false,false,false],"id":19,"leaf_child_counts":[0,0,0,0,0,0,0],"left_children":[1,3,5,-1,-1,-1,-1],"loss_changes":[7.336658E-1,1.547908E-1,6.344724E-2,0E0,0E0,0E0,0E0],"parents":[2147483647,0,0,1,1,2,2],"right_children":[2,4,6,-1,-1,-1,-1],"split_conditions":[1.1356322E0,2.222347E0,1.4258065E0,6.743204E-2,-1.7635489E-2,2.3854536E-1,7.411855E-2],"split_indices":[13,17,14,0,0,0,0],"sum_hessian":[5.5511136E0,2.8718622E0,2.6792514E0,1.0893443E0,1.7825179E0,1.1109196E0,1.5683317E0],"tree_param":{"num_deleted":"0","num_feature":"18","num_nodes":"7","size_leaf_vector":"0"}},{"base_weights":[5.712973E-1,1.8904237E-1,8.398284E-1,2.457098E-1,1.8267017E-2,2.6252046E-1,1.1256025E0],"default_left":[true,true,true,false,false,false,false],"id":20,"leaf_child_counts":[0,0,0,0,0,0,0],"left_children":[1,3,5,-1,-1,-1,-1],"loss_changes":[5.079322E-1,3.3935636E-2,2.8598022E-1,0E0,0E0,0E0,0E0],"parents":[2147483647,0,0,1,1,2,2],"right_children":[2,4,6,-1,-1,-1,-1],"split_conditions":[1.032258E0,6.612903E-1,6.690529E1,5.6513257E-2,4.201414E-3,6.0379706E-2,2.5888857E-1],"split_indices":[13,6,17,0,0,0,0],"sum_hessian":[5.4950085E0,2.970491E0,2.5245175E0,1.9009274E0,1.0695635E0,1.4711655E0,1.053352E0],"tree_param":{"num_deleted":"0","num_feature":"18","num_nodes":"7","size_leaf_vector":"0"}},{"base_weights":[3.7665308E-1,1.4530173E-2,6.299434E-1,1.2459489E-1,-1.1733767E-1,7.685356E-2,8.914986E-1],"default_left":[true,true,true,false,false,false,false],"id":21,"leaf_child_counts":[0,0,0,0,0,0,0],"left_children":[1,3,5,-1,-1,-1,-1],"loss_changes":[5.4092383E-1,6.5301485E-2,4.3857157E-1,0E0,0E0,0E0,0E0],"parents":[2147483647,0,0,1,1,2,2],"right_children":[2,4,6,-1,-1,-1,-1],"split_conditions":[4.263441E-1,1.5878794E1,1.483871E0,2.8656825E-2,-2.6987664E-2,1.7676318E-2,2.0504469E-1],"split_indices":[5,17,13,0,0,0,0],"sum_hessian":[4.997207E0,2.4919267E0,2.5052807E0,1.3883123E0,1.1036143E0,1.2197683E0,1.2855123E0],"tree_param":{"num_deleted":"0","num_feature":"18","num_nodes":"7","size_leaf_vector":"0"}},{"base_weights":[4.4843692E-1,1.1362913E-1,7.523252E-1,2.9344276E-1,-1.1359074E-1,1.787211E-1,9.50436E-1],"default_left":[true,true,true,false,false,false,false],"id":22,"leaf_child_counts":[0,0,0,0,0,0,0],"left_children":[1,3,5,-1,-1,-1,-1],"loss_changes":[5.328183E-1,1.9959421E-1,1.7192507E-1,0E0,0E0,0E0,0E0],"parents":[2147483647,0,0,1,1,2,2],"right_children":[2,4,6,-1,-1,-1,-1],"split_conditions":[2.1344087E-1,1.6618448E1,1.483871E0,6.749184E-2,-2.612587E-2,4.1105855E-2,2.1860029E-1],"split_indices":[4,17,13,0,0,0,0],"sum_hessian":[5.0770507E0,3.069337E0,2.0077138E0,1.5507114E0,1.5186256E0,1.0037149E0,1.0039989E0],"tree_param":{"num_deleted":"0","num_feature":"18","num_nodes":"7","size_leaf_vector":"0"}},{"base_weights":[3.429158E-1,-3.1769626E-2,6.291957E-1,1.9111963E-1,-2.6966965E-1,1.17293164E-1,8.21619E-1],"default_left":[true,true,true,false,false,false,false],"id":23,"leaf_child_counts":[0,0,0,0,0,0,0],"left_children":[1,3,5,-1,-1,-1,-1],"loss_changes":[6.397517E-1,2.347135E-1,2.3099113E-1,0E0,0E0,0E0,0E0],"parents":[2147483647,0,0,1,1,2,2],"right_children":[2,4,6,-1,-1,-1,-1],"split_conditions":[4.263441E-1,1.6034483E0,1.483871E0,4.3957517E-2,-6.202402E-2,2.697743E-2,1.8897237E-1],"split_indices":[5,12,13,0,0,0,0],"sum_hessian":[4.7778664E0,2.4544668E0,2.3233998E0,1.3687344E0,1.0857325E0,1.0744922E0,1.2489076E0],"tree_param":{"num_deleted":"0","num_feature":"18","num_nodes":"7","size_leaf_vector":"0"}},{"base_weights":[2.385645E-1,-3.5721146E-2,5.0875384E-1,-2.4929194E-1,2.2219303E-1],"default_left":[true,true,false,false,false],"id":24,"leaf_child_counts":[0,0,0,0,0],"left_children":[1,3,-1,-1,-1],"loss_changes":[4.4975862E-1,2.6604533E-1,0E0,0E0,0E0],"parents":[2147483647,0,0,1,1],"right_children":[2,4,-1,-1,-1],"split_conditions":[1.1356322E0,1.4516129E-1,1.1701339E-1,-5.7337146E-2,5.1104397E-2],"split_indices":[13,9,0,0,0],"sum_hessian":[4.8236527E0,2.824313E0,1.9993398E0,1.5632578E0,1.261055E0],"tree_param":{"num_deleted":"0","num_feature":"18","num_nodes":"5","size_leaf_vector":"0"}},{"base_weights":[2.9554036E-1,3.8653938E-3,6.0520995E-1,1.5054685E-1,-1.8570083E-1],"default_left":[true,true,false,false,false],"id":25,"leaf_child_counts":[0,0,0,0,0],"left_children":[1,3,-1,-1,-1],"loss_changes":[4.88547E-1,1.3376187E-1,0E0,0E0,0E0],"parents":[2147483647,0,0,1,1],"right_children":[2,4,-1,-1,-1],"split_conditions":[1.967742E0,1.6666668E-2,1.3919829E-1,3.4625776E-2,-4.271119E-2],"split_indices":[2,6,0,0,0],"sum_hessian":[4.434796E0,2.8051412E0,1.6296545E0,1.6974969E0,1.1076443E0],"tree_param":{"num_deleted":"0","num_feature":"18","num_nodes":"5","size_leaf_vector":"0"}},{"base_weights":[3.274015E-1,4.8791796E-1,-1.0607945E-2,7.489399E-2,6.987126E-1],"default_left":[true,true,false,false,false],"id":26,"leaf_child_counts":[0,0,0,0,0],"left_children":[1,3,-1,-1,-1],"loss_changes":[3.1212318E-1,2.8348088E-1,0E0,0E0,0E0],"parents":[2147483647,0,0,1,1],"right_children":[2,4,-1,-1,-1],"split_conditions":[1.0806451E0,8.8548386E-1,-2.4398274E-3,1.7225618E-2,1.607039E-1],"split_indices":[14,1,0,0,0],"sum_hessian":[4.6573815E0,2.8570838E0,1.8002975E0,1.423405E0,1.4336787E0],"tree_param":{"num_deleted":"0","num_feature":"18","num_nodes":"5","size_leaf_vector":"0"}},{"base_weights":[2.3083295E-1,2.2100408E-2,4.5040247E-1,2.3722954E-1,-2.9183257E-1],"default_left":[true,true,false,false,false],"id":27,"leaf_child_counts":[0,0,0,0,0],"left_children":[1,3,-1,-1,-1],"loss_changes":[2.4071172E-1,3.2961348E-1,0E0,0E0,0E0],"parents":[2147483647,0,0,1,1],"right_children":[2,4,-1,-1,-1],"split_conditions":[1.967742E0,2.080645E0,1.0359257E-1,5.4562796E-2,-6.712149E-2],"split_indices":[2,7,0,0,0],"sum_hessian":[4.4693136E0,2.85545E0,1.613864E0,1.8393365E0,1.0161133E0],"tree_param":{"num_deleted":"0","num_feature":"18","num_nodes":"5","size_leaf_vector":"0"}},{"base_weights":[2.4370383E-1,4.1012767E-1,-1.20960265E-1,7.401578E-2,5.1207274E-1],"default_left":[true,true,false,false,false],"id":28,"leaf_child_counts":[0,0,0,0,0],"left_children":[1,3,-1,-1,-1],"loss_changes":[3.9561307E-1,1.0403985E-1,0E0,0E0,0E0],"parents":[2147483647,0,0,1,1],"right_children":[2,4,-1,-1,-1],"split_conditions":[3.8739834E5,6.451613E-1,-2.7820861E-2,1.702363E-2,1.1777673E-1],"split_indices":[10,12,0,0,0],"sum_hessian":[4.701281E0,3.1424644E0,1.5588168E0,1.1330024E0,2.0094619E0],"tree_param":{"num_deleted":"0","num_feature":"18","num_nodes":"5","size_leaf_vector":"0"}},{"base_weights":[2.1067601E-1,-5.7617445E-2,4.423649E-1,1.10366434E-1,-1.8237823E-1],"default_left":[true,true,false,false,false],"id":29,"leaf_child_counts":[0,0,0,0,0],"left_children":[1,3,-1,-1,-1],"loss_changes":[3.5275704E-1,8.980227E-2,0E0,0E0,0E0],"parents":[2147483647,0,0,1,1],"right_children":[2,4,-1,-1,-1],"split_conditions":[3.8709676E-1,2.7419353E-1,1.0174393E-1,2.538428E-2,-4.1946996E-2],"split_indices":[5,7,0,0,0],"sum_hessian":[4.264895E0,2.3244824E0,1.9404125E0,1.0398092E0,1.2846732E0],"tree_param":{"num_deleted":"0","num_feature":"18","num_nodes":"5","size_leaf_vector":"0"}},{"base_weights":[2.5855407E-1,4.107999E-1,-4.971725E-2,5.1851444E-2,5.8803874E-1],"default_left":[true,true,false,false,false],"id":30,"leaf_child_counts":[0,0,0,0,0],"left_children":[1,3,-1,-1,-1],"loss_changes":[2.7387762E-1,2.0636219E-1,0E0,0E0,0E0],"parents":[2147483647,0,0,1,1],"right_children":[2,4,-1,-1,-1],"split_conditions":[1.048387E0,8.8548386E-1,-1.1434968E-2,1.1925832E-2,1.3524891E-1],"split_indices":[14,1,0,0,0],"sum_hessian":[4.4003296E0,2.7229538E0,1.6773759E0,1.3273412E0,1.3956127E0],"tree_param":{"num_deleted":"0","num_feature":"18","num_nodes":"5","size_leaf_vector":"0"}},{"base_weights":[1.7340341E-1,-1.458932E-2,3.7332028E-1,1.4849004E-1,-2.2298524E-1],"default_left":[true,true,false,false,false],"id":31,"leaf_child_counts":[0,0,0,0,0],"left_children":[1,3,-1,-1,-1],"loss_changes":[2.0986761E-1,1.6108495E-1,0E0,0E0,0E0],"parents":[2147483647,0,0,1,1],"right_children":[2,4,-1,-1,-1],"split_conditions":[1.5731182E0,1.0967741E0,8.5863665E-2,3.415271E-2,-5.1286604E-2],"split_indices":[13,0,0,0,0],"sum_hessian":[4.4392033E0,2.7655907E0,1.6736126E0,1.7127484E0,1.0528423E0],"tree_param":{"num_deleted":"0","num_feature":"18","num_nodes":"5","size_leaf_vector":"0"}},{"base_weights":[1.6541764E-1,-1.51281245E-2,3.9377922E-1,1.9534358E-1,-2.765555E-1],"default_left":[true,true,false,false,false],"id":32,"leaf_child_counts":[0,0,0,0,0],"left_children":[1,3,-1,-1,-1],"loss_changes":[2.1603076E-1,2.6357913E-1,0E0,0E0,0E0],"parents":[2147483647,0,0,1,1],"right_children":[2,4,-1,-1,-1],"split_conditions":[5.4838705E-1,1.6666668E-2,9.056922E-2,4.4929024E-2,-6.360777E-2],"split_indices":[4,6,0,0,0],"sum_hessian":[4.0951996E0,2.8085082E0,1.2866912E0,1.6959234E0,1.1125848E0],"tree_param":{"num_deleted":"0","num_feature":"18","num_nodes":"5","size_leaf_vector":"0"}},{"base_weights":[2.8711237E-2,2.0847552E-1,-2.6527938E-1,-1.125813E-1,4.4346693E-1],"default_left":[true,true,false,false,false],"id":33,"leaf_child_counts":[0,0,0,0,0],"left_children":[1,3,-1,-1,-1],"loss_changes":[3.2997715E-1,3.3550018E-1,0E0,0E0,0E0],"parents":[2147483647,0,0,1,1],"right_children":[2,4,-1,-1,-1],"split_conditions":[7.859387E5,9.516129E-1,-6.1014257E-2,-2.58937E-2,1.019974E-1],"split_indices":[10,9,0,0,0],"sum_hessian":[4.197314E0,2.7851658E0,1.4121479E0,1.3971813E0,1.3879846E0],"tree_param":{"num_deleted":"0","num_feature":"18","num_nodes":"5","size_leaf_vector":"0"}},{"base_weights":[1.0688793E-1,-1.1468078E-1,3.3334452E-1,-2.7945966E-2,-1.4284828E-1],"default_left":[true,true,false,false,false],"id":34,"leaf_child_counts":[0,0,0,0,0],"left_children":[1,3,-1,-1,-1],"loss_changes":[2.7849886E-1,3.739033E-3,0E0,0E0,0E0],"parents":[2147483647,0,0,1,1],"right_children":[2,4,-1,-1,-1],"split_conditions":[1.1473118E0,1.6765518E1,7.666924E-2,-6.427572E-3,-3.2855105E-2],"split_indices":[13,17,0,0,0],"sum_hessian":[3.7885864E0,2.164445E0,1.6241413E0,1.0189567E0,1.1454883E0],"tree_param":{"num_deleted":"0","num_feature":"18","num_nodes":"5","size_leaf_vector":"0"}},{"base_weights":[1.4535E-1,3.3712882E-1,-2.4360187E-1,1.2904374E-1,4.320927E-1],"default_left":[true,true,false,false,false],"id":35,"leaf_child_counts":[0,0,0,0,0],"left_children":[1,3,-1,-1,-1],"loss_changes":[4.6575874E-1,2.0597816E-2,0E0,0E0,0E0],"parents":[2147483647,0,0,1,1],"right_children":[2,4,-1,-1,-1],"split_conditions":[7.859387E5,9.516129E-1,-5.6028433E-2,2.9680062E-2,9.938132E-2],"split_indices":[10,9,0,0,0],"sum_hessian":[4.1430416E0,2.864093E0,1.2789484E0,1.6366762E0,1.227417E0],"tree_param":{"num_deleted":"0","num_feature":"18","num_nodes":"5","size_leaf_vector":"0"}},{"base_weights":[7.770751E-2,2.2197182E-1,-1.9940475E-1,-6.731128E-2,3.4910223E-1],"default_left":[true,true,false,false,false],"id":36,"leaf_child_counts":[0,0,0,0,0],"left_children":[1,3,-1,-1,-1],"loss_changes":[2.5800714E-1,1.7021409E-1,0E0,0E0,0E0],"parents":[2147483647,0,0,1,1],"right_children":[2,4,-1,-1,-1],"split_conditions":[1.7997775E0,1.0678532E0,-4.5863092E-2,-1.5481595E-2,8.0293514E-2],"split_indices":[14,12,0,0,0],"sum_hessian":[4.3466425E0,2.9893649E0,1.3572776E0,1.0563015E0,1.9330634E0],"tree_param":{"num_deleted":"0","num_feature":"18","num_nodes":"5","size_leaf_vector":"0"}},{"base_weights":[1.485909E-1,-3.803269E-2,3.3830726E-1,9.7179174E-2,-1.6295883E-1],"default_left":[true,true,false,false,false],"id":37,"leaf_child_counts":[0,0,0,0,0],"left_children":[1,3,-1,-1,-1],"loss_changes":[1.8308017E-1,7.195757E-2,0E0,0E0,0E0],"parents":[2147483647,0,0,1,1],"right_children":[2,4,-1,-1,-1],"split_conditions":[1.1356322E0,6.1290324E-1,7.7810675E-2,2.2351211E-2,-3.7480533E-2],"split_indices":[13,7,0,0,0],"sum_hessian":[3.807536E0,2.3224628E0,1.4850732E0,1.2219794E0,1.1004833E0],"tree_param":{"num_deleted":"0","num_feature":"18","num_nodes":"5","size_leaf_vector":"0"}},{"base_weights":[-3.2874223E-2,-1.7299733E-1,1.8278632E-1,9.3040645E-2,-3.6518008E-1],"default_left":[true,true,false,false,false],"id":38,"leaf_child_counts":[0,0,0,0,0],"left_children":[1,3,-1,-1,-1],"loss_changes":[1.8779169E-1,2.204062E-1,0E0,0E0,0E0],"parents":[2147483647,0,0,1,1],"right_children":[2,4,-1,-1,-1],"split_conditions":[1.016129E0,2.0022246E-1,4.2040855E-2,2.1399349E-2,-8.3991416E-2],"split_indices":[8,14,0,0,0],"sum_hessian":[4.1679416E0,2.646338E0,1.5216038E0,1.326266E0,1.3200719E0],"tree_param":{"num_deleted":"0","num_feature":"18","num_nodes":"5","size_leaf_vector":"0"}},{"base_weights":[-9.38736E-2,-3.037458E-1,1.7872328E-1,5.3361494E-2,-4.9352065E-1],"default_left":[true,true,false,false,false],"id":39,"leaf_child_counts":[0,0,0,0,0],"left_children":[1,3,-1,-1,-1],"loss_changes":[3.4304276E-1,2.4470046E-1,0E0,0E0,0E0],"parents":[2147483647,0,0,1,1],"right_children":[2,4,-1,-1,-1],"split_conditions":[3.77957E-1,6.6740826E-2,4.1106354E-2,1.2273144E-2,-1.1350975E-1],"split_indices":[5,14,0,0,0],"sum_hessian":[4.0472603E0,2.222156E0,1.8251044E0,1.0205538E0,1.2016022E0],"tree_param":{"num_deleted":"0","num_feature":"18","num_nodes":"5","size_leaf_vector":"0"}},{"base_weights":[2.526114E-2,1.6133684E-1,-2.2197214E-1,-9.7687796E-2,3.8669333E-1],"default_left":[true,true,false,false,false],"id":40,"leaf_child_counts":[0,0,0,0,0],"left_children":[1,3,-1,-1,-1],"loss_changes":[2.0428759E-1,2.601248E-1,0E0,0E0,0E0],"parents":[2147483647,0,0,1,1],"right_children":[2,4,-1,-1,-1],"split_conditions":[1.7997775E0,3.3870965E-1,-5.105359E-2,-2.2468193E-2,8.8939466E-2],"split_indices":[14,9,0,0,0],"sum_hessian":[4.00782E0,2.8091254E0,1.1986951E0,1.5705056E0,1.2386198E0],"tree_param":{"num_deleted":"0","num_feature":"18","num_nodes":"5","size_leaf_vector":"0"}},{"base_weights":[1.1011594E-1,-4.1390613E-2,2.3931392E-1,9.641117E-2,-1.5386327E-1,4.457684E-1,-8.606833E-2],"default_left":[true,true,true,false,false,false,false],"id":41,"leaf_child_counts":[0,0,0,0,0,0,0],"left_children":[1,3,5,-1,-1,-1,-1],"loss_changes":[1.1442114E-1,6.613699E-2,2.4186726E-1,0E0,0E0,0E0,0E0],"parents":[2147483647,0,0,1,1,2,2],"right_children":[2,4,6,-1,-1,-1,-1],"split_conditions":[3.6129034E-1,3.1808064E0,1.1417821E7,2.2174569E-2,-3.538855E-2,1.0252673E-1,-1.9795718E-2],"split_indices":[6,17,10,0,0,0,0],"sum_hessian":[4.3394284E0,2.31009E0,2.0293386E0,1.1023237E0,1.2077664E0,1.0152074E0,1.0141311E0],"tree_param":{"num_deleted":"0","num_feature":"18","num_nodes":"7","size_leaf_vector":"0"}},{"base_weights":[1.403446E-3,1.2775029E-1,-1.7198332E-1,-1.2743878E-1,2.7474302E-1],"default_left":[true,true,false,false,false],"id":42,"leaf_child_counts":[0,0,0,0,0],"left_children":[1,3,-1,-1,-1],"loss_changes":[1.3686182E-1,1.7033657E-1,0E0,0E0,0E0],"parents":[2147483647,0,0,1,1],"right_children":[2,4,-1,-1,-1],"split_conditions":[1.655914E0,1.9354838E-1,-3.9556164E-2,-2.9310921E-2,6.319089E-2],"split_indices":[0,13,0,0,0],"sum_hessian":[4.2445135E0,2.6075788E0,1.636935E0,1.001659E0,1.6059196E0],"tree_param":{"num_deleted":"0","num_feature":"18","num_nodes":"5","size_leaf_vector":"0"}},{"base_weights":[-1.3566559E-2,-1.5103932E-1,1.6210033E-1,8.1714354E-2,-3.3652073E-1],"default_left":[true,true,false,false,false],"id":43,"leaf_child_counts":[0,0,0,0,0],"left_children":[1,3,-1,-1,-1],"loss_changes":[1.4910032E-1,1.7482054E-1,0E0,0E0,0E0],"parents":[2147483647,0,0,1,1],"right_children":[2,4,-1,-1,-1],"split_conditions":[4.263441E-1,6.1290324E-1,3.7283078E-2,1.8794302E-2,-7.739977E-2],"split_indices":[5,7,0,0,0],"sum_hessian":[4.160241E0,2.4124835E0,1.7477578E0,1.3180097E0,1.0944736E0],"tree_param":{"num_deleted":"0","num_feature":"18","num_nodes":"5","size_leaf_vector":"0"}},{"base_weights":[-1.7109195E-2,1.4673263E-1,-2.0541444E-1,-1.3996169E-1,3.536563E-1],"default_left":[true,true,false,false,false],"id":44,"leaf_child_counts":[0,0,0,0,0],"left_children":[1,3,-1,-1,-1],"loss_changes":[1.8062569E-1,2.3883244E-1,0E0,0E0,0E0],"parents":[2147483647,0,0,1,1],"right_children":[2,4,-1,-1,-1],"split_conditions":[2.7330368E0,7.6158624E0,-4.7245324E-2,-3.219119E-2,8.1340946E-2],"split_indices":[7,17,0,0,0],"sum_hessian":[3.8775876E0,2.1915355E0,1.6860523E0,1.0543426E0,1.1371927E0],"tree_param":{"num_deleted":"0","num_feature":"18","num_nodes":"5","size_leaf_vector":"0"}},{"base_weights":[2.3940865E-2,1.6760206E-1,-1.668044E-1,-1.14197694E-1,3.9621282E-1],"default_left":[true,true,false,false,false],"id":45,"leaf_child_counts":[0,0,0,0,0],"left_children":[1,3,-1,-1,-1],"loss_changes":[1.6806062E-1,2.6525778E-1,0E0,0E0,0E0],"parents":[2147483647,0,0,1,1],"right_children":[2,4,-1,-1,-1],"split_conditions":[1.048387E0,3.315403E1,-3.8365014E-2,-2.626547E-2,9.112895E-2],"split_indices":[14,17,0,0,0],"sum_hessian":[4.1127763E0,2.4151323E0,1.6976442E0,1.3058866E0,1.1092457E0],"tree_param":{"num_deleted":"0","num_feature":"18","num_nodes":"5","size_leaf_vector":"0"}},{"base_weights":[1.50446E-1,6.3349325E-3,3.3531228E-1,1.5107448E-1,-1.4766563E-1],"default_left":[true,true,false,false,false],"id":46,"leaf_child_counts":[0,0,0,0,0],"left_children":[1,3,-1,-1,-1],"loss_changes":[1.3329911E-1,1.086984E-1,0E0,0E0,0E0],"parents":[2147483647,0,0,1,1],"right_children":[2,4,-1,-1,-1],"split_conditions":[1.9833333E0,3.3333335E-2,7.7121824E-2,3.474713E-2,-3.3963095E-2],"split_indices":[13,6,0,0,0],"sum_hessian":[4.083213E0,2.8757286E0,1.207484E0,1.4922332E0,1.3834956E0],"tree_param":{"num_deleted":"0","num_feature":"18","num_nodes":"5","size_leaf_vector":"0"}},{"base_weights":[3.7742727E-2,-1.1489596E-1,2.677037E-1,1.5395564E-1,-3.292124E-1],"default_left":[true,true,false,false,false],"id":47,"leaf_child_counts":[0,0,0,0,0],"left_children":[1,3,-1,-1,-1],"loss_changes":[2.10071E-1,2.679175E-1,0E0,0E0,0E0],"parents":[2147483647,0,0,1,1],"right_children":[2,4,-1,-1,-1],"split_conditions":[9.677419E-2,1.3870968E0,6.1571855E-2,3.5409797E-2,-7.571885E-2],"split_indices":[4,12,0,0,0],"sum_hessian":[4.108493E0,2.770149E0,1.3383439E0,1.3536683E0,1.4164807E0],"tree_param":{"num_deleted":"0","num_feature":"18","num_nodes":"5","size_leaf_vector":"0"}},{"base_weights":[1.0630063E-2,-1.7280526E-1,2.3371114E-1,3.948708E-2,-3.2249787E-1],"default_left":[true,true,false,false,false],"id":48,"leaf_child_counts":[0,0,0,0,0],"left_children":[1,3,-1,-1,-1],"loss_changes":[2.4346642E-1,1.175491E-1,0E0,0E0,0E0],"parents":[2147483647,0,0,1,1],"right_children":[2,4,-1,-1,-1],"split_conditions":[1.1356322E0,1.5878794E1,5.3753562E-2,9.082029E-3,-7.4174516E-2],"split_indices":[13,17,0,0,0],"sum_hessian":[3.9627368E0,2.2982771E0,1.6644596E0,1.2548605E0,1.0434166E0],"tree_param":{"num_deleted":"0","num_feature":"18","num_nodes":"5","size_leaf_vector":"0"}},{"base_weights":[9.639732E-2,2.1588124E-1,-1.5025662E-1,-1.4183991E-2,3.350051E-1],"default_left":[true,true,false,false,false],"id":49,"leaf_child_counts":[0,0,0,0,0],"left_children":[1,3,-1,-1,-1],"loss_changes":[1.795851E-1,1.0818128E-1,0E0,0E0,0E0],"parents":[2147483647,0,0,1,1],"right_children":[2,4,-1,-1,-1],"split_conditions":[1.7997775E0,9.166666E-1,-3.4559023E-2,-3.262318E-3,7.705118E-2],"split_indices":[14,13,0,0,0],"sum_hessian":[3.992929E0,2.7739398E0,1.2189893E0,1.2468382E0,1.5271015E0],"tree_param":{"num_deleted":"0","num_feature":"18","num_nodes":"5","size_leaf_vector":"0"}},{"base_weights":[-2.3840241E-2,1.5116869E-1,-2.8748557E-1,-1.2658167E-1,2.984485E-1],"default_left":[true,true,false,false,false],"id":50,"leaf_child_counts":[0,0,0,0,0],"left_children":[1,3,-1,-1,-1],"loss_changes":[2.8268233E-1,1.9206108E-1,0E0,0E0,0E0],"parents":[2147483647,0,0,1,1],"right_children":[2,4,-1,-1,-1],"split_conditions":[7.859387E5,7.741935E-1,-6.612168E-2,-2.9113784E-2,6.864316E-2],"split_indices":[10,13,0,0,0],"sum_hessian":[4.1846995E0,2.771552E0,1.4131476E0,1.0090855E0,1.7624665E0],"tree_param":{"num_deleted":"0","num_feature":"18","num_nodes":"5","size_leaf_vector":"0"}},{"base_weights":[-4.6815872E-2,6.823645E-2,-1.8839857E-1,-5.9443865E-2,1.8862163E-1],"default_left":[true,true,false,false,false],"id":51,"leaf_child_counts":[0,0,0,0,0],"left_children":[1,3,-1,-1,-1],"loss_changes":[9.219317E-2,6.3797645E-2,0E0,0E0,0E0],"parents":[2147483647,0,0,1,1],"right_children":[2,4,-1,-1,-1],"split_conditions":[3.6265E4,3.3370413E-2,-4.333167E-2,-1.3672089E-2,4.3382976E-2],"split_indices":[10,2,0,0,0],"sum_hessian":[3.8704948E0,2.421109E0,1.4493858E0,1.4206207E0,1.0004883E0],"tree_param":{"num_deleted":"0","num_feature":"18","num_nodes":"5","size_leaf_vector":"0"}},{"base_weights":[3.11415E-2,-1.2797786E-1,2.74473E-1,1.4866076E-1,-3.4401846E-1],"default_left":[true,true,false,false,false],"id":52,"leaf_child_counts":[0,0,0,0,0],"left_children":[1,3,-1,-1,-1],"loss_changes":[2.289422E-1,2.727866E-1,0E0,0E0,0E0],"parents":[2147483647,0,0,1,1],"right_children":[2,4,-1,-1,-1],"split_conditions":[9.677419E-2,1.6034483E0,6.312879E-2,3.4191977E-2,-7.912425E-2],"split_indices":[4,12,0,0,0],"sum_hessian":[4.0057325E0,2.7085905E0,1.297142E0,1.324483E0,1.3841074E0],"tree_param":{"num_deleted":"0","num_feature":"18","num_nodes":"5","size_leaf_vector":"0"}},{"base_weights":[-6.815925E-2,1.5979157E-1,-2.723467E-1,-4.0951377E-1,-2.046956E-4],"default_left":[true,false,true,false,false],"id":53,"leaf_child_counts":[0,0,0,0,0],"left_children":[1,-1,3,-1,-1],"loss_changes":[2.7838525E-1,0E0,1.1308001E-1,0E0,0E0],"parents":[2147483647,0,0,2,2],"right_children":[2,-1,4,-1,-1],"split_conditions":[1.6666668E-2,3.6752064E-2,2.8709679E0,-9.418817E-2,-4.707999E-5],"split_indices":[6,0,3,0,0],"sum_hessian":[4.046043E0,2.0145106E0,2.0315323E0,1.0151097E0,1.0164226E0],"tree_param":{"num_deleted":"0","num_feature":"18","num_nodes":"5","size_leaf_vector":"0"}},{"base_weights":[8.112931E-3,1.7113015E-1,-2.5476775E-1,1.8366633E-2,2.8209314E-1],"default_left":[true,true,false,false,false],"id":54,"leaf_child_counts":[0,0,0,0,0],"left_children":[1,3,-1,-1,-1],"loss_changes":[2.5245458E-1,5.5951327E-2,0E0,0E0,0E0],"parents":[2147483647,0,0,1,1],"right_children":[2,4,-1,-1,-1],"split_conditions":[1.5741935E0,6.490545E-1,-5.859658E-2,4.2243255E-3,6.488142E-2],"split_indices":[1,3,0,0,0],"sum_hessian":[3.8736584E0,2.6064005E0,1.267258E0,1.5870364E0,1.019364E0],"tree_param":{"num_deleted":"0","num_feature":"18","num_nodes":"5","size_leaf_vector":"0"}},{"base_weights":[1.2517664E-1,2.6837167E-1,-1.1169721E-1,-1.0330307E-2,4.4742516E-1],"default_left":[true,true,false,false,false],"id":55,"leaf_child_counts":[0,0,0,0,0],"left_children":[1,3,-1,-1,-1],"loss_changes":[2.0221767E-1,1.772196E-1,0E0,0E0,0E0],"parents":[2147483647,0,0,1,1],"right_children":[2,4,-1,-1,-1],"split_conditions":[1.048387E0,2.0022246E-1,-2.569036E-2,-2.3759708E-3,1.02907784E-1],"split_indices":[14,1,0,0,0],"sum_hessian":[4.077994E0,2.4586918E0,1.619302E0,1.3303183E0,1.1283736E0],"tree_param":{"num_deleted":"0","num_feature":"18","num_nodes":"5","size_leaf_vector":"0"}},{"base_weights":[-1.6442817E-2,-1.5775822E-1,2.2344118E-1,2.1836584E-2,-2.7010065E-1],"default_left":[true,true,false,false,false],"id":56,"leaf_child_counts":[0,0,0,0,0],"left_children":[1,3,-1,-1,-1],"loss_changes":[2.0084731E-1,7.974699E-2,0E0,0E0,0E0],"parents":[2147483647,0,0,1,1],"right_children":[2,4,-1,-1,-1],"split_conditions":[1.9833333E0,3.3333335E-2,5.1391475E-2,5.0224145E-3,-6.212315E-2],"split_indices":[13,6,0,0,0],"sum_hessian":[3.8849864E0,2.6602137E0,1.2247727E0,1.3337139E0,1.3264998E0],"tree_param":{"num_deleted":"0","num_feature":"18","num_nodes":"5","size_leaf_vector":"0"}},{"base_weights":[-5.8742467E-2,-1.9618359E-1,1.2871283E-1,4.47494E-2,-3.6158586E-1],"default_left":[true,true,false,false,false],"id":57,"leaf_child_counts":[0,0,0,0,0],"left_children":[1,3,-1,-1,-1],"loss_changes":[1.5435816E-1,1.471876E-1,0E0,0E0,0E0],"parents":[2147483647,0,0,1,1],"right_children":[2,4,-1,-1,-1],"split_conditions":[4.263441E-1,1.652293E1,2.9603953E-2,1.0292362E-2,-8.316475E-2],"split_indices":[5,17,0,0,0],"sum_hessian":[4.0111194E0,2.2874284E0,1.723691E0,1.2280468E0,1.0593815E0],"tree_param":{"num_deleted":"0","num_feature":"18","num_nodes":"5","size_leaf_vector":"0"}},{"base_weights":[1.4380031E-5,1.7721727E-1,-1.11948885E-1,-2.592008E-1,1.0656333E-1],"default_left":[true,false,true,false,false],"id":58,"leaf_child_counts":[0,0,0,0,0],"left_children":[1,-1,3,-1,-1],"loss_changes":[1.2013094E-1,0E0,1.4701399E-1,0E0,0E0],"parents":[2147483647,0,0,2,2],"right_children":[2,-1,4,-1,-1],"split_conditions":[1.6167965E0,4.0759973E-2,2.919355E0,-5.961619E-2,2.4509566E-2],"split_indices":[12,0,3,0,0],"sum_hessian":[4.0549684E0,1.3443948E0,2.7105734E0,1.5080888E0,1.2024846E0],"tree_param":{"num_deleted":"0","num_feature":"18","num_nodes":"5","size_leaf_vector":"0"}},{"base_weights":[3.385859E-2,1.9429351E-1,-2.2877458E-1,3.9907835E-2,2.8177053E-1],"default_left":[true,true,false,false,false],"id":59,"leaf_child_counts":[0,0,0,0,0],"left_children":[1,3,-1,-1,-1],"loss_changes":[2.628738E-1,3.9518416E-2,0E0,0E0,0E0],"parents":[2147483647,0,0,1,1],"right_children":[2,4,-1,-1,-1],"split_conditions":[9.516129E-1,1.4516129E-1,-5.2618153E-2,9.178802E-3,6.480722E-2],"split_indices":[6,9,0,0,0],"sum_hessian":[4.1838527E0,2.7587948E0,1.4250576E0,1.5244846E0,1.2343103E0],"tree_param":{"num_deleted":"0","num_feature":"18","num_nodes":"5","size_leaf_vector":"0"}},{"base_weights":[7.09883E-2,-7.0359215E-2,3.0095264E-1,8.284498E-2,-2.2474349E-1],"default_left":[true,true,false,false,false],"id":60,"leaf_child_counts":[0,0,0,0,0],"left_children":[1,3,-1,-1,-1],"loss_changes":[1.8469337E-1,1.1148024E-1,0E0,0E0,0E0],"parents":[2147483647,0,0,1,1],"right_children":[2,4,-1,-1,-1],"split_conditions":[2.1612902E0,5E-1,6.921911E-2,1.9054346E-2,-5.1691003E-2],"split_indices":[0,2,0,0,0],"sum_hessian":[4.030584E0,2.9261003E0,1.1044836E0,1.7012444E0,1.2248559E0],"tree_param":{"num_deleted":"0","num_feature":"18","num_nodes":"5","size_leaf_vector":"0"}},{"base_weights":[-7.475217E-3,1.56432E-1,-1.5921879E-1,-3.3343962E-1,8.647867E-2],"default_left":[true,false,true,false,false],"id":61,"leaf_child_counts":[0,0,0,0,0],"left_children":[1,-1,3,-1,-1],"loss_changes":[1.4996143E-1,0E0,1.6180839E-1,0E0,0E0],"parents":[2147483647,0,0,2,2],"right_children":[2,-1,4,-1,-1],"split_conditions":[3.3333335E-2,3.597936E-2,1.967742E0,-7.669111E-2,1.9890096E-2],"split_indices":[6,0,2,0,0],"sum_hessian":[4.0279503E0,1.9215131E0,2.1064372E0,1.0235423E0,1.082895E0],"tree_param":{"num_deleted":"0","num_feature":"18","num_nodes":"5","size_leaf_vector":"0"}},{"base_weights":[6.988773E-2,1.7561738E-1,-1.0717345E-1,1.1875642E-2,2.8405908E-1],"default_left":[true,true,false,false,false],"id":62,"leaf_child_counts":[0,0,0,0,0],"left_children":[1,3,-1,-1,-1],"loss_changes":[1.1329836E-1,5.9463263E-2,0E0,0E0,0E0],"parents":[2147483647,0,0,1,1],"right_children":[2,4,-1,-1,-1],"split_conditions":[9.516129E-1,1.4516129E-1,-2.4649894E-2,2.7313977E-3,6.533359E-2],"split_indices":[6,9,0,0,0],"sum_hessian":[4.046673E0,2.538811E0,1.507862E0,1.4535428E0,1.0852681E0],"tree_param":{"num_deleted":"0","num_feature":"18","num_nodes":"5","size_leaf_vector":"0"}},{"base_weights":[6.6093676E-2,1.7261876E-1,-1.3127033E-1,-3.0491166E-2,3.5897437E-1],"default_left":[true,true,false,false,false],"id":63,"leaf_child_counts":[0,0,0,0,0],"left_children":[1,3,-1,-1,-1],"loss_changes":[1.2873876E-1,1.513285E-1,0E0,0E0,0E0],"parents":[2147483647,0,0,1,1],"right_children":[2,4,-1,-1,-1],"split_conditions":[5.467468E1,8.0088985E-1,-3.0192178E-2,-7.0129684E-3,8.256411E-2],"split_indices":[17,1,0,0,0],"sum_hessian":[4.045563E0,2.7088625E0,1.3367007E0,1.6963661E0,1.0124966E0],"tree_param":{"num_deleted":"0","num_feature":"18","num_nodes":"5","size_leaf_vector":"0"}},{"base_weights":[8.11666E-2,-2.7134247E-2,1.792218E-1,1.841824E-1,-2.0654236E-1],"default_left":[true,true,false,false,false],"id":64,"leaf_child_counts":[0,0,0,0,0],"left_children":[1,3,-1,-1,-1],"loss_changes":[5.9014935E-2,1.628312E-1,0E0,0E0,0E0],"parents":[2147483647,0,0,1,1],"right_children":[2,4,-1,-1,-1],"split_conditions":[3.77957E-1,1.5517241E-1,4.1221015E-2,4.2361952E-2,-4.750474E-2],"split_indices":[5,14,0,0,0],"sum_hessian":[4.099307E0,2.2915697E0,1.8077372E0,1.0399953E0,1.2515745E0],"tree_param":{"num_deleted":"0","num_feature":"18","num_nodes":"5","size_leaf_vector":"0"}},{"base_weights":[-2.4074066E-2,-1.9647196E-1,8.852867E-2,3.4624803E-1,-1.3751607E-1],"default_left":[true,false,true,false,false],"id":65,"leaf_child_counts":[0,0,0,0,0],"left_children":[1,-1,3,-1,-1],"loss_changes":[1.1654332E-1,0E0,2.6776102E-1,0E0,0E0],"parents":[2147483647,0,0,2,2],"right_children":[2,-1,4,-1,-1],"split_conditions":[8.548387E-1,-4.518855E-2,1.048387E0,7.963705E-2,-3.1628694E-2],"split_indices":[14,0,14,0,0],"sum_hessian":[4.107537E0,1.3285959E0,2.778941E0,1.0500194E0,1.7289214E0],"tree_param":{"num_deleted":"0","num_feature":"18","num_nodes":"5","size_leaf_vector":"0"}},{"base_weights":[1.6517797E-2,1.5618499E-1,-1.4722888E-1,-5.8180317E-3,2.3648681E-1],"default_left":[true,true,false,false,false],"id":66,"leaf_child_counts":[0,0,0,0,0],"left_children":[1,3,-1,-1,-1],"loss_changes":[1.3472071E-1,4.198672E-2,0E0,0E0,0E0],"parents":[2147483647,0,0,1,1],"right_children":[2,4,-1,-1,-1],"split_conditions":[1.655914E0,1.09184475E1,-3.3862643E-2,-1.3381473E-3,5.4391965E-2],"split_indices":[0,17,0,0,0],"sum_hessian":[3.8852468E0,2.1217155E0,1.7635312E0,1.0105511E0,1.1111645E0],"tree_param":{"num_deleted":"0","num_feature":"18","num_nodes":"5","size_leaf_vector":"0"}},{"base_weights":[-1.0259489E-2,-1.4871767E-1,1.409141E-1,8.147178E-2,-3.0455852E-1],"default_left":[true,true,false,false,false],"id":67,"leaf_child_counts":[0,0,0,0,0],"left_children":[1,3,-1,-1,-1],"loss_changes":[1.2243771E-1,1.3304564E-1,0E0,0E0,0E0],"parents":[2147483647,0,0,1,1],"right_children":[2,4,-1,-1,-1],"split_conditions":[4.263441E-1,6.1290324E-1,3.241024E-2,1.873851E-2,-7.004846E-2],"split_indices":[5,7,0,0,0],"sum_hessian":[3.848322E0,2.0171149E0,1.831207E0,1.0069623E0,1.0101526E0],"tree_param":{"num_deleted":"0","num_feature":"18","num_nodes":"5","size_leaf_vector":"0"}},{"base_weights":[-1.1745218E-2,2.180707E-1,-1.4314802E-1,-3.0329582E-1,1.0848256E-1],"default_left":[true,false,true,false,false],"id":68,"leaf_child_counts":[0,0,0,0,0],"left_children":[1,-1,3,-1,-1],"loss_changes":[1.8471912E-1,0E0,1.8755494E-1,0E0,0E0],"parents":[2147483647,0,0,2,2],"right_children":[2,-1,4,-1,-1],"split_conditions":[1.4961067E-1,5.015626E-2,1.1290322E-1,-6.975804E-2,2.495099E-2],"split_indices":[14,0,4,0,0],"sum_hessian":[4.083132E0,1.2454145E0,2.8377173E0,1.608611E0,1.2291063E0],"tree_param":{"num_deleted":"0","num_feature":"18","num_nodes":"5","size_leaf_vector":"0"}},{"base_weights":[-1.39508E-1,-2.549462E-1,1.6653752E-2,8.893926E-2,-6.336798E-2],"default_left":[true,false,true,false,false],"id":69,"leaf_child_counts":[0,0,0,0,0],"left_children":[1,-1,3,-1,-1],"loss_changes":[9.241915E-2,0E0,2.309082E-2,0E0,0E0],"parents":[2147483647,0,0,2,2],"right_children":[2,-1,4,-1,-1],"split_conditions":[3.6129034E-1,-5.8637626E-2,5.7780323E1,2.045603E-2,-1.4574635E-2],"split_indices":[6,0,17,0,0],"sum_hessian":[3.8911726E0,1.8735932E0,2.0175793E0,1.0014801E0,1.0160993E0],"tree_param":{"num_deleted":"0","num_feature":"18","num_nodes":"5","size_leaf_vector":"0"}},{"base_weights":[6.2548004E-2,-5.1787768E-2,2.5702533E-1,1.101484E-1,-2.658748E-1,-6.8452954E-2,2.3148842E-1],"default_left":[true,true,false,true,false,false,false],"id":70,"leaf_child_counts":[0,0,0,0,0,0,0],"left_children":[1,3,-1,5,-1,-1,-1],"loss_changes":[1.2925006E-1,1.719782E-1,0E0,8.195387E-2,0E0,0E0,0E0],"parents":[2147483647,0,0,1,1,3,3],"right_children":[2,4,-1,6,-1,-1,-1],"split_conditions":[5.4838705E-1,2.7330368E0,5.9115827E-2,1.0632241E1,-6.1151206E-2,-1.574418E-2,5.3242337E-2],"split_indices":[4,7,0,17,0,0,0],"sum_hessian":[4.214103E0,3.1159203E0,1.0981827E0,2.05045E0,1.0654703E0,1.0058255E0,1.0446244E0],"tree_param":{"num_deleted":"0","num_feature":"18","num_nodes":"7","size_leaf_vector":"0"}},{"base_weights":[-7.4552044E-2,-1.5891688E-1,9.6612744E-2,-5.8422224E-3,-2.7490222E-1],"default_left":[true,true,false,false,false],"id":71,"leaf_child_counts":[0,0,0,0,0],"left_children":[1,3,-1,-1,-1],"loss_changes":[8.6614855E-2,6.379594E-2,0E0,0E0,0E0],"parents":[2147483647,0,0,1,1],"right_children":[2,4,-1,-1,-1],"split_conditions":[1.8532257E0,6.451613E-2,2.2220932E-2,-1.3437112E-3,-6.322751E-2],"split_indices":[13,6,0,0,0],"sum_hessian":[3.934906E0,2.6837015E0,1.2512044E0,1.6096693E0,1.0740322E0],"tree_param":{"num_deleted":"0","num_feature":"18","num_nodes":"5","size_leaf_vector":"0"}},{"base_weights":[4.23909E-2,1.1690193E-1,-9.8496124E-2,-3.6730394E-2,2.0106588E-1],"default_left":[true,true,false,false,false],"id":72,"leaf_child_counts":[0,0,0,0,0],"left_children":[1,3,-1,-1,-1],"loss_changes":[6.653607E-2,5.7626147E-2,0E0,0E0,0E0],"parents":[2147483647,0,0,1,1],"right_children":[2,4,-1,-1,-1],"split_conditions":[5.2315666E1,5.967742E-1,-2.2654109E-2,-8.447991E-3,4.6245154E-2],"split_indices":[17,13,0,0,0],"sum_hessian":[4.241339E0,2.8855171E0,1.3558221E0,1.2207513E0,1.6647657E0],"tree_param":{"num_deleted":"0","num_feature":"18","num_nodes":"5","size_leaf_vector":"0"}},{"base_weights":[-5.841954E-2,-1.3638659E-1,9.4899744E-2,1.9897139E-2,-2.7381352E-1],"default_left":[true,true,false,false,false],"id":73,"leaf_child_counts":[0,0,0,0,0],"left_children":[1,3,-1,-1,-1],"loss_changes":[7.20174E-2,8.462023E-2,0E0,0E0,0E0],"parents":[2147483647,0,0,1,1],"right_children":[2,4,-1,-1,-1],"split_conditions":[1.8532257E0,5.3225803E-1,2.1826942E-2,4.576342E-3,-6.297711E-2],"split_indices":[13,6,0,0,0],"sum_hessian":[3.9418664E0,2.686267E0,1.2555995E0,1.6570566E0,1.0292103E0],"tree_param":{"num_deleted":"0","num_feature":"18","num_nodes":"5","size_leaf_vector":"0"}},{"base_weights":[8.9045994E-2,2.0778437E-1,-8.341512E-2,-2.3435952E-2,3.235687E-1],"default_left":[true,true,false,false,false],"id":74,"leaf_child_counts":[0,0,0,0,0],"left_children":[1,3,-1,-1,-1],"loss_changes":[1.2250765E-1,9.668635E-2,0E0,0E0,0E0],"parents":[2147483647,0,0,1,1],"right_children":[2,4,-1,-1,-1],"split_conditions":[1.0806451E0,1.1323693E0,-1.9185478E-2,-5.390269E-3,7.44208E-2],"split_indices":[14,12,0,0,0],"sum_hessian":[4.136076E0,2.328263E0,1.8078129E0,1.0429968E0,1.2852662E0],"tree_param":{"num_deleted":"0","num_feature":"18","num_nodes":"5","size_leaf_vector":"0"}},{"base_weights":[4.4032194E-2,1.9793117E-1,-6.4903446E-2,-2.7343148E-1,1.7976962E-1],"default_left":[true,false,true,false,false],"id":75,"leaf_child_counts":[0,0,0,0,0],"left_children":[1,-1,3,-1,-1],"loss_changes":[9.529853E-2,0E0,2.3450325E-1,0E0,0E0],"parents":[2147483647,0,0,2,2],"right_children":[2,-1,4,-1,-1],"split_conditions":[1.5878794E1,4.552417E-2,1.967742E0,-6.288924E-2,4.1347012E-2],"split_indices":[17,0,2,0,0],"sum_hessian":[3.9180849E0,1.2853085E0,2.6327763E0,1.3579205E0,1.2748557E0],"tree_param":{"num_deleted":"0","num_feature":"18","num_nodes":"5","size_leaf_vector":"0"}},{"base_weights":[8.8669844E-2,1.8688813E-1,-7.220131E-2,3.2623752E-3,2.6252005E-1],"default_left":[true,true,false,false,false],"id":76,"leaf_child_counts":[0,0,0,0,0],"left_children":[1,3,-1,-1,-1],"loss_changes":[9.479743E-2,4.7385655E-2,0E0,0E0,0E0],"parents":[2147483647,0,0,1,1],"right_children":[2,4,-1,-1,-1],"split_conditions":[2.8166666E0,7.6158624E0,-1.6606301E-2,7.5034634E-4,6.0379613E-2],"split_indices":[7,17,0,0,0],"sum_hessian":[4.1456556E0,2.473661E0,1.6719947E0,1.0259368E0,1.4477241E0],"tree_param":{"num_deleted":"0","num_feature":"18","num_nodes":"5","size_leaf_vector":"0"}},{"base_weights":[-2.5614884E-2,-1.3730752E-1,5.3661525E-2,-7.098392E-2,1.7918015E-1],"default_left":[true,false,true,false,false],"id":77,"leaf_child_counts":[0,0,0,0,0],"left_children":[1,-1,3,-1,-1],"loss_changes":[5.0630424E-2,0E0,6.867615E-2,0E0,0E0],"parents":[2147483647,0,0,2,2],"right_children":[2,-1,4,-1,-1],"split_conditions":[8.548387E-1,-3.158073E-2,2.919355E0,-1.63263E-2,4.1211434E-2],"split_indices":[14,0,3,0,0],"sum_hessian":[3.88586E0,1.3092483E0,2.5766115E0,1.5107982E0,1.0658133E0],"tree_param":{"num_deleted":"0","num_feature":"18","num_nodes":"5","size_leaf_vector":"0"}},{"base_weights":[2.8725665E-2,-6.408151E-2,1.798146E-1,7.847744E-2,-2.2004512E-1],"default_left":[true,true,false,false,false],"id":78,"leaf_child_counts":[0,0,0,0,0],"left_children":[1,3,-1,-1,-1],"loss_changes":[8.081242E-2,1.01721995E-1,0E0,0E0,0E0],"parents":[2147483647,0,0,1,1],"right_children":[2,4,-1,-1,-1],"split_conditions":[2.0967741E-1,9.83871E-1,4.135736E-2,1.8049812E-2,-5.061038E-2],"split_indices":[4,0,0,0,0],"sum_hessian":[3.9414454E0,2.7983892E0,1.1430563E0,1.7215885E0,1.0768006E0],"tree_param":{"num_deleted":"0","num_feature":"18","num_nodes":"5","size_leaf_vector":"0"}},{"base_weights":[-1.7855247E-2,-1.18719205E-1,1.36371E-1,4.7217544E-2,-2.7356935E-1],"default_left":[true,true,false,false,false],"id":79,"leaf_child_counts":[0,0,0,0,0],"left_children":[1,3,-1,-1,-1],"loss_changes":[9.9177554E-2,1.0953176E-1,0E0,0E0,0E0],"parents":[2147483647,0,0,1,1],"right_children":[2,4,-1,-1,-1],"split_conditions":[1.5731182E0,5.3225803E-1,3.136533E-2,1.0860035E-2,-6.292095E-2],"split_indices":[13,6,0,0,0],"sum_hessian":[4.3348155E0,2.7600014E0,1.574814E0,1.6678338E0,1.0921676E0],"tree_param":{"num_deleted":"0","num_feature":"18","num_nodes":"5","size_leaf_vector":"0"}},{"base_weights":[-5.6501057E-2,1.1279863E-1,-3.2840836E-1,-7.3708735E-2,3.025121E-1],"default_left":[true,true,false,false,false],"id":80,"leaf_child_counts":[0,0,0,0,0],"left_children":[1,3,-1,-1,-1],"loss_changes":[2.5482038E-1,1.517936E-1,0E0,0E0,0E0],"parents":[2147483647,0,0,1,1],"right_children":[2,4,-1,-1,-1],"split_conditions":[1.7376344E0,8.0088985E-1,-7.553393E-2,-1.695301E-2,6.957778E-2],"split_indices":[1,1,0,0,0],"sum_hessian":[3.730791E0,2.6598356E0,1.0709556E0,1.6495934E0,1.0102422E0],"tree_param":{"num_deleted":"0","num_feature":"18","num_nodes":"5","size_leaf_vector":"0"}}]},"name":"gbtree"},"learner_model_param":{"base_score":"5E-1","num_class":"0","num_feature":"18"},"objective":{"name":"reg:squaredlogerror","reg_loss_param":{"scale_pos_weight":"1"}}},"version":[1,2,0]}